#mdl#2#3243
#rdr#4/0/0
10:u0:%x[0,0],
11:u1:%x[-1,0],
11:u2:%x[-2,0],
9:b:%x[0,0],
#qrk#62
1:O,
15:B-cost_relative,
15:B-loc.city_name,
16:B-loc.state_code,
15:B-date.day_name,
20:B-time.period_of_day,
20:B-date.date_relative,
14:B-airline_name,
13:B-flight_time,
20:B-time.time_relative,
11:B-time.time,
12:B-flight_mod,
14:B-airline_code,
16:B-loc.state_name,
11:B-city_name,
17:B-date.day_number,
17:B-date.month_name,
9:B-connect,
12:B-round_trip,
17:B-time.period_mod,
18:B-loc.airport_name,
13:B-flight_stop,
12:B-state_name,
15:B-aircraft_code,
12:B-class_type,
15:B-flight_number,
16:B-transport_type,
14:B-airport_name,
8:B-return,
11:B-date.year,
15:B-period_of_day,
15:B-time_relative,
6:B-time,
13:B-fare_amount,
6:B-meal,
18:B-meal_description,
12:B-state_code,
9:B-economy,
24:B-return_date.month_name,
24:B-return_date.day_number,
5:B-mod,
13:B-flight_days,
21:B-date.today_relative,
18:B-restriction_code,
17:B-fare_basis_code,
4:B-or,
11:B-meal_code,
17:B-time.start_time,
15:B-time.end_time,
18:B-loc.airport_code,
14:B-airport_code,
16:B-today_relative,
10:B-day_name,
27:B-return_date.date_relative,
22:B-return_date.day_name,
11:B-days_code,
12:B-month_name,
12:B-day_number,
18:B-loc.country_name,
28:B-return_date.today_relative,
24:B-return_time.period_mod,
27:B-return_time.period_of_day,
#qrk#4151
6:u0:i'd,
7:u1:_x-1,
7:u2:_x-2,
5:b:i'd,
7:u0:like,
6:u1:i'd,
7:u2:_x-1,
6:b:like,
5:u0:to,
7:u1:like,
6:u2:i'd,
4:b:to,
7:u0:find,
5:u1:to,
7:u2:like,
6:b:find,
6:u0:the,
7:u1:find,
5:u2:to,
5:b:the,
11:u0:cheapest,
6:u1:the,
7:u2:find,
10:b:cheapest,
9:u0:flight,
11:u1:cheapest,
6:u2:the,
8:b:flight,
7:u0:from,
9:u1:flight,
11:u2:cheapest,
6:b:from,
13:u0:washington,
7:u1:from,
9:u2:flight,
12:b:washington,
5:u0:dc,
13:u1:washington,
7:u2:from,
4:b:dc,
5:u1:dc,
13:u2:washington,
10:u0:atlanta,
5:u2:dc,
9:b:atlanta,
6:u0:i'm,
5:b:i'm,
12:u0:traveling,
6:u1:i'm,
11:b:traveling,
12:u1:traveling,
6:u2:i'm,
9:u0:dallas,
12:u2:traveling,
8:b:dallas,
9:u1:dallas,
15:u0:philadelphia,
9:u2:dallas,
14:b:philadelphia,
4:u0:i,
3:b:i,
7:u0:also,
4:u1:i,
6:b:also,
7:u0:need,
7:u1:also,
4:u2:i,
6:b:need,
7:u1:need,
7:u2:also,
5:u0:go,
7:u2:need,
4:b:go,
5:u1:go,
16:u0:san-francisco,
5:u2:go,
15:b:san-francisco,
5:u0:on,
16:u1:san-francisco,
4:b:on,
12:u0:wednesday,
5:u1:on,
16:u2:san-francisco,
11:b:wednesday,
10:u0:evening,
12:u1:wednesday,
5:u2:on,
9:b:evening,
10:u1:evening,
12:u2:wednesday,
10:u2:evening,
8:u0:thank,
7:b:thank,
6:u0:you,
8:u1:thank,
5:b:you,
6:u1:you,
8:u2:thank,
6:u2:you,
9:u0:travel,
8:b:travel,
7:u0:next,
9:u1:travel,
6:b:next,
7:u1:next,
9:u2:travel,
7:u2:next,
6:u0:fly,
5:b:fly,
23:u0:continental-airlines,
6:u1:fly,
22:b:continental-airlines,
10:u0:between,
23:u1:continental-airlines,
6:u2:fly,
9:b:between,
9:u0:boston,
10:u1:between,
23:u2:continental-airlines,
8:b:boston,
6:u0:and,
9:u1:boston,
10:u2:between,
5:b:and,
6:u1:and,
9:u2:boston,
9:u0:please,
8:b:please,
7:u0:tell,
9:u1:please,
6:b:tell,
5:u0:me,
7:u1:tell,
9:u2:please,
4:b:me,
5:u1:me,
7:u2:tell,
10:u0:flights,
5:u2:me,
9:b:flights,
10:u1:flights,
10:u2:flights,
15:u1:philadelphia,
6:u2:and,
11:u0:thursday,
15:u2:philadelphia,
10:b:thursday,
8:u0:would,
7:b:would,
8:u1:would,
8:u2:would,
7:u0:fare,
6:b:fare,
7:u1:fare,
7:u2:fare,
10:u1:atlanta,
10:u2:atlanta,
4:u0:a,
3:b:a,
4:u1:a,
4:u2:a,
7:u0:give,
6:b:give,
7:u1:give,
7:u2:give,
15:u0:flight-times,
14:b:flight-times,
15:u1:flight-times,
15:u2:flight-times,
12:u0:baltimore,
11:b:baltimore,
5:u0:in,
12:u1:baltimore,
4:b:in,
5:u1:in,
12:u2:baltimore,
10:u0:morning,
5:u2:in,
9:b:morning,
9:u0:before,
10:u1:morning,
8:b:before,
4:u0:8,
9:u1:before,
10:u2:morning,
3:b:8,
24:u0:times-of-your-flights,
23:b:times-of-your-flights,
24:u1:times-of-your-flights,
24:u2:times-of-your-flights,
12:u0:8-o'clock,
11:b:8-o'clock,
10:u0:leaving,
9:b:leaving,
10:u1:leaving,
10:u2:leaving,
7:u0:what,
6:b:what,
7:u1:what,
5:u0:do,
7:u2:what,
4:b:do,
5:u1:do,
7:u0:have,
5:u2:do,
6:b:have,
7:u1:have,
9:u0:denver,
7:u2:have,
8:b:denver,
9:u1:denver,
11:u0:arriving,
9:u2:denver,
10:b:arriving,
11:u1:arriving,
11:u2:arriving,
5:u0:is,
4:b:is,
7:u0:your,
5:u1:is,
6:b:your,
7:u0:last,
7:u1:your,
5:u2:is,
6:b:last,
7:u1:last,
7:u2:your,
7:u2:last,
8:u0:there,
7:b:there,
8:u1:there,
8:u2:there,
7:u0:does,
6:b:does,
20:u0:american-airlines,
7:u1:does,
19:b:american-airlines,
20:u1:american-airlines,
7:u2:does,
20:u2:american-airlines,
7:u0:time,
6:b:time,
7:u1:time,
11:u0:earliest,
7:u2:time,
10:b:earliest,
11:u1:earliest,
11:u2:earliest,
5:u0:of,
4:b:of,
5:u1:of,
5:u2:of,
8:u0:could,
7:b:could,
8:u1:could,
8:u2:could,
14:u0:information,
13:b:information,
13:u0:concerning,
14:u1:information,
12:b:concerning,
13:u1:concerning,
14:u2:information,
13:u2:concerning,
6:u0:one,
5:b:one,
6:u1:one,
6:u2:one,
5:u0:as,
4:b:as,
11:u0:possible,
5:u1:as,
10:b:possible,
19:u0:american-airline,
18:b:american-airline,
19:u1:american-airline,
19:u2:american-airline,
16:u0:early-morning,
15:b:early-morning,
18:u0:times-of-flight,
16:u1:early-morning,
17:b:times-of-flight,
6:u0:twa,
5:b:twa,
6:u1:twa,
6:u2:twa,
13:u0:fort-worth,
12:b:fort-worth,
8:u0:texas,
13:u1:fort-worth,
7:b:texas,
8:u1:texas,
13:u2:fort-worth,
8:u2:texas,
13:u0:interested,
12:b:interested,
13:u1:interested,
13:u2:interested,
7:u0:that,
6:b:that,
7:u1:that,
7:u0:stop,
7:u2:that,
6:b:stop,
7:u1:stop,
7:u2:stop,
13:u0:pittsburgh,
12:b:pittsburgh,
6:u0:for,
5:b:for,
6:u1:for,
6:u2:for,
13:u1:pittsburgh,
13:u2:pittsburgh,
7:u0:want,
6:b:want,
7:u1:want,
7:u2:want,
9:u0:monday,
8:b:monday,
11:u0:airlines,
10:b:airlines,
11:u1:airlines,
11:u2:airlines,
9:u0:ground,
8:b:ground,
17:u0:transportation,
9:u1:ground,
16:b:transportation,
17:u1:transportation,
9:u2:ground,
17:u2:transportation,
10:u0:airport,
9:b:airport,
10:u1:airport,
10:u2:airport,
11:u0:downtown,
10:b:downtown,
10:u0:tuesday,
9:b:tuesday,
15:u0:twenty-first,
14:b:twenty-first,
12:u0:repeating,
11:b:repeating,
12:u1:repeating,
12:u2:repeating,
7:u0:10am,
6:b:10am,
7:u1:10am,
9:u2:before,
7:u0:type,
7:u2:10am,
6:b:type,
7:u1:type,
11:u0:aircraft,
7:u2:type,
10:b:aircraft,
11:u1:aircraft,
7:u0:used,
11:u2:aircraft,
6:b:used,
9:u0:flying,
8:b:flying,
9:u1:flying,
9:u2:flying,
18:u0:united-airlines,
17:b:united-airlines,
18:u1:united-airlines,
18:u2:united-airlines,
6:u0:all,
5:b:all,
8:u0:right,
6:u1:all,
7:b:right,
8:u1:right,
6:u2:all,
8:u2:right,
6:u0:let,
5:b:let,
6:u1:let,
7:u0:know,
6:u2:let,
6:b:know,
7:u1:know,
7:u2:know,
8:u0:using,
7:b:using,
8:u1:using,
8:u2:using,
7:u0:they,
6:b:they,
6:u0:use,
7:u1:they,
5:b:use,
6:u1:use,
7:u2:they,
8:u0:these,
6:u2:use,
7:b:these,
8:u1:these,
8:u2:these,
5:u0:10,
4:b:10,
5:u1:10,
5:u2:10,
7:u0:well,
6:b:well,
7:u0:i'll,
7:u1:well,
6:b:i'll,
6:u0:try,
7:u1:i'll,
7:u2:well,
5:b:try,
6:u1:try,
7:u2:i'll,
6:u2:try,
7:u0:kind,
6:b:kind,
7:u1:kind,
7:u2:kind,
8:u0:flies,
7:b:flies,
8:u1:flies,
8:u2:flies,
13:u0:10-o'clock,
12:b:10-o'clock,
13:u1:10-o'clock,
13:u2:10-o'clock,
12:u0:september,
11:b:september,
12:u0:twentieth,
12:u1:september,
11:b:twentieth,
12:u1:twentieth,
12:u2:september,
12:u2:twentieth,
11:u0:stopover,
10:b:stopover,
11:u1:stopover,
11:u2:stopover,
6:u0:are,
5:b:are,
6:u1:are,
6:u2:are,
5:u0:an,
4:b:an,
5:u1:an,
5:u2:an,
13:u0:connecting,
12:b:connecting,
7:u0:wish,
6:b:wish,
7:u1:wish,
7:u2:wish,
10:u0:airline,
9:b:airline,
10:u1:airline,
10:u2:airline,
8:u0:plane,
7:b:plane,
8:u1:plane,
8:u2:plane,
10:u0:one-way,
9:b:one-way,
10:u1:one-way,
10:u2:one-way,
12:u0:available,
11:b:available,
5:u0:at,
12:u1:available,
4:b:at,
11:u0:noontime,
5:u1:at,
12:u2:available,
10:b:noontime,
11:u1:noontime,
5:u2:at,
11:u2:noontime,
9:u0:around,
8:b:around,
9:u1:around,
9:u2:around,
17:u0:delta-airlines,
16:b:delta-airlines,
17:u1:delta-airlines,
17:u2:delta-airlines,
19:u0:eastern-airlines,
18:b:eastern-airlines,
19:u1:eastern-airlines,
19:u2:eastern-airlines,
8:u0:early,
7:b:early,
8:u1:early,
5:u2:as,
8:u2:early,
11:u1:possible,
11:u2:possible,
6:u0:day,
5:b:day,
6:u1:day,
6:u2:day,
7:u0:will,
6:b:will,
9:u0:arrive,
7:u1:will,
8:b:arrive,
9:u1:arrive,
7:u2:will,
9:u2:arrive,
17:u0:denver-airport,
16:b:denver-airport,
17:u1:denver-airport,
17:u2:denver-airport,
11:u1:downtown,
10:u0:nonstop,
9:b:nonstop,
10:u1:nonstop,
10:u2:nonstop,
9:u0:repeat,
8:b:repeat,
9:u1:repeat,
9:u2:repeat,
13:u0:departures,
12:b:departures,
13:u1:departures,
13:u2:departures,
9:u0:august,
9:u1:monday,
8:b:august,
13:u0:nineteenth,
9:u1:august,
9:u2:monday,
12:b:nineteenth,
13:u1:nineteenth,
9:u2:august,
13:u2:nineteenth,
7:u0:rate,
6:b:rate,
7:u1:rate,
7:u2:rate,
6:u0:any,
5:b:any,
6:u1:any,
6:u2:any,
9:u0:us-air,
8:b:us-air,
9:u1:us-air,
9:u2:us-air,
8:u0:we're,
7:b:we're,
8:u0:going,
8:u1:we're,
7:b:going,
8:u1:going,
8:u2:we're,
8:u2:going,
6:u0:819,
5:b:819,
6:u1:819,
6:u2:819,
7:u0:take,
6:b:take,
7:u1:take,
7:u2:take,
12:u0:9-o'clock,
11:b:9-o'clock,
12:u1:9-o'clock,
12:u2:9-o'clock,
6:u0:out,
5:b:out,
6:u1:out,
6:u2:out,
5:u0:be,
4:b:be,
10:u0:staying,
5:u1:be,
9:b:staying,
10:u1:staying,
5:u2:be,
10:u2:staying,
11:u2:downtown,
6:u0:two,
5:b:two,
8:u0:hours,
6:u1:two,
7:b:hours,
8:u1:hours,
6:u2:two,
8:u2:hours,
6:u0:can,
5:b:can,
6:u1:can,
6:u2:can,
8:u0:about,
7:b:about,
8:u1:about,
8:u2:about,
7:u0:city,
6:b:city,
7:u1:city,
7:u2:city,
7:u0:very,
6:b:very,
7:u1:very,
7:u2:very,
10:u0:working,
9:b:working,
10:u1:working,
11:u0:scenario,
10:u2:working,
10:b:scenario,
8:u0:three,
11:u1:scenario,
7:b:three,
8:u1:three,
11:u2:scenario,
8:u2:three,
6:u0:727,
5:b:727,
6:u1:727,
6:u2:727,
10:u0:georgia,
9:b:georgia,
5:u0:am,
4:b:am,
5:u1:am,
5:u2:am,
9:u0:number,
8:b:number,
9:u1:number,
9:u2:number,
9:u0:return,
8:b:return,
9:u1:return,
9:u2:return,
8:u0:bound,
7:b:bound,
8:u1:bound,
8:u2:bound,
9:u0:friday,
8:b:friday,
7:u0:this,
9:u1:friday,
6:b:this,
7:u0:week,
7:u1:this,
9:u2:friday,
6:b:week,
8:u0:class,
7:b:class,
10:u0:service,
8:u1:class,
9:b:service,
10:u1:service,
8:u2:class,
10:u2:service,
13:u0:california,
12:b:california,
13:u1:california,
13:u2:california,
15:u0:pennsylvania,
14:b:pennsylvania,
6:u0:get,
5:b:get,
6:u1:get,
6:u2:get,
6:u0:yes,
5:b:yes,
6:u1:yes,
6:u2:yes,
8:u0:delta,
7:b:delta,
8:u1:delta,
8:u2:delta,
8:u0:225pm,
7:b:225pm,
8:u1:225pm,
8:u2:225pm,
9:u0:1158pm,
8:b:1158pm,
9:u1:1158pm,
9:u2:1158pm,
12:u0:equipment,
11:b:equipment,
12:u1:equipment,
12:u2:equipment,
7:u1:used,
7:u2:used,
10:u0:looking,
9:b:looking,
10:u1:looking,
10:u2:looking,
11:u0:stopping,
10:b:stopping,
11:u1:stopping,
11:u2:stopping,
9:u0:ticket,
8:b:ticket,
9:u1:ticket,
9:u2:ticket,
11:u0:colorado,
10:b:colorado,
11:u1:colorado,
11:u2:colorado,
7:u0:with,
10:u1:georgia,
6:b:with,
7:u1:with,
10:u2:georgia,
7:u2:with,
14:u0:coach-class,
13:b:coach-class,
7:u0:seat,
14:u1:coach-class,
6:b:seat,
7:u1:seat,
14:u2:coach-class,
7:u2:seat,
5:u0:or,
4:b:or,
9:u0:lowest,
5:u1:or,
8:b:lowest,
9:u1:lowest,
5:u2:or,
9:u2:lowest,
6:u0:buy,
5:b:buy,
6:u1:buy,
6:u2:buy,
12:u0:afternoon,
11:b:afternoon,
12:u1:afternoon,
12:u2:afternoon,
6:u0:230,
5:b:230,
6:u1:230,
6:u2:230,
8:u0:324pm,
7:b:324pm,
6:u0:324,
5:b:324,
6:u1:324,
6:u2:324,
8:u0:110pm,
7:b:110pm,
8:u1:110pm,
8:u2:110pm,
14:u0:seventeenth,
13:b:seventeenth,
10:u0:oakland,
9:b:oakland,
11:u0:american,
10:b:american,
11:u1:american,
6:u0:813,
11:u2:american,
5:b:813,
6:u1:813,
6:u2:813,
10:u1:oakland,
10:u2:oakland,
7:u0:goes,
6:b:goes,
11:u0:straight,
7:u1:goes,
10:b:straight,
10:u0:through,
11:u1:straight,
7:u2:goes,
9:b:through,
10:u1:through,
11:u2:straight,
10:u2:through,
19:u0:without-stopping,
18:b:without-stopping,
19:u1:without-stopping,
10:u0:another,
19:u2:without-stopping,
9:b:another,
10:u1:another,
5:u0:if,
4:b:if,
5:u1:if,
5:u2:if,
10:u0:enroute,
9:b:enroute,
10:u1:enroute,
10:u2:enroute,
5:u0:it,
4:b:it,
5:u1:it,
5:u2:it,
6:u0:may,
5:b:may,
6:u1:may,
6:u2:may,
7:u0:2153,
6:b:2153,
7:u1:2153,
7:u2:2153,
14:u0:first-class,
13:b:first-class,
14:u1:first-class,
14:u2:first-class,
7:u0:list,
6:b:list,
7:u1:list,
7:u2:list,
9:u0:making,
8:b:making,
9:u1:making,
9:u2:making,
14:u0:continental,
13:b:continental,
14:u1:continental,
14:u2:continental,
8:u0:leave,
7:b:leave,
8:u1:leave,
8:u2:leave,
8:u0:after,
7:b:after,
13:u0:12-o'clock,
8:u1:after,
12:b:12-o'clock,
13:u1:12-o'clock,
8:u2:after,
13:u2:12-o'clock,
8:u0:which,
7:b:which,
9:u0:leaves,
8:u1:which,
8:b:leaves,
9:u1:leaves,
8:u2:which,
9:u2:leaves,
9:u0:1220pm,
8:b:1220pm,
9:u1:1220pm,
9:u2:1220pm,
12:u0:5-o'clock,
11:b:5-o'clock,
12:u1:5-o'clock,
12:u2:5-o'clock,
14:u0:lowest-cost,
13:b:lowest-cost,
14:u1:lowest-cost,
14:u2:lowest-cost,
8:u0:645am,
7:b:645am,
8:u1:645am,
8:u2:645am,
10:u1:tuesday,
10:u2:tuesday,
6:u0:has,
5:b:has,
6:u1:has,
6:u2:has,
6:u0:how,
5:b:how,
7:u0:much,
6:u1:how,
6:b:much,
7:u1:much,
6:u2:how,
7:u2:much,
13:u0:round-trip,
12:b:round-trip,
13:u1:round-trip,
13:u2:round-trip,
7:u0:long,
6:b:long,
7:u1:long,
7:u2:long,
18:u0:atlanta-airport,
17:b:atlanta-airport,
7:u0:into,
18:u1:atlanta-airport,
6:b:into,
7:u1:into,
18:u2:atlanta-airport,
7:u2:into,
20:u0:airport-limousine,
19:b:airport-limousine,
20:u1:airport-limousine,
20:u2:airport-limousine,
7:u0:make,
6:b:make,
7:u1:make,
7:u0:trip,
7:u2:make,
6:b:trip,
7:u1:trip,
7:u2:trip,
8:u0:again,
7:b:again,
8:u1:again,
8:u2:again,
8:u0:fares,
7:b:fares,
8:u1:fares,
8:u2:fares,
15:u0:arrival-time,
14:b:arrival-time,
15:u1:arrival-time,
15:u2:arrival-time,
8:u0:755am,
7:b:755am,
8:u1:755am,
8:u2:755am,
9:u0:latest,
8:b:latest,
9:u1:latest,
9:u2:latest,
6:u0:755,
5:b:755,
6:u1:755,
6:u2:755,
11:u0:schedule,
10:b:schedule,
11:u1:schedule,
11:u2:schedule,
6:u0:9pm,
5:b:9pm,
6:u1:9pm,
6:u2:9pm,
15:u0:twenty-ninth,
14:b:twenty-ninth,
11:u0:november,
10:b:november,
15:u0:twenty-third,
11:u1:november,
14:b:twenty-third,
15:u1:twenty-third,
11:u2:november,
15:u2:twenty-third,
7:u0:year,
6:b:year,
7:u0:1991,
7:u1:year,
7:u2:this,
6:b:1991,
7:u1:1991,
7:u2:year,
7:u2:1991,
7:u0:okay,
6:b:okay,
7:u0:just,
7:u1:okay,
6:b:just,
7:u1:just,
7:u2:okay,
7:u2:just,
6:u0:8am,
5:b:8am,
8:u0:hello,
7:b:hello,
8:u1:hello,
8:u2:hello,
8:u0:let's,
7:b:let's,
6:u0:see,
8:u1:let's,
5:b:see,
6:u1:see,
8:u2:let's,
6:u2:see,
16:u0:delta-airline,
15:b:delta-airline,
16:u1:delta-airline,
16:u2:delta-airline,
8:u0:stops,
7:b:stops,
8:u1:stops,
8:u2:stops,
6:u0:way,
5:b:way,
6:u1:way,
6:u2:way,
9:u0:united,
8:b:united,
9:u1:united,
9:u2:united,
8:u0:815am,
7:b:815am,
5:u0:by,
4:b:by,
17:u0:united-airline,
5:u1:by,
16:b:united-airline,
17:u1:united-airline,
17:u2:united-airline,
5:u0:oh,
4:b:oh,
5:u1:oh,
5:u2:oh,
18:u0:eastern-airline,
17:b:eastern-airline,
18:u1:eastern-airline,
18:u2:eastern-airline,
7:u0:some,
6:b:some,
7:u1:some,
7:u2:some,
6:u0:9am,
5:b:9am,
17:u0:dallas-airport,
16:b:dallas-airport,
17:u1:dallas-airport,
17:u2:dallas-airport,
15:u0:arrangements,
14:b:arrangements,
15:u1:arrangements,
15:u2:arrangements,
17:u0:boston-airport,
16:b:boston-airport,
17:u1:boston-airport,
17:u2:boston-airport,
12:u0:departing,
11:b:departing,
12:u1:departing,
12:u2:departing,
10:u0:airfare,
9:b:airfare,
10:u1:airfare,
10:u2:airfare,
14:u0:329-dollars,
13:b:329-dollars,
14:u1:329-dollars,
14:u2:329-dollars,
7:u0:cost,
6:b:cost,
7:u1:cost,
7:u2:cost,
6:u0:air,
5:b:air,
15:u0:restrictions,
6:u1:air,
14:b:restrictions,
15:u1:restrictions,
6:u2:air,
15:u2:restrictions,
14:u0:416-dollars,
13:b:416-dollars,
7:u0:book,
6:b:book,
7:u1:book,
7:u2:book,
8:u0:coach,
7:b:coach,
11:u0:discount,
8:u1:coach,
10:b:discount,
11:u1:discount,
8:u2:coach,
10:u0:arrange,
9:b:arrange,
10:u1:arrange,
10:u2:arrange,
7:u0:july,
6:b:july,
10:u0:seventh,
7:u1:july,
9:b:seventh,
7:u0:sure,
6:b:sure,
7:u1:sure,
7:u2:sure,
12:u0:determine,
11:b:determine,
12:u1:determine,
12:u2:determine,
10:u1:seventh,
7:u2:july,
10:u2:seventh,
7:u0:meal,
6:b:meal,
8:u0:being,
7:u1:meal,
7:b:being,
9:u0:served,
8:u1:being,
7:u2:meal,
8:b:served,
6:u1:8am,
6:u2:8am,
7:u0:such,
6:b:such,
7:u1:such,
7:u2:such,
8:u0:types,
7:b:types,
8:u1:types,
8:u2:types,
7:u0:dc10,
6:b:dc10,
11:u0:sometime,
10:b:sometime,
11:u1:sometime,
11:u2:sometime,
9:u0:direct,
8:b:direct,
9:u1:direct,
9:u2:direct,
10:u0:12-noon,
9:b:12-noon,
10:u0:arrives,
9:b:arrives,
10:u1:arrives,
10:u2:arrives,
16:u2:early-morning,
16:u0:approximately,
15:b:approximately,
6:u0:1pm,
16:u1:approximately,
5:b:1pm,
7:u0:many,
6:b:many,
7:u1:many,
7:u2:many,
8:u0:where,
7:b:where,
8:u1:where,
8:u2:where,
14:u0:dinner-meal,
13:b:dinner-meal,
6:u0:420,
5:b:420,
6:u1:420,
6:u2:420,
4:u0:5,
3:b:5,
4:u1:5,
4:u2:5,
5:u0:my,
4:b:my,
8:u0:final,
5:u1:my,
7:b:final,
14:u0:destination,
8:u1:final,
5:u2:my,
13:b:destination,
14:u1:destination,
8:u2:final,
14:u2:destination,
12:u0:originate,
11:b:originate,
12:u1:originate,
12:u2:originate,
23:u0:latest-time-possible,
22:b:latest-time-possible,
23:u1:latest-time-possible,
23:u2:latest-time-possible,
12:u0:fifteenth,
11:b:fifteenth,
9:u0:during,
8:b:during,
12:u0:breakfast,
9:u1:during,
11:b:breakfast,
6:u0:296,
5:b:296,
9:u0:serves,
6:u1:296,
8:b:serves,
9:u1:serves,
6:u2:296,
8:u0:first,
7:b:first,
8:u1:first,
8:u2:first,
18:u0:early-afternoon,
17:b:early-afternoon,
9:u0:should,
8:b:should,
9:u1:should,
9:u2:should,
8:u0:615pm,
7:b:615pm,
8:u0:their,
7:b:their,
8:u1:their,
8:u2:their,
25:u0:earliest-possible-time,
24:b:earliest-possible-time,
11:u0:question,
10:b:question,
11:u1:question,
11:u2:question,
7:u0:live,
6:b:live,
7:u1:live,
7:u2:live,
9:u0:trying,
8:b:trying,
9:u1:trying,
9:u2:trying,
13:u0:connection,
12:b:connection,
13:u1:connection,
13:u2:connection,
8:u0:those,
7:b:those,
8:u1:those,
12:u0:thirtieth,
11:b:thirtieth,
12:u1:thirtieth,
12:u2:thirtieth,
7:u0:fine,
6:b:fine,
7:u1:fine,
7:u2:fine,
7:u0:help,
6:b:help,
7:u1:help,
7:u2:help,
6:u0:now,
5:b:now,
6:u1:now,
6:u2:now,
6:u0:747,
5:b:747,
6:u1:747,
6:u2:747,
7:u0:able,
6:b:able,
7:u1:able,
6:u0:put,
7:u2:able,
5:b:put,
6:u1:put,
6:u2:put,
17:u0:twenty-seventh,
16:b:twenty-seventh,
17:u1:twenty-seventh,
17:u2:twenty-seventh,
8:u0:night,
7:b:night,
8:u1:night,
8:u2:night,
8:u0:630am,
7:b:630am,
8:u1:630am,
8:u2:630am,
6:u0:650,
5:b:650,
8:u0:third,
7:b:third,
8:u0:rates,
7:b:rates,
8:u1:rates,
8:u2:rates,
18:u0:least-expensive,
17:b:least-expensive,
18:u1:least-expensive,
18:u2:least-expensive,
17:u0:city-of-boston,
16:b:city-of-boston,
17:u1:city-of-boston,
17:u2:city-of-boston,
9:u0:kindly,
8:b:kindly,
9:u1:kindly,
9:u2:kindly,
9:u0:inform,
8:b:inform,
9:u1:inform,
9:u2:inform,
18:u0:12-o'clock-noon,
17:b:12-o'clock-noon,
10:u0:eastern,
9:b:eastern,
10:u1:eastern,
6:u0:825,
10:u2:eastern,
5:b:825,
6:u1:825,
6:u2:825,
7:u0:when,
6:b:when,
7:u1:when,
7:u2:when,
6:u0:555,
5:b:555,
6:u1:555,
6:u2:555,
6:u0:6pm,
5:b:6pm,
6:u0:5pm,
5:b:5pm,
8:u0:sorry,
7:b:sorry,
8:u1:sorry,
8:u2:sorry,
15:u0:thirty-first,
14:b:thirty-first,
15:u1:thirty-first,
15:u2:thirty-first,
7:u0:then,
6:b:then,
7:u1:then,
7:u2:then,
9:u0:fourth,
8:b:fourth,
9:u1:fourth,
9:u2:fourth,
7:u0:plan,
6:b:plan,
7:u1:plan,
7:u2:plan,
11:u0:no-stops,
10:b:no-stops,
11:u1:no-stops,
11:u2:no-stops,
10:u0:economy,
9:b:economy,
10:u1:economy,
10:u2:economy,
11:u1:thursday,
8:u0:fifth,
11:u2:thursday,
7:b:fifth,
8:u1:fifth,
8:u2:fifth,
16:u0:twenty-eighth,
15:b:twenty-eighth,
10:u0:october,
9:b:october,
10:u1:october,
10:u0:twelfth,
9:b:twelfth,
10:u0:numbers,
9:b:numbers,
10:u0:connect,
9:b:connect,
10:u1:connect,
10:u2:connect,
9:u0:cities,
8:u2:those,
8:b:cities,
11:u0:planning,
10:b:planning,
11:u1:planning,
11:u2:planning,
6:u0:269,
5:b:269,
6:u1:269,
6:u2:269,
6:u0:428,
5:b:428,
6:u1:428,
6:u2:428,
8:u0:times,
7:b:times,
8:u1:times,
8:u2:times,
8:u0:makes,
7:b:makes,
8:u1:makes,
8:u2:makes,
11:u0:one-stop,
10:b:one-stop,
11:u1:one-stop,
11:u2:one-stop,
8:u0:april,
7:b:april,
8:u1:april,
15:u1:twenty-first,
8:u2:april,
15:u2:twenty-first,
12:u0:beginning,
11:b:beginning,
12:u1:beginning,
12:u2:beginning,
15:u0:twenty-fifth,
14:b:twenty-fifth,
15:u1:twenty-fifth,
12:u0:returning,
15:u2:twenty-fifth,
11:b:returning,
12:u1:returning,
12:u2:returning,
8:u0:sixth,
7:b:sixth,
12:u0:7-o'clock,
11:b:7-o'clock,
12:u1:7-o'clock,
12:u2:7-o'clock,
12:u1:fifteenth,
12:u2:fifteenth,
10:u0:sixteen,
9:b:sixteen,
10:u1:sixteen,
10:u2:sixteen,
12:u0:seventeen,
11:b:seventeen,
12:u1:seventeen,
12:u2:seventeen,
9:u0:twenty,
8:b:twenty,
9:u1:twenty,
9:u2:twenty,
12:u1:8-o'clock,
12:u2:8-o'clock,
7:u0:four,
6:b:four,
7:u1:four,
7:u2:four,
7:u0:1039,
6:b:1039,
7:u1:1039,
7:u2:1039,
6:u0:257,
5:b:257,
8:u0:great,
7:b:great,
8:u1:great,
8:u2:great,
9:u0:depart,
8:b:depart,
9:u1:depart,
9:u2:depart,
9:u0:sounds,
8:b:sounds,
9:u1:sounds,
9:u2:sounds,
13:u0:twenty-one,
12:b:twenty-one,
13:u1:twenty-one,
13:u2:twenty-one,
8:u0:one's,
7:b:one's,
8:u1:one's,
6:u0:too,
8:u2:one's,
5:b:too,
6:u1:too,
6:u2:too,
16:u0:twenty-second,
15:b:twenty-second,
16:u1:twenty-second,
16:u2:twenty-second,
12:u0:nighttime,
11:b:nighttime,
12:u0:departure,
12:u1:nighttime,
11:b:departure,
12:u1:departure,
12:u2:nighttime,
7:u0:show,
6:b:show,
7:u1:show,
7:u2:show,
20:u0:dallas-fort-worth,
19:b:dallas-fort-worth,
20:u1:dallas-fort-worth,
30:u0:san-francisco-international,
20:u2:dallas-fort-worth,
29:b:san-francisco-international,
11:u0:arrivals,
10:b:arrivals,
11:u1:arrivals,
11:u2:arrivals,
7:u0:most,
6:b:most,
7:u1:most,
7:u2:most,
14:u0:connections,
13:b:connections,
14:u1:connections,
14:u2:connections,
8:u0:tenth,
7:b:tenth,
8:u1:tenth,
11:u0:eleventh,
10:b:eleventh,
7:u0:june,
6:b:june,
7:u1:june,
7:u2:june,
17:u0:business-class,
16:b:business-class,
8:u0:daily,
7:b:daily,
8:u1:daily,
8:u2:daily,
20:u0:stapleton-airport,
19:b:stapleton-airport,
20:u1:stapleton-airport,
11:u0:tomorrow,
20:u2:stapleton-airport,
10:b:tomorrow,
11:u1:tomorrow,
9:u0:thrift,
8:b:thrift,
9:u1:thrift,
9:u2:thrift,
10:u0:explain,
9:b:explain,
14:u0:restriction,
10:u1:explain,
13:b:restriction,
7:u0:ap80,
14:u1:restriction,
10:u2:explain,
6:b:ap80,
7:u0:code,
6:b:code,
5:u0:qx,
7:u1:code,
4:b:qx,
14:u0:represented,
13:b:represented,
14:u1:represented,
14:u2:represented,
11:u0:database,
10:b:database,
6:u0:7pm,
5:b:7pm,
6:u1:7pm,
6:u2:7pm,
6:u0:315,
5:b:315,
5:u0:aa,
4:b:aa,
6:u0:459,
5:u1:aa,
5:b:459,
6:u1:459,
5:u2:aa,
6:u0:m80,
5:b:m80,
9:u1:cities,
9:u2:cities,
10:u0:besides,
9:b:besides,
10:u1:besides,
10:u2:besides,
10:u0:provide,
9:b:provide,
10:u1:provide,
10:u2:provide,
6:u0:jet,
5:b:jet,
6:u1:jet,
6:u2:jet,
7:u0:only,
6:b:only,
7:u1:only,
7:u2:only,
8:u0:today,
7:b:today,
5:u0:dl,
4:b:dl,
12:u0:different,
11:b:different,
12:u1:different,
10:u0:classes,
12:u2:different,
9:b:classes,
10:u1:classes,
10:u2:classes,
4:u0:b,
3:b:b,
4:u1:b,
7:u2:code,
7:u0:same,
4:u2:b,
6:b:same,
7:u1:same,
7:u2:same,
4:u0:c,
3:b:c,
10:u0:booking,
9:b:booking,
10:u1:booking,
10:u2:booking,
5:u0:yn,
4:b:yn,
16:u0:no-later-than,
15:b:no-later-than,
6:u0:2pm,
16:u1:no-later-than,
5:b:2pm,
6:u1:2pm,
16:u2:no-later-than,
6:u2:2pm,
9:u0:what's,
8:b:what's,
9:u1:what's,
9:u2:what's,
7:u0:ap57,
6:b:ap57,
8:u0:codes,
7:b:codes,
9:u0:belong,
8:u1:codes,
8:b:belong,
9:u1:belong,
8:u2:codes,
16:u0:economy-class,
9:u2:belong,
15:b:economy-class,
6:u0:via,
5:b:via,
6:u1:via,
10:u0:layover,
9:b:layover,
10:u1:layover,
10:u2:layover,
7:u0:more,
6:b:more,
7:u1:more,
17:u1:business-class,
7:u2:more,
7:u0:than,
17:u2:business-class,
6:b:than,
7:u1:than,
8:u0:other,
7:u2:than,
7:b:other,
8:u1:other,
16:u1:economy-class,
16:u2:economy-class,
17:u0:late-afternoon,
16:b:late-afternoon,
17:u1:late-afternoon,
17:u2:late-afternoon,
6:u1:1pm,
6:u2:1pm,
12:u0:3-o'clock,
11:b:3-o'clock,
12:u1:3-o'clock,
12:u2:3-o'clock,
10:u1:12-noon,
10:u2:12-noon,
10:u0:delta's,
9:b:delta's,
10:u1:delta's,
10:u2:delta's,
13:u0:rental-car,
12:b:rental-car,
13:u1:rental-car,
13:u2:rental-car,
6:u0:far,
5:b:far,
6:u1:far,
6:u2:far,
11:u0:saturday,
10:b:saturday,
11:u1:saturday,
7:u0:come,
6:b:come,
7:u1:come,
7:u2:come,
11:u0:smallest,
10:b:smallest,
10:u0:seating,
11:u1:smallest,
9:b:seating,
11:u0:capacity,
10:u1:seating,
11:u2:smallest,
10:b:capacity,
17:u0:most-expensive,
16:b:most-expensive,
17:u1:most-expensive,
10:u0:tickets,
17:u2:most-expensive,
9:b:tickets,
10:u1:tickets,
10:u2:tickets,
12:u0:atlanta's,
11:b:atlanta's,
12:u1:atlanta's,
7:u0:noon,
6:b:noon,
7:u1:noon,
7:u2:noon,
14:u0:originating,
13:b:originating,
14:u1:originating,
14:u2:originating,
8:u0:210pm,
7:b:210pm,
9:u0:eighth,
8:b:eighth,
8:u0:ninth,
7:b:ninth,
9:u0:offers,
8:b:offers,
9:u1:offers,
9:u2:offers,
10:u0:heading,
9:b:heading,
10:u1:heading,
10:u2:heading,
6:u0:279,
5:b:279,
6:u1:279,
6:u2:279,
9:u0:137338,
8:b:137338,
4:u0:3,
3:b:3,
4:u1:3,
4:u2:3,
12:u0:1-o'clock,
11:b:1-o'clock,
9:u0:toward,
8:b:toward,
9:u1:toward,
9:u2:toward,
18:u0:oakland-airport,
17:b:oakland-airport,
7:u0:each,
6:b:each,
7:u1:each,
7:u2:each,
4:u0:k,
3:b:k,
12:u0:lufthansa,
11:b:lufthansa,
12:u1:lufthansa,
12:u2:lufthansa,
15:u0:twenty-sixth,
14:b:twenty-sixth,
15:u1:twenty-sixth,
7:u0:name,
6:b:name,
7:u1:name,
7:u2:name,
23:u0:philadelphia-airport,
22:b:philadelphia-airport,
23:u1:philadelphia-airport,
23:u2:philadelphia-airport,
4:u0:1,
3:b:1,
4:u1:1,
4:u2:1,
4:u0:4,
3:b:4,
4:u1:4,
4:u2:4,
17:u0:departure-time,
16:b:departure-time,
17:u1:departure-time,
17:u2:departure-time,
18:u1:early-afternoon,
18:u2:early-afternoon,
12:u0:limousine,
11:b:limousine,
8:u0:total,
7:b:total,
8:u1:total,
8:u2:total,
11:u1:capacity,
10:u2:seating,
11:u2:capacity,
13:u0:advertises,
12:b:advertises,
9:u0:having,
13:u1:advertises,
8:b:having,
9:u1:having,
13:u2:advertises,
9:u2:having,
4:u0:f,
3:b:f,
16:u0:logan-airport,
15:b:logan-airport,
12:u2:departure,
21:u0:pittsburgh-airport,
20:b:pittsburgh-airport,
21:u1:pittsburgh-airport,
21:u2:pittsburgh-airport,
7:u0:town,
6:b:town,
8:u0:kinds,
7:b:kinds,
8:u1:kinds,
8:u2:kinds,
12:u1:limousine,
42:u0:dallas-fort-worth-international-airport,
12:u2:limousine,
41:b:dallas-fort-worth-international-airport,
42:u1:dallas-fort-worth-international-airport,
42:u2:dallas-fort-worth-international-airport,
8:u0:eight,
7:b:eight,
9:u0:within,
8:b:within,
9:u1:within,
23:u0:schedule-for-flights,
22:b:schedule-for-flights,
23:u1:schedule-for-flights,
23:u2:schedule-for-flights,
5:u0:s-,
4:b:s-,
12:u0:designate,
5:u1:s-,
11:b:designate,
12:u1:designate,
5:u2:s-,
12:u2:designate,
8:u0:takes,
7:b:takes,
8:u1:takes,
8:u0:least,
8:u2:takes,
7:b:least,
9:u0:amount,
8:u1:least,
8:b:amount,
9:u1:amount,
8:u2:least,
9:u2:amount,
9:u0:planes,
8:b:planes,
9:u1:planes,
9:u2:planes,
10:u0:usa-air,
9:b:usa-air,
10:u1:usa-air,
10:u2:usa-air,
9:u0:prices,
8:b:prices,
9:u1:prices,
9:u2:prices,
10:u0:various,
9:b:various,
12:u0:airplanes,
10:u1:various,
11:b:airplanes,
12:u1:airplanes,
10:u2:various,
12:u2:airplanes,
7:u0:uses,
6:b:uses,
6:u0:who,
5:b:who,
6:u1:who,
6:u1:9am,
6:u2:9am,
18:u0:time-of-arrival,
17:b:time-of-arrival,
18:u1:time-of-arrival,
18:u2:time-of-arrival,
18:u0:departure-times,
17:b:departure-times,
18:u1:departure-times,
18:u2:departure-times,
6:u0:8pm,
5:b:8pm,
20:u0:baltimore-airport,
19:b:baltimore-airport,
12:u0:including,
11:b:including,
12:u1:including,
12:u2:including,
8:u0:offer,
7:b:offer,
8:u1:offer,
7:u1:dc10,
8:u2:offer,
7:u2:dc10,
9:u0:eleven,
8:b:eleven,
9:u1:eleven,
9:u2:eleven,
10:u0:any-day,
9:b:any-day,
10:u1:any-day,
10:u2:any-day,
6:u0:352,
5:b:352,
6:u1:352,
6:u2:352,
8:u0:price,
7:b:price,
8:u1:price,
8:u2:price,
12:u0:operating,
11:b:operating,
12:u1:operating,
10:u0:sundays,
12:u2:operating,
9:b:sundays,
11:u0:services,
10:b:services,
11:u1:services,
11:u2:services,
15:u0:reservations,
14:b:reservations,
15:u1:reservations,
15:u2:reservations,
7:u0:1765,
6:b:1765,
7:u1:1765,
7:u2:1765,
18:u0:flight-schedule,
17:b:flight-schedule,
18:u1:flight-schedule,
18:u2:flight-schedule,
6:u0:f28,
5:b:f28,
6:u1:f28,
6:u2:f28,
21:u0:air-taxi-operation,
20:b:air-taxi-operation,
21:u1:air-taxi-operation,
37:u0:philadelphia-international-airport,
21:u2:air-taxi-operation,
36:b:philadelphia-international-airport,
5:u0:pm,
4:b:pm,
5:u1:pm,
5:u2:pm,
10:u0:serving,
9:b:serving,
10:u1:serving,
10:u2:serving,
12:u1:breakfast,
9:u1:served,
12:u2:breakfast,
9:u2:served,
11:u0:anything,
10:b:anything,
11:u1:anything,
11:u2:anything,
6:u0:say,
5:b:say,
6:u1:say,
11:u0:mealtime,
6:u2:say,
10:b:mealtime,
6:u0:run,
5:b:run,
6:u1:run,
6:u2:run,
8:u0:seats,
7:b:seats,
8:u1:seats,
8:u2:seats,
8:u2:other,
10:u0:earlier,
9:b:earlier,
10:u1:earlier,
7:u0:1017,
10:u2:earlier,
6:b:1017,
7:u1:1017,
7:u2:1017,
6:u0:630,
5:b:630,
15:u0:5-o'clock-pm,
14:b:5-o'clock-pm,
15:u0:4-o'clock-pm,
14:b:4-o'clock-pm,
8:u0:later,
7:b:later,
8:u1:later,
8:u2:later,
15:u0:6-o'clock-pm,
14:b:6-o'clock-pm,
6:u1:6pm,
6:u2:6pm,
11:u0:serviced,
10:b:serviced,
11:u1:serviced,
11:u2:serviced,
6:u0:dfw,
5:b:dfw,
6:u1:dfw,
6:u2:dfw,
9:u0:1133am,
8:b:1133am,
9:u1:1133am,
7:u0:43pm,
9:u2:1133am,
6:b:43pm,
11:u0:provided,
10:b:provided,
11:u1:provided,
11:u2:provided,
5:u2:by,
11:u0:provides,
10:b:provides,
11:u1:provides,
11:u2:provides,
7:u0:both,
6:b:both,
7:u1:both,
7:u2:both,
8:u0:meals,
7:b:meals,
8:u1:meals,
8:u2:meals,
11:u0:airplane,
10:b:airplane,
11:u1:airplane,
11:u2:airplane,
12:u0:6-o'clock,
11:b:6-o'clock,
9:u0:sunday,
12:u1:6-o'clock,
8:b:sunday,
9:u1:sunday,
12:u2:6-o'clock,
7:u0:mean,
6:b:mean,
4:u1:8,
4:u2:8,
15:u1:twenty-ninth,
15:u2:twenty-ninth,
8:u1:third,
8:u2:third,
13:u0:american's,
12:b:american's,
13:u1:american's,
13:u2:american's,
6:u0:bwi,
5:b:bwi,
6:u1:bwi,
6:u2:bwi,
8:u0:still,
7:b:still,
8:u1:still,
8:u2:still,
8:u0:cover,
7:b:cover,
8:u1:cover,
8:u2:cover,
7:u0:less,
6:b:less,
7:u1:less,
14:u0:200-dollars,
7:u2:less,
13:b:200-dollars,
14:u1:200-dollars,
6:u0:oak,
5:b:oak,
6:u1:oak,
6:u0:atl,
6:u2:oak,
5:b:atl,
10:u0:qx-fare,
9:b:qx-fare,
10:u1:qx-fare,
10:u2:qx-fare,
15:u0:lowest-price,
14:b:lowest-price,
15:u1:lowest-price,
15:u2:lowest-price,
5:u0:82,
4:b:82,
5:u1:82,
5:u2:82,
6:u0:139,
5:b:139,
10:u0:q-fares,
9:b:q-fares,
10:u1:q-fares,
10:u2:q-fares,
14:u0:124-dollars,
13:b:124-dollars,
14:u1:124-dollars,
14:u2:124-dollars,
5:u0:ls,
4:b:ls,
8:u0:stand,
5:u1:ls,
7:b:stand,
8:u1:stand,
5:u2:ls,
8:u0:level,
7:b:level,
10:u0:carries,
9:b:carries,
10:u1:carries,
10:u2:carries,
13:u0:passengers,
12:b:passengers,
7:u0:1505,
6:b:1505,
7:u1:1505,
7:u2:1505,
8:u0:serve,
7:b:serve,
8:u0:lunch,
8:u1:serve,
7:b:lunch,
12:u0:itinerary,
11:b:itinerary,
12:u1:itinerary,
12:u2:itinerary,
13:u1:connecting,
13:u2:connecting,
10:u0:departs,
9:b:departs,
10:u1:departs,
10:u2:departs,
8:u0:local,
7:b:local,
8:u1:local,
9:u0:either,
8:b:either,
9:u1:either,
9:u2:either,
28:u0:dallas-fort-worth-airport,
27:b:dallas-fort-worth-airport,
28:u1:dallas-fort-worth-airport,
28:u2:dallas-fort-worth-airport,
7:u0:1940,
6:b:1940,
13:u1:passengers,
13:u2:passengers,
9:u0:boeing,
8:b:boeing,
6:u0:737,
9:u1:boeing,
5:b:737,
7:u0:hold,
6:u1:737,
9:u2:boeing,
6:b:hold,
4:u0:6,
3:b:6,
4:u1:6,
4:u2:6,
10:u0:qualify,
9:b:qualify,
10:u1:qualify,
10:u2:qualify,
11:u0:describe,
10:b:describe,
11:u1:describe,
11:u2:describe,
6:u0:j31,
5:b:j31,
6:u1:j31,
6:u0:733,
5:b:733,
6:u0:72s,
5:b:72s,
6:u0:734,
5:b:734,
6:u0:100,
5:b:100,
14:u0:415-dollars,
13:b:415-dollars,
6:u0:705,
5:b:705,
6:u1:705,
6:u2:705,
5:u0:71,
4:b:71,
5:u1:71,
5:u2:71,
11:u0:directly,
10:b:directly,
11:u1:directly,
11:u2:directly,
12:u0:scheduled,
11:b:scheduled,
12:u1:scheduled,
11:u0:december,
12:u2:scheduled,
10:b:december,
11:u1:december,
12:u0:turboprop,
11:b:turboprop,
12:u1:turboprop,
12:u2:turboprop,
10:u0:doesn't,
9:b:doesn't,
8:u0:catch,
7:b:catch,
8:u1:catch,
8:u2:catch,
21:u0:lufthansa-airlines,
20:b:lufthansa-airlines,
21:u1:lufthansa-airlines,
21:u2:lufthansa-airlines,
11:u2:saturday,
8:u0:logan,
7:b:logan,
8:u1:logan,
8:u2:logan,
12:u0:2-o'clock,
11:b:2-o'clock,
12:u1:2-o'clock,
12:u2:2-o'clock,
11:u0:distance,
10:b:distance,
11:u1:distance,
11:u2:distance,
11:u0:tuesdays,
10:b:tuesdays,
12:u0:companies,
11:b:companies,
12:u1:companies,
12:u2:companies,
9:u2:serves,
9:u0:people,
8:b:people,
9:u1:people,
9:u2:people,
10:u0:carried,
9:b:carried,
10:u1:carried,
10:u2:carried,
11:u0:shortest,
10:b:shortest,
11:u1:shortest,
11:u2:shortest,
10:u0:january,
9:b:january,
10:u1:january,
8:u0:cheap,
7:b:cheap,
8:u1:cheap,
8:u2:cheap,
7:u0:back,
6:b:back,
10:u0:reverse,
9:b:reverse,
10:u1:reverse,
10:u2:reverse,
11:u0:airports,
10:b:airports,
11:u1:airports,
11:u2:airports,
13:u0:everywhere,
12:b:everywhere,
13:u1:everywhere,
13:u2:everywhere,
11:u0:day-time,
10:b:day-time,
11:u1:day-time,
11:u2:day-time,
7:u0:10pm,
6:b:10pm,
7:u1:10pm,
7:u2:10pm,
18:u0:midway-airlines,
17:b:midway-airlines,
18:u1:midway-airlines,
18:u2:midway-airlines,
8:u2:tenth,
9:u0:twelve,
8:b:twelve,
13:u0:capacities,
12:b:capacities,
13:u1:capacities,
13:u2:capacities,
10:u0:largest,
9:b:largest,
10:u1:largest,
10:u2:largest,
11:u0:greatest,
10:b:greatest,
11:u1:greatest,
11:u2:greatest,
6:u0:767,
5:b:767,
9:u0:dinner,
8:b:dinner,
8:u0:snack,
7:b:snack,
6:u0:3pm,
5:b:3pm,
6:u1:3pm,
6:u2:3pm,
5:u0:12,
4:b:12,
5:u1:12,
4:u0:2,
5:u2:12,
3:b:2,
4:u1:2,
4:u2:2,
8:u1:sixth,
8:u2:sixth,
13:u0:car-rental,
12:b:car-rental,
13:u1:car-rental,
13:u2:car-rental,
7:u0:limo,
6:b:limo,
7:u1:limo,
7:u2:limo,
9:u0:coming,
8:u1:ninth,
8:b:coming,
9:u1:coming,
8:u2:ninth,
7:u1:back,
9:u2:coming,
7:u2:back,
6:u0:fit,
5:b:fit,
6:u1:fit,
6:u2:fit,
6:u1:72s,
6:u0:d9s,
5:b:d9s,
6:u0:73s,
5:b:73s,
7:u0:once,
6:b:once,
7:u1:once,
7:u2:once,
12:u0:expensive,
11:b:expensive,
12:u1:expensive,
12:u2:expensive,
8:u1:eight,
6:u0:sfo,
5:b:sfo,
10:u0:charges,
9:b:charges,
10:u1:charges,
10:u2:charges,
5:u0:no,
4:b:no,
5:u1:no,
5:u2:no,
6:u0:4pm,
5:b:4pm,
5:u0:so,
4:b:so,
5:u1:so,
5:u2:so,
7:u0:here,
6:b:here,
7:u1:here,
7:u0:11am,
7:u2:here,
6:b:11am,
15:u0:abbreviation,
14:b:abbreviation,
5:u0:ua,
15:u1:abbreviation,
4:b:ua,
5:u1:ua,
15:u2:abbreviation,
5:u0:co,
4:b:co,
5:u1:co,
5:u1:dl,
10:u0:weekday,
9:b:weekday,
4:u0:y,
3:b:y,
4:u1:y,
13:u0:1300-hours,
12:b:1300-hours,
13:u0:1600-hours,
12:b:1600-hours,
6:u0:7am,
5:b:7am,
13:u0:1700-hours,
12:b:1700-hours,
13:u1:1700-hours,
13:u2:1700-hours,
8:u0:under,
7:b:under,
14:u0:500-dollars,
8:u1:under,
13:b:500-dollars,
14:u1:500-dollars,
8:u2:under,
14:u2:500-dollars,
11:u0:airfares,
10:b:airfares,
11:u1:airfares,
11:u2:airfares,
10:u0:options,
9:b:options,
10:u1:options,
10:u2:options,
9:u0:philly,
8:b:philly,
10:u0:arrival,
9:b:arrival,
10:u1:arrival,
10:u2:arrival,
12:u1:1-o'clock,
12:u2:1-o'clock,
12:u0:regarding,
11:b:regarding,
24:u0:san-francisco-airport,
12:u1:regarding,
23:b:san-francisco-airport,
16:u1:twenty-eighth,
10:u0:display,
9:b:display,
10:u1:display,
10:u2:display,
9:u0:second,
8:b:second,
8:u0:seven,
7:b:seven,
7:u0:12pm,
6:b:12pm,
7:u1:12pm,
7:u2:12pm,
11:u0:economic,
10:b:economic,
11:u1:economic,
5:u0:98,
4:b:98,
5:u0:us,
4:b:us,
6:u0:345,
5:u1:us,
5:b:345,
6:u1:345,
5:u2:us,
6:u2:345,
7:u0:rent,
6:b:rent,
7:u1:rent,
6:u0:car,
7:u2:rent,
5:b:car,
6:u1:car,
34:u0:stapleton-international-airport,
6:u2:car,
33:b:stapleton-international-airport,
34:u1:stapleton-international-airport,
34:u2:stapleton-international-airport,
9:u2:sunday,
7:u0:1083,
6:b:1083,
7:u1:1083,
5:u2:dl,
7:u2:1083,
12:u0:saturdays,
11:b:saturdays,
6:u0:201,
5:b:201,
6:u1:201,
5:u2:ua,
6:u2:201,
6:u0:343,
5:b:343,
6:u1:343,
6:u2:343,
6:u0:323,
5:b:323,
6:u1:323,
6:u0:229,
6:u2:323,
5:b:229,
6:u1:229,
6:u2:229,
7:u1:week,
7:u2:week,
10:u0:meaning,
9:b:meaning,
10:u1:meaning,
10:u2:meaning,
5:u1:qx,
5:u0:qw,
5:u2:qx,
4:b:qw,
10:u1:weekday,
10:u2:weekday,
11:u2:tomorrow,
8:u0:costs,
7:b:costs,
8:u1:costs,
8:u2:costs,
25:u0:the-day-after-tomorrow,
24:b:the-day-after-tomorrow,
12:u0:transport,
11:b:transport,
12:u1:transport,
6:u0:210,
5:b:210,
14:u0:car-rentals,
13:b:car-rentals,
14:u1:car-rentals,
14:u2:car-rentals,
12:u1:saturdays,
12:u2:saturdays,
6:u0:d-s,
5:b:d-s,
6:u1:d-s,
6:u2:d-s,
8:u2:stand,
6:u0:106,
5:b:106,
6:u1:106,
6:u2:106,
10:u0:grounds,
9:b:grounds,
10:u1:grounds,
10:u2:grounds,
6:u0:838,
5:b:838,
6:u1:838,
6:u2:838,
14:u0:reservation,
13:b:reservation,
14:u1:reservation,
14:u2:reservation,
13:u0:requesting,
12:b:requesting,
13:u1:requesting,
13:u2:requesting,
11:u0:starting,
10:b:starting,
11:u1:starting,
11:u2:starting,
13:u0:afterwards,
12:b:afterwards,
6:u0:402,
5:b:402,
6:u1:402,
6:u2:402,
6:u0:270,
5:b:270,
6:u1:270,
6:u2:270,
6:u0:297,
5:b:297,
6:u1:297,
6:u2:297,
6:u0:281,
5:b:281,
6:u1:281,
6:u2:281,
11:u1:tuesdays,
13:u0:wednesdays,
11:u2:tuesdays,
12:b:wednesdays,
12:u0:thursdays,
11:b:thursdays,
13:u0:fourteenth,
12:b:fourteenth,
8:u0:ap-80,
7:b:ap-80,
8:u1:ap-80,
14:u2:restriction,
8:u0:ap-57,
7:b:ap-57,
6:u1:4pm,
6:u2:4pm,
6:u1:8pm,
6:u2:8pm,
15:u0:2-o'clock-pm,
14:b:2-o'clock-pm,
15:u0:9-o'clock-am,
14:b:9-o'clock-am,
15:u1:9-o'clock-am,
15:u1:5-o'clock-pm,
25:u1:the-day-after-tomorrow,
25:u2:the-day-after-tomorrow,
15:u0:3-o'clock-pm,
14:b:3-o'clock-pm,
15:u1:3-o'clock-pm,
15:u2:3-o'clock-pm,
15:u0:8-o'clock-pm,
14:b:8-o'clock-pm,
15:u0:8-o'clock-am,
14:b:8-o'clock-am,
15:u1:8-o'clock-am,
15:u2:8-o'clock-am,
15:u2:5-o'clock-pm,
8:u2:serve,
14:u0:us-airlines,
13:b:us-airlines,
14:u1:us-airlines,
14:u2:us-airlines,
16:u0:11-o'clock-am,
15:b:11-o'clock-am,
4:u2:y,
12:u2:transport,
4:u0:m,
3:b:m,
4:u1:m,
7:u0:ap68,
6:b:ap68,
13:u0:continuing,
12:b:continuing,
13:u1:continuing,
13:u2:continuing,
13:u0:limousines,
12:b:limousines,
13:u1:limousines,
7:u0:taxi,
13:u2:limousines,
6:b:taxi,
7:u1:taxi,
7:u2:taxi,
7:u0:1209,
6:b:1209,
8:u0:names,
7:b:names,
8:u1:names,
8:u2:names,
14:u0:rental-cars,
13:b:rental-cars,
5:u1:qw,
5:u2:qw,
7:u0:sd-d,
6:b:sd-d,
9:u0:listed,
8:b:listed,
9:u1:listed,
7:u0:1055,
9:u2:listed,
6:b:1055,
7:u1:1055,
6:u0:405,
7:u2:1055,
5:b:405,
5:u0:ea,
4:b:ea,
5:u1:ea,
5:u2:ea,
7:u0:look,
6:b:look,
7:u1:look,
7:u2:look,
8:u1:today,
8:u2:today,
10:u0:what're,
9:b:what're,
10:u1:what're,
10:u2:what're,
9:u1:second,
9:u2:second,
7:u1:11am,
7:u2:11am,
9:u2:during,
13:u0:eighteenth,
12:b:eighteenth,
9:u0:1045am,
8:b:1045am,
6:u0:430,
5:b:430,
6:u1:430,
8:u0:530pm,
6:u2:430,
7:b:530pm,
9:u0:1145am,
8:b:1145am,
8:u0:838am,
7:b:838am,
8:u1:838am,
8:u2:838am,
6:u2:via,
9:u0:thanks,
8:b:thanks,
9:u1:thanks,
9:u2:thanks,
7:u0:near,
6:b:near,
7:u1:near,
6:u1:5pm,
7:u2:near,
6:u2:5pm,
8:u0:close,
7:b:close,
8:u1:close,
8:u2:close,
7:u0:1110,
6:b:1110,
7:u1:1110,
7:u2:1110,
24:u1:san-francisco-airport,
24:u2:san-francisco-airport,
10:u0:fifteen,
9:b:fifteen,
8:u0:while,
7:b:while,
8:u1:while,
8:u2:while,
9:u0:wanted,
8:b:wanted,
9:u1:wanted,
9:u2:wanted,
13:u0:afternoons,
12:b:afternoons,
10:u0:maximum,
9:b:maximum,
10:u1:maximum,
10:u2:maximum,
8:u0:spend,
7:b:spend,
8:u1:spend,
8:u2:spend,
10:u0:lastest,
9:b:lastest,
10:u1:lastest,
10:u2:lastest,
10:u0:longest,
9:b:longest,
10:u1:longest,
10:u2:longest,
6:u0:but,
5:b:but,
6:u1:but,
6:u2:but,
9:u2:within,
7:u0:1059,
6:b:1059,
7:u0:over,
6:b:over,
7:u1:over,
7:u2:over,
5:u0:21,
4:b:21,
6:u0:852,
5:b:852,
6:u1:852,
6:u2:852,
6:u0:928,
5:b:928,
6:u1:928,
6:u2:928,
8:u0:start,
7:b:start,
8:u1:start,
8:u2:start,
11:u0:bay-area,
10:b:bay-area,
8:u0:order,
7:b:order,
7:u0:it's,
6:b:it's,
7:u1:it's,
6:u0:445,
5:b:445,
6:u1:445,
8:u0:515pm,
6:u2:445,
7:b:515pm,
21:u0:washington-airport,
20:b:washington-airport,
21:u1:washington-airport,
21:u2:washington-airport,
26:u0:maximum-number-of-stops,
25:b:maximum-number-of-stops,
9:u0:locate,
8:b:locate,
9:u1:locate,
9:u2:locate,
12:u0:hartfield,
11:b:hartfield,
10:u0:travels,
9:b:travels,
10:u1:travels,
10:u2:travels,
7:u0:late,
6:b:late,
7:u1:late,
7:u2:late,
7:u0:zone,
6:b:zone,
7:u1:zone,
7:u2:zone,
14:u0:inexpensive,
13:b:inexpensive,
14:u1:inexpensive,
14:u2:inexpensive,
12:u0:currently,
11:b:currently,
12:u1:currently,
12:u2:currently,
6:u0:530,
5:b:530,
7:u0:must,
6:b:must,
7:u1:must,
7:u2:must,
11:u0:midnight,
10:b:midnight,
11:u1:midnight,
11:u2:midnight,
7:u0:land,
6:b:land,
7:u1:land,
7:u2:land,
8:u0:place,
7:b:place,
18:u1:oakland-airport,
18:u2:oakland-airport,
8:u0:730pm,
7:b:730pm,
19:u0:transcontinental,
18:b:transcontinental,
19:u1:transcontinental,
19:u2:transcontinental,
9:u0:across,
8:b:across,
9:u1:across,
12:u0:continent,
9:u2:across,
11:b:continent,
12:u1:continent,
12:u2:continent,
8:u0:430pm,
7:b:430pm,
8:u1:430pm,
8:u0:630pm,
8:u2:430pm,
7:b:630pm,
7:u0:gets,
6:b:gets,
7:u1:gets,
7:u2:gets,
8:u0:month,
7:b:month,
8:u1:month,
8:u2:month,
11:u2:december,
11:u0:connects,
10:b:connects,
11:u1:connects,
11:u2:connects,
15:u0:7-o'clock-pm,
14:b:7-o'clock-pm,
11:u0:vicinity,
10:b:vicinity,
11:u1:vicinity,
11:u2:vicinity,
9:u0:begins,
8:b:begins,
9:u1:begins,
9:u2:begins,
8:u0:lands,
7:b:lands,
8:u1:lands,
8:u2:lands,
8:u0:don't,
7:b:don't,
8:u1:don't,
8:u2:don't,
12:u0:stopovers,
11:b:stopovers,
12:u1:stopovers,
12:u2:stopovers,
17:u0:city-in-dallas,
16:b:city-in-dallas,
6:u0:757,
5:b:757,
6:u1:757,
6:u2:757,
7:u0:1992,
10:u2:january,
6:b:1992,
7:u1:1992,
7:u2:1992,
10:u2:october,
15:u1:8-o'clock-pm,
16:u0:10-o'clock-pm,
15:u2:8-o'clock-pm,
15:b:10-o'clock-pm,
9:u0:define,
8:b:define,
9:u1:define,
9:u2:define,
5:u0:fn,
4:b:fn,
8:u0:ap-55,
7:b:ap-55,
12:u0:sixteenth,
11:b:sixteenth,
6:u1:atl,
6:u2:atl,
10:u0:listing,
9:b:listing,
10:u1:listing,
10:u2:listing,
7:u0:2100,
6:b:2100,
12:u0:4-o'clock,
11:b:4-o'clock,
12:u1:4-o'clock,
12:u2:4-o'clock,
16:u0:twenty-fourth,
15:b:twenty-fourth,
6:u0:746,
5:b:746,
6:u1:746,
5:u0:hi,
4:b:hi,
5:u1:hi,
5:u2:hi,
4:u0:q,
3:b:q,
12:u0:overnight,
11:b:overnight,
12:u1:overnight,
12:u2:overnight,
10:u0:without,
9:b:without,
10:u1:without,
10:u2:without,
15:u1:pennsylvania,
15:u2:pennsylvania,
13:u1:wednesdays,
13:u2:wednesdays,
7:u0:1291,
6:b:1291,
7:u1:1291,
7:u2:1291,
6:u0:271,
5:b:271,
6:u1:271,
6:u2:271,
7:u0:sort,
6:b:sort,
7:u1:sort,
7:u2:sort,
15:u1:6-o'clock-pm,
15:u2:6-o'clock-pm,
15:u0:7-o'clock-am,
14:b:7-o'clock-am,
15:u1:7-o'clock-am,
15:u2:7-o'clock-am,
15:u0:5-o'clock-am,
14:b:5-o'clock-am,
15:u1:5-o'clock-am,
15:u2:5-o'clock-am,
6:u1:7am,
6:u2:7am,
15:u0:1500-dollars,
14:b:1500-dollars,
15:u1:1500-dollars,
15:u0:1100-dollars,
14:b:1100-dollars,
5:u0:up,
4:b:up,
5:u1:up,
5:u2:up,
10:u0:mondays,
9:b:mondays,
16:u0:only-weekdays,
15:b:only-weekdays,
16:u1:only-weekdays,
16:u2:only-weekdays,
5:u0:ap,
4:b:ap,
5:u1:ap,
7:u0:area,
6:b:area,
9:u0:proper,
8:b:proper,
8:u1:ap-57,
4:u1:f,
4:u2:f,
5:u1:fn,
14:u1:rental-cars,
14:u2:rental-cars,
11:u1:eleventh,
11:u2:eleventh,
10:u1:twelfth,
9:u0:priced,
8:b:priced,
9:u1:priced,
9:u2:priced,
6:u0:212,
5:b:212,
6:u1:212,
6:u2:212,
11:u0:anywhere,
10:b:anywhere,
11:u1:anywhere,
7:u0:1850,
11:u2:anywhere,
6:b:1850,
7:u1:1850,
7:u2:1850,
7:u0:1700,
6:b:1700,
7:u1:1700,
7:u2:1700,
6:u0:217,
5:b:217,
6:u1:217,
6:u2:217,
14:u0:300-dollars,
13:b:300-dollars,
14:u0:400-dollars,
13:b:400-dollars,
14:u1:400-dollars,
14:u2:400-dollars,
7:u0:3357,
6:b:3357,
7:u1:3357,
7:u2:3357,
6:u1:sfo,
6:u2:sfo,
9:u0:summer,
8:b:summer,
6:u0:non,
5:b:non,
6:u1:non,
6:u2:non,
5:u2:fn,
11:u0:mornings,
10:b:mornings,
5:u1:yn,
12:u1:sixteenth,
12:u2:sixteenth,
15:u0:1000-dollars,
14:b:1000-dollars,
7:u0:0900,
6:b:0900,
7:u0:3724,
6:b:3724,
7:u1:3724,
7:u2:3724,
6:u0:771,
5:b:771,
6:u1:771,
6:u2:771,
19:u0:flight-schedules,
18:b:flight-schedules,
19:u1:flight-schedules,
19:u2:flight-schedules,
10:u0:include,
9:b:include,
10:u1:include,
7:u1:ap57,
15:u1:1000-dollars,
15:u2:1000-dollars,
11:u1:mornings,
11:u2:mornings,
10:u0:whether,
9:b:whether,
10:u1:whether,
10:u2:include,
10:u2:whether,
10:u0:offered,
9:b:offered,
10:u1:offered,
10:u2:offered,
14:u0:round-trips,
13:b:round-trips,
14:u1:round-trips,
14:u2:round-trips,
10:u0:toronto,
9:b:toronto,
10:u1:toronto,
10:u2:toronto,
5:u0:ac,
4:b:ac,
5:u1:ac,
5:u2:ac,
11:u0:new-york,
10:b:new-york,
11:u1:new-york,
11:u2:new-york,
16:u0:new-york-city,
15:b:new-york-city,
12:u0:milwaukee,
11:b:milwaukee,
12:u1:milwaukee,
10:u0:orlando,
12:u2:milwaukee,
9:b:orlando,
10:u1:orlando,
10:u2:orlando,
10:u0:ontario,
9:b:ontario,
10:u1:ontario,
9:u0:tacoma,
10:u2:ontario,
8:b:tacoma,
9:u1:tacoma,
9:u2:tacoma,
14:u0:minneapolis,
13:b:minneapolis,
14:u1:minneapolis,
12:u0:san-diego,
14:u2:minneapolis,
11:b:san-diego,
12:u1:san-diego,
12:u2:san-diego,
17:u0:salt-lake-city,
16:b:salt-lake-city,
17:u1:salt-lake-city,
13:u0:cincinnati,
17:u2:salt-lake-city,
12:b:cincinnati,
13:u1:cincinnati,
13:u2:cincinnati,
8:u0:miami,
7:b:miami,
8:u1:miami,
8:u2:miami,
21:u0:southwest-airlines,
20:b:southwest-airlines,
21:u1:southwest-airlines,
21:u2:southwest-airlines,
10:u0:phoenix,
9:b:phoenix,
10:u1:phoenix,
10:u2:phoenix,
13:u0:la-guardia,
12:b:la-guardia,
13:u1:la-guardia,
9:u0:dulles,
8:b:dulles,
9:u1:dulles,
9:u2:dulles,
14:u0:los-angeles,
13:b:los-angeles,
12:u0:las-vegas,
11:b:las-vegas,
8:u0:equal,
7:b:equal,
8:u1:equal,
14:u0:466-dollars,
8:u2:equal,
13:b:466-dollars,
14:u1:466-dollars,
14:u2:466-dollars,
14:u0:932-dollars,
13:b:932-dollars,
8:u0:along,
7:b:along,
8:u1:along,
8:u2:along,
15:u0:indianapolis,
14:b:indianapolis,
15:u1:indianapolis,
10:u0:memphis,
15:u2:indianapolis,
9:b:memphis,
10:u0:burbank,
9:b:burbank,
10:u1:burbank,
10:u2:burbank,
17:u0:st.-petersburg,
16:b:st.-petersburg,
17:u1:st.-petersburg,
17:u2:st.-petersburg,
16:u0:abbreviations,
15:b:abbreviations,
11:u0:san-jose,
10:b:san-jose,
11:u1:san-jose,
11:u2:san-jose,
25:u0:salt-lake-city-airport,
24:b:salt-lake-city-airport,
25:u1:salt-lake-city-airport,
25:u2:salt-lake-city-airport,
8:u0:tampa,
7:b:tampa,
8:u1:tampa,
12:u0:st.-louis,
8:u2:tampa,
11:b:st.-louis,
12:u1:st.-louis,
12:u2:st.-louis,
10:u0:houston,
9:b:houston,
10:u1:houston,
10:u2:houston,
10:u0:symbols,
9:b:symbols,
10:u1:symbols,
10:u2:symbols,
5:u2:yn,
5:u0:hp,
4:b:hp,
18:u0:orlando-airport,
17:b:orlando-airport,
18:u1:orlando-airport,
18:u2:orlando-airport,
24:u0:orlando-international,
23:b:orlando-international,
24:u1:orlando-international,
24:u2:orlando-international,
6:u0:417,
5:b:417,
6:u1:417,
6:u2:417,
8:u0:718am,
7:b:718am,
14:u1:los-angeles,
14:u2:los-angeles,
26:u0:minimum-connection-time,
25:b:minimum-connection-time,
26:u1:minimum-connection-time,
27:u0:houston-intercontinental,
26:u2:minimum-connection-time,
26:b:houston-intercontinental,
7:u0:4400,
6:b:4400,
7:u1:4400,
7:u2:4400,
7:u0:1026,
6:b:1026,
9:u0:o'hare,
8:b:o'hare,
9:u1:o'hare,
9:u2:o'hare,
8:u1:718am,
10:u0:chicago,
9:b:chicago,
10:u1:chicago,
10:u2:chicago,
11:u0:montreal,
10:b:montreal,
11:u1:montreal,
11:u2:montreal,
14:u0:150-dollars,
13:b:150-dollars,
11:u0:columbus,
10:b:columbus,
11:u1:columbus,
11:u2:columbus,
11:u0:st.-paul,
10:b:st.-paul,
9:u0:newark,
8:b:newark,
9:u1:newark,
12:u0:cleveland,
9:u2:newark,
11:b:cleveland,
12:u1:cleveland,
12:u2:cleveland,
13:u0:new-jersey,
12:b:new-jersey,
13:u1:new-jersey,
13:u2:new-jersey,
6:u0:jfk,
5:b:jfk,
6:u1:jfk,
6:u2:jfk,
13:u2:la-guardia,
12:u0:nashville,
11:b:nashville,
12:u1:nashville,
12:u2:nashville,
11:u0:weekdays,
10:b:weekdays,
21:u0:westchester-county,
20:b:westchester-county,
21:u1:westchester-county,
21:u2:westchester-county,
12:u1:las-vegas,
12:u2:las-vegas,
5:u0:ff,
4:b:ff,
12:u0:tower-air,
11:b:tower-air,
12:u1:tower-air,
12:u2:tower-air,
13:u0:long-beach,
12:b:long-beach,
13:u1:long-beach,
13:u2:long-beach,
7:u0:ohio,
6:b:ohio,
5:u0:sa,
4:b:sa,
10:u0:seattle,
9:b:seattle,
10:u1:seattle,
10:u2:seattle,
7:u0:1993,
6:b:1993,
5:u0:nw,
4:b:nw,
8:u0:bring,
7:b:bring,
8:u1:bring,
8:u2:bring,
6:u0:mco,
5:b:mco,
10:u0:calling,
9:b:calling,
10:u1:calling,
10:u2:calling,
5:u0:la,
4:b:la,
6:u1:mco,
6:u2:mco,
10:u1:memphis,
10:u2:memphis,
7:u0:i've,
6:b:i've,
6:u0:got,
7:u1:i've,
5:b:got,
11:u0:somebody,
6:u1:got,
7:u2:i've,
10:b:somebody,
7:u0:else,
11:u1:somebody,
6:u2:got,
6:b:else,
7:u1:else,
11:u2:somebody,
8:u0:wants,
7:u2:else,
7:b:wants,
8:u1:wants,
6:u2:who,
8:u2:wants,
12:u0:charlotte,
11:b:charlotte,
12:u1:charlotte,
12:u2:charlotte,
14:u0:kansas-city,
13:b:kansas-city,
4:u1:q,
13:u0:difference,
12:b:difference,
13:u1:difference,
13:u2:difference,
4:u2:q,
12:u0:tennessee,
11:b:tennessee,
12:u1:tennessee,
12:u2:tennessee,
17:u0:north-carolina,
16:b:north-carolina,
5:u0:qo,
4:b:qo,
5:u1:qo,
5:u1:ff,
6:u0:ewr,
5:b:ewr,
6:u1:ewr,
6:u0:bur,
5:b:bur,
8:u0:train,
7:b:train,
8:u1:train,
8:u2:train,
9:u0:laying,
8:b:laying,
9:u1:laying,
9:u2:laying,
13:u0:air-canada,
12:b:air-canada,
13:u1:air-canada,
13:u2:air-canada,
12:u0:minnesota,
11:b:minnesota,
9:u0:stands,
8:b:stands,
9:u1:stands,
9:u2:stands,
14:u1:kansas-city,
14:u2:kansas-city,
10:u0:florida,
9:b:florida,
10:u1:florida,
10:u2:florida,
10:u0:landing,
9:b:landing,
10:u1:landing,
10:u2:landing,
7:u0:soon,
6:b:soon,
7:u1:soon,
7:u2:soon,
6:u0:ten,
5:b:ten,
6:u1:ten,
6:u2:ten,
18:u0:during-the-week,
17:b:during-the-week,
19:u0:during-week-days,
18:b:during-week-days,
20:u0:san-diego-airport,
19:b:san-diego-airport,
20:u1:san-diego-airport,
20:u2:san-diego-airport,
10:u0:instead,
9:b:instead,
10:u1:instead,
10:u2:instead,
33:u0:as-soon-thereafter-as-possible,
32:b:as-soon-thereafter-as-possible,
5:u1:nw,
5:u2:nw,
18:u0:phoenix-airport,
17:b:phoenix-airport,
18:u1:phoenix-airport,
18:u2:phoenix-airport,
14:u0:meal-code-s,
13:b:meal-code-s,
7:u1:uses,
7:u2:uses,
6:u0:lax,
5:b:lax,
6:u1:lax,
6:u2:lax,
10:u1:numbers,
10:u2:numbers,
7:u1:ohio,
7:u2:ohio,
12:u1:minnesota,
12:u2:minnesota,
16:u1:new-york-city,
16:u2:new-york-city,
9:u0:canada,
8:b:canada,
9:u1:canada,
9:u2:canada,
11:u0:listings,
10:b:listings,
11:u1:listings,
11:u2:listings,
11:u0:missouri,
10:b:missouri,
11:u1:missouri,
11:u2:missouri,
7:u0:utah,
6:b:utah,
7:u1:utah,
7:u2:utah,
7:u0:1222,
6:b:1222,
7:u1:1222,
7:u2:1222,
13:u0:preferably,
12:b:preferably,
13:u1:preferably,
13:u2:preferably,
9:u0:497766,
8:b:497766,
9:u1:497766,
9:u2:497766,
8:u0:810pm,
7:b:810pm,
8:u1:810pm,
8:u2:810pm,
17:u1:north-carolina,
17:u2:north-carolina,
7:u0:runs,
6:b:runs,
7:u1:runs,
7:u2:runs,
6:u0:505,
5:b:505,
6:u1:505,
6:u2:505,
9:u0:that's,
9:u1:dinner,
8:b:that's,
9:u1:that's,
9:u2:dinner,
9:u2:that's,
6:u0:163,
5:b:163,
13:u0:thirteenth,
12:b:thirteenth,
9:u1:eighth,
9:u2:eighth,
11:u0:includes,
10:b:includes,
11:u1:includes,
11:u2:includes,
18:u0:alaska-airlines,
17:b:alaska-airlines,
18:u1:alaska-airlines,
18:u2:alaska-airlines,
9:u0:nevada,
8:b:nevada,
9:u1:nevada,
9:u2:nevada,
10:u0:detroit,
9:b:detroit,
11:u0:michigan,
10:u1:detroit,
10:b:michigan,
11:u1:michigan,
10:u2:detroit,
11:u2:michigan,
11:u0:actually,
10:b:actually,
11:u1:actually,
11:u2:actually,
14:u0:westchester,
13:b:westchester,
14:u1:westchester,
14:u2:westchester,
8:u0:thing,
7:b:thing,
8:u1:thing,
8:u2:thing,
6:u0:130,
5:b:130,
6:u1:130,
6:u2:130,
10:u2:another,
20:u0:milwaukee-airport,
19:b:milwaukee-airport,
20:u1:milwaukee-airport,
20:u2:milwaukee-airport,
20:u0:the-following-day,
19:b:the-following-day,
13:u0:twenty-six,
12:b:twenty-six,
9:u0:prefer,
8:b:prefer,
9:u1:prefer,
9:u2:prefer,
9:u0:quebec,
8:b:quebec,
9:u1:quebec,
9:u2:quebec,
10:u0:indiana,
9:b:indiana,
10:u1:indiana,
10:u2:indiana,
11:u0:reaching,
10:b:reaching,
11:u1:reaching,
11:u2:reaching,
10:u0:reaches,
9:b:reaches,
10:u1:reaches,
10:u2:reaches,
4:u0:7,
3:b:7,
4:u1:7,
4:u2:7,
12:u0:following,
11:b:following,
12:u1:following,
12:u2:following,
8:u0:route,
7:b:route,
14:u1:seventeenth,
14:u2:seventeenth,
13:u1:fourteenth,
13:u2:fourteenth,
13:u1:thirteenth,
13:u2:thirteenth,
7:u0:date,
6:b:date,
7:u1:date,
7:u2:date,
12:u0:hopefully,
11:b:hopefully,
12:u1:hopefully,
12:u2:hopefully,
7:u0:home,
6:b:home,
21:u0:northwest-airlines,
20:b:northwest-airlines,
21:u1:northwest-airlines,
21:u2:northwest-airlines,
7:u0:days,
6:b:days,
7:u1:days,
7:u2:days,
6:u0:415,
5:b:415,
6:u1:415,
6:u2:415,
10:u0:arizona,
9:b:arizona,
10:u1:arizona,
10:u2:arizona,
11:u1:st.-paul,
11:u2:st.-paul,
12:u0:northwest,
11:b:northwest,
12:u1:northwest,
12:u2:northwest,
24:u0:ontario-international,
23:b:ontario-international,
24:u1:ontario-international,
24:u2:ontario-international,
10:u0:friends,
9:b:friends,
10:u1:friends,
10:u2:friends,
18:u0:toronto-airport,
17:b:toronto-airport,
15:u2:twenty-sixth,
21:u0:la-guardia-airport,
20:b:la-guardia-airport,
21:u1:la-guardia-airport,
21:u2:la-guardia-airport,
5:u1:la,
5:u2:la,
9:u0:single,
8:b:single,
9:u1:single,
9:u2:single,
13:u1:eighteenth,
13:u2:eighteenth,
10:u0:red-eye,
9:b:red-eye,
10:u1:red-eye,
10:u2:red-eye,
10:u2:twelfth,
13:u0:twenty-two,
12:b:twenty-two,
15:u0:america-west,
14:b:america-west,
15:u1:america-west,
12:u0:southwest,
15:u2:america-west,
11:b:southwest,
12:u1:southwest,
12:u2:southwest,
13:u1:twenty-two,
13:u2:twenty-two,
6:u0:six,
5:b:six,
6:u1:six,
6:u2:six,
12:u0:salt-lake,
11:b:salt-lake,
10:u0:tonight,
9:b:tonight,
10:u1:tonight,
10:u2:tonight,
8:u0:visit,
7:b:visit,
8:u1:visit,
8:u2:visit,
7:u0:them,
6:b:them,
8:u0:lives,
7:u1:them,
7:b:lives,
8:u1:lives,
7:u2:them,
8:u2:lives,
6:u1:530,
6:u2:530,
25:u0:st.-petersburg-airport,
24:b:st.-petersburg-airport,
6:u0:539,
5:b:539,
22:u0:trans-world-airline,
21:b:trans-world-airline,
22:u1:trans-world-airline,
22:u2:trans-world-airline,
9:u0:1030am,
8:b:1030am,
9:u1:1030am,
9:u0:1130am,
9:u2:1030am,
8:b:1130am,
9:u0:1115am,
8:b:1115am,
9:u1:1115am,
9:u0:1245pm,
9:u2:1115am,
8:b:1245pm,
4:u0:9,
3:b:9,
4:u1:9,
4:u2:9,
19:u0:at-the-same-time,
18:b:at-the-same-time,
13:u0:new-york's,
12:b:new-york's,
13:u1:new-york's,
32:u0:toronto-international-airport,
31:b:toronto-international-airport,
32:u1:toronto-international-airport,
32:u2:toronto-international-airport,
36:u0:los-angeles-international-airport,
35:b:los-angeles-international-airport,
36:u1:los-angeles-international-airport,
36:u2:los-angeles-international-airport,
38:u0:san-francisco-international-airport,
37:b:san-francisco-international-airport,
38:u1:san-francisco-international-airport,
38:u2:san-francisco-international-airport,
10:u0:closest,
9:b:closest,
10:u1:closest,
10:u2:closest,
5:u0:19,
4:b:19,
5:u1:19,
5:u2:19,
6:u0:845,
5:b:845,
6:u1:845,
6:u2:845,
8:u0:230pm,
7:b:230pm,
8:u1:lunch,
9:u0:supper,
8:b:supper,
9:u1:supper,
6:u0:823,
5:b:823,
6:u1:823,
6:u2:823,
7:u0:1024,
6:b:1024,
7:u1:1024,
7:u2:1024,
7:u0:1205,
6:b:1205,
7:u1:1205,
7:u2:1205,
6:u0:305,
5:b:305,
6:u1:305,
6:u2:305,
8:u0:723pm,
7:b:723pm,
9:u0:1020pm,
8:b:1020pm,
9:u0:nights,
8:b:nights,
10:u0:fridays,
9:b:fridays,
9:u0:1230pm,
8:b:1230pm,
8:u0:934pm,
7:b:934pm,
7:u0:2134,
6:b:2134,
9:u0:taking,
8:b:taking,
9:u1:taking,
9:u2:taking,
6:u0:311,
5:b:311,
6:u2:ewr,
15:u0:9-o'clock-pm,
14:b:9-o'clock-pm,
15:u1:9-o'clock-pm,
15:u2:9-o'clock-pm,
11:u0:nonstops,
10:b:nonstops,
11:u1:nonstops,
11:u2:nonstops,
8:u0:vegas,
7:b:vegas,
8:u1:vegas,
8:u2:vegas,
4:u0:h,
3:b:h,
13:u0:1200-hours,
12:b:1200-hours,
11:u0:sunday's,
10:b:sunday's,
11:u1:sunday's,
11:u2:sunday's,
14:u0:wednesday's,
13:b:wednesday's,
14:u1:wednesday's,
14:u2:wednesday's,
11:u0:friday's,
10:b:friday's,
11:u1:friday's,
11:u2:friday's,
16:u2:twenty-eighth,
18:u1:12-o'clock-noon,
18:u2:12-o'clock-noon,
6:u0:mia,
5:b:mia,
6:u0:bna,
5:b:bna,
6:u0:ord,
5:b:ord,
6:u1:ord,
7:u0:11pm,
6:b:11pm,
11:u0:february,
10:b:february,
11:u1:february,
22:u0:continental-airline,
21:b:continental-airline,
8:u0:march,
7:b:march,
8:u1:march,
11:u2:february,
8:u2:march,
13:u0:love-field,
12:b:love-field,
20:u0:northwest-airline,
19:b:northwest-airline,
20:u1:northwest-airline,
20:u2:northwest-airline,
6:u0:iah,
5:b:iah,
6:u1:iah,
6:u0:hou,
5:b:hou,
6:u1:hou,
13:u1:love-field,
13:u2:love-field,
34:u0:canadian-airlines-international,
33:b:canadian-airlines-international,
5:u0:cp,
4:b:cp,
5:u1:cp,
20:u0:canadian-airlines,
19:b:canadian-airlines,
20:u1:canadian-airlines,
10:u0:choices,
9:b:choices,
10:u1:choices,
10:u2:choices,
8:u2:718am,
13:u0:dinnertime,
12:b:dinnertime,
13:u1:dinnertime,
7:u0:1288,
6:b:1288,
6:u0:d10,
5:b:d10,
11:u0:takeoffs,
10:b:takeoffs,
11:u1:takeoffs,
11:u0:landings,
11:u2:takeoffs,
10:b:landings,
11:u1:landings,
33:u0:general-mitchell-international,
11:u2:landings,
32:b:general-mitchell-international,
41:u0:general-mitchell-international-airport,
40:b:general-mitchell-international-airport,
6:u0:off,
5:b:off,
6:u1:off,
6:u2:off,
10:u0:takeoff,
9:b:takeoff,
10:u1:takeoff,
10:u2:takeoff,
27:u0:general-mitchell-airport,
26:b:general-mitchell-airport,
33:u1:general-mitchell-international,
33:u2:general-mitchell-international,
10:u0:located,
9:b:located,
19:u0:general-mitchell,
18:b:general-mitchell,
13:u0:lunch-time,
12:b:lunch-time,
8:u2:lunch,
12:u0:nationair,
11:b:nationair,
12:u1:nationair,
12:u2:nationair,
6:u0:yyz,
5:b:yyz,
25:u0:lester-pearson-airport,
24:b:lester-pearson-airport,
20:u2:canadian-airlines,
34:u1:canadian-airlines-international,
34:u2:canadian-airlines-international,
10:u0:midwest,
9:b:midwest,
10:u0:express,
10:u1:midwest,
9:b:express,
10:u1:express,
10:u2:midwest,
10:u2:express,
8:u0:720am,
7:b:720am,
10:u0:highest,
9:b:highest,
10:u1:highest,
10:u2:highest,
6:u0:iad,
5:b:iad,
6:u0:bos,
5:b:bos,
6:u0:las,
5:b:las,
6:u0:msy,
5:b:msy,
6:u0:sea,
5:b:sea,
6:u0:san,
5:b:san,
6:u0:hnl,
5:b:hnl,
6:u0:fll,
5:b:fll,
6:u0:den,
5:b:den,
6:u0:phx,
5:b:phx,
6:u0:dtw,
5:b:dtw,
6:u0:phl,
5:b:phl,
6:u0:tpa,
5:b:tpa,
6:u0:dca,
5:b:dca,
6:u0:msp,
5:b:msp,
6:u0:clt,
5:b:clt,
6:u0:rsw,
5:b:rsw,
6:u0:rdu,
5:b:rdu,
6:u0:aus,
5:b:aus,
10:u0:alabama,
9:b:alabama,
9:u0:alaska,
8:b:alaska,
11:u0:arkansas,
10:b:arkansas,
14:u0:connecticut,
13:b:connecticut,
11:u0:delaware,
10:b:delaware,
9:u0:hawaii,
8:b:hawaii,
8:u0:idaho,
7:b:idaho,
11:u0:illinois,
10:b:illinois,
7:u0:iowa,
6:b:iowa,
9:u0:kansas,
8:b:kansas,
11:u0:kentucky,
10:b:kentucky,
12:u0:louisiana,
11:b:louisiana,
8:u0:maine,
7:b:maine,
11:u0:maryland,
10:b:maryland,
16:u0:massachusetts,
15:b:massachusetts,
14:u0:mississippi,
13:b:mississippi,
10:u0:montana,
9:b:montana,
11:u0:nebraska,
10:b:nebraska,
16:u0:new-hampshire,
15:b:new-hampshire,
13:u0:new-mexico,
12:b:new-mexico,
15:u0:north-dakota,
14:b:north-dakota,
11:u0:oklahoma,
10:b:oklahoma,
9:u0:oregon,
8:b:oregon,
15:u0:rhode-island,
14:b:rhode-island,
17:u0:south-carolina,
16:b:south-carolina,
15:u0:south-dakota,
14:b:south-dakota,
10:u0:vermont,
9:b:vermont,
11:u0:virginia,
10:b:virginia,
16:u0:west-virginia,
15:b:west-virginia,
12:u0:wisconsin,
11:b:wisconsin,
10:u0:wyoming,
9:b:wyoming,
5:u0:al,
4:b:al,
5:u0:ak,
5:u1:al,
4:b:ak,
5:u0:az,
5:u1:ak,
5:u2:al,
4:b:az,
5:u0:ar,
5:u1:az,
5:u2:ak,
4:b:ar,
5:u0:ca,
5:u1:ar,
5:u2:az,
4:b:ca,
5:u1:ca,
5:u2:ar,
5:u0:ct,
5:u2:ca,
4:b:ct,
5:u0:de,
5:u1:ct,
5:u2:co,
4:b:de,
5:u0:fl,
5:u1:de,
5:u2:ct,
4:b:fl,
5:u0:ga,
5:u1:fl,
5:u2:de,
4:b:ga,
5:u1:ga,
5:u2:fl,
5:u0:id,
5:u2:ga,
4:b:id,
5:u0:il,
5:u1:id,
4:b:il,
5:u1:il,
5:u2:id,
5:u0:ia,
5:u2:il,
4:b:ia,
5:u0:ks,
5:u1:ia,
4:b:ks,
5:u0:ky,
5:u1:ks,
5:u2:ia,
4:b:ky,
5:u1:ky,
5:u2:ks,
5:u2:ky,
5:u0:md,
4:b:md,
5:u0:ma,
5:u1:md,
4:b:ma,
5:u0:mi,
5:u1:ma,
5:u2:md,
4:b:mi,
5:u0:mn,
5:u1:mi,
5:u2:ma,
4:b:mn,
5:u0:ms,
5:u1:mn,
5:u2:mi,
4:b:ms,
5:u0:mo,
5:u1:ms,
5:u2:mn,
4:b:mo,
5:u0:mt,
5:u1:mo,
5:u2:ms,
4:b:mt,
5:u0:ne,
5:u1:mt,
5:u2:mo,
4:b:ne,
5:u0:nv,
5:u1:ne,
5:u2:mt,
4:b:nv,
5:u0:nh,
5:u1:nv,
5:u2:ne,
4:b:nh,
5:u0:nj,
5:u1:nh,
5:u2:nv,
4:b:nj,
5:u0:nm,
5:u1:nj,
5:u2:nh,
4:b:nm,
5:u0:ny,
5:u1:nm,
5:u2:nj,
4:b:ny,
5:u0:nc,
5:u1:ny,
5:u2:nm,
4:b:nc,
5:u0:nd,
5:u1:nc,
5:u2:ny,
4:b:nd,
5:u1:nd,
5:u2:nc,
5:u0:ok,
5:u2:nd,
4:b:ok,
5:u1:ok,
5:u0:pa,
5:u2:ok,
4:b:pa,
5:u0:ri,
5:u1:pa,
4:b:ri,
5:u0:sc,
5:u1:ri,
5:u2:pa,
4:b:sc,
5:u0:sd,
5:u1:sc,
5:u2:ri,
4:b:sd,
5:u0:tn,
5:u1:sd,
5:u2:sc,
4:b:tn,
5:u0:tx,
5:u1:tn,
5:u2:sd,
4:b:tx,
5:u0:ut,
5:u1:tx,
5:u2:tn,
4:b:ut,
5:u0:vt,
5:u1:ut,
5:u2:tx,
4:b:vt,
5:u0:va,
5:u1:vt,
5:u2:ut,
4:b:va,
5:u0:wa,
5:u1:va,
5:u2:vt,
4:b:wa,
5:u0:wv,
5:u1:wa,
5:u2:va,
4:b:wv,
5:u0:wi,
5:u1:wv,
5:u2:wa,
4:b:wi,
5:u0:wy,
5:u1:wi,
5:u2:wv,
4:b:wy,
0=0x1.5217cf7f09014p+1
62=0x1.402aa5405629ap+1
63=0x1.1d86432dcc7d4p-1
64=0x1.f7d50a0cb29eap-1
66=0x1.7e61d5a40dep-1
67=0x1.8b5cd0d1d16abp-1
69=0x1.6c8de09b21f2fp-1
70=0x1.7272d90ec1131p-2
72=0x1.a3110a99a607cp-4
73=0x1.d6514ae5b787ep-1
74=0x1.d517715154b04p-4
75=0x1.438a85f61c59p+1
76=0x1.08be536daa863p+0
80=0x1.bd04013b3acfcp-3
86=0x1.11295fb0c11bap-1
88=0x1.1c1cab6d965d6p+0
102=0x1.4bce546807bfcp-4
111=0x1.1db5dbdbbaa83p+1
124=0x1.402aa5405629ap+1
125=0x1.1d86432dcc7d4p-1
126=0x1.f7d50a0cb29eap-1
128=0x1.7e61d5a40dep-1
129=0x1.8b5cd0d1d16abp-1
131=0x1.6c8de09b21f2fp-1
132=0x1.7272d90ec1131p-2
134=0x1.a3110a99a607cp-4
135=0x1.d6514ae5b787ep-1
136=0x1.d517715154b04p-4
137=0x1.438a85f61c59p+1
138=0x1.08be536daa863p+0
142=0x1.bd04013b3acfcp-3
148=0x1.11295fb0c11bap-1
150=0x1.1c1cab6d965d6p+0
164=0x1.4bce546807bfcp-4
173=0x1.1db5dbdbbaa83p+1
186=0x1.bc1bb7a2ce3dap+1
1674=0x1.287d97c4459b2p+1
4030=0x1.c47429a6011a4p-2
4092=0x1.5dc8cc48562a3p-2
4154=0x1.b179ea423de46p+1
4156=-0x1.5665a8f8b5a3ep-1
4157=0x1.09bec130ad3ffp-4
4159=0x1.d746a270b4dbep-1
4161=0x1.8c2fafe80784ap+0
4162=0x1.e3d21df19ebadp-1
4168=0x1.4a50e054bd0e4p+1
4179=0x1.7f21506d2472p+0
4180=0x1.40057161ff89ep-9
4203=-0x1.ed6f407da376ep-4
4204=0x1.866d60a35419p-2
4216=0x1.7a2a637ecb7b5p+2
8060=0x1.b024441a32f65p+4
8122=0x1.583113aa5c588p+1
8246=0x1.f1afdd1274199p+1
8370=0x1.2cfa5c48a4873p+2
8494=0x1.54366f5413bdep-2
8804=0x1.028a5b579962ap+1
8866=0x1.ceb4a48c1a44cp-1
9052=0x1.1d699a5255708p+1
9486=0x1.76e50df0eaa4ep+1
9858=0x1.89b7af6f6da9bp+1
9920=0x1.2fc81af8d0524p+0
9982=0x1.3b8d1dbb5dfcep+0
10726=0x1.b527c76cdb222p+0
11284=0x1.665449dc05e6cp+1
11346=0x1.edb12956d1ef1p+0
11780=0x1.41c72228ca929p+0
12090=0x1.405916ce31984p+1
12152=0x1.1d80eed7deb2p+3
12154=0x1.63b5703e59408p+3
12162=0x1.65b397c4440dp+1
12165=0x1.2b5cdfcbbdd3ep+2
12166=0x1.fe0bba245427ep+2
12172=0x1.33196047ed981p+3
12185=0x1.56ba4b7608831p+1
12189=0x1.7092ff2d1045bp-2
12201=0x1.139a268e9c764p+3
12204=0x1.f218f4b08e06ep+0
12214=0x1.3399c57ded2bep+1
12216=-0x1.4965508bedb5ap+1
12222=0x1.ac7ed0d77b2abp+0
12232=-0x1.a36398de188fap-4
12276=0x1.2463384744899p+0
16120=0x1.0078b21bf37ecp+3
16135=-0x1.e96579c3e0588p-6
16244=0x1.80e82e8d9d6e5p+1
16245=0x1.3cca7b3b041bdp-3
16246=0x1.62338b3d6187dp-1
16248=0x1.aa19b4396878cp-1
16250=0x1.39e2556af694dp-1
16253=-0x1.7aff07032e98fp-9
16255=0x1.3ed9fc3617cbap-4
16257=0x1.8016f1439db5ap+1
16262=0x1.2445ed9d0c20bp-5
16263=0x1.79117a9731797p-1
16264=0x1.d88066d695948p-2
16265=0x1.1226d6747a37p+0
16268=0x1.e236cdd001bfcp-7
16286=0x1.259d1da7b0c44p-1
16289=0x1.bf97644361e72p-3
16306=0x1.f8ac91ba058c2p+1
16926=0x1.22e32319472b5p-2
17298=0x1.dd9281f2fe18dp-6
17313=-0x1.dd3684285296ap-6
17484=0x1.5133ce32a22eap-1
18042=0x1.e9f961e75d9b7p+0
20151=0x1.28d0c0fd6adb1p+3
20212=0x1.b9d4ea090f482p-2
20213=0x1.27847162e4943p+1
20217=0x1.c58f3e613bd05p+0
20219=0x1.05993a30bf7f7p-1
20220=0x1.207e2ed63b17dp+1
20222=0x1.40198d7b6c0fdp+0
20223=0x1.17e6a7676f849p+1
20225=-0x1.af8fc85995eccp-3
20226=0x1.25b408442556cp-1
20227=0x1.771b5291fe466p+1
20230=-0x1.fa4d5f381b6fp-6
20232=0x1.298df858c771ap+1
20238=0x1.c4ccefb020e36p-1
20239=0x1.2b0b148aea6aap+1
20252=0x1.288a9e939c553p+1
20256=0x1.a9c7a4f30821fp-1
20274=0x1.a55aa9f324c9bp+1
20337=0x1.acb9244785ffap-2
24180=0x1.8f0f4f00c5062p+2
24304=0x1.6b6d551e16169p+1
24312=0x1.de8b05e3ef319p-1
24314=-0x1.1cc968e73408p-7
24315=0x1.45a95a3260eap-5
24328=0x1.3ad590ed7087ep-1
24329=-0x1.40e53abfdba2p-9
24336=0x1.b6c84a5b09a81p-2
24339=0x1.63536d63189e6p-3
24357=0x1.fca018e9ea6adp-2
24366=0x1.26453d296afe3p+1
24428=0x1.ae7099fd4d347p+0
24676=0x1.16d9276edbcbap+1
24800=0x1.6558ff86e2196p+1
24986=0x1.f190ffa945e3ap+1
25048=0x1.fa684bfcba248p+1
25234=-0x1.d86c0587cbb0bp-3
25296=-0x1.fa92fd8088p-19
25420=0x1.883128d481f33p+0
25544=-0x1.88fa4f2af2ebp+0
25668=0x1.e6086e5fb9962p-3
26536=0x1.56964f2b8167p-1
28210=0x1.3bd40af60a878p+4
28272=0x1.020720e489d0dp+1
28279=0x1.adbae37e7ee25p-7
28284=0x1.356e5064c32c9p+1
28297=0x1.4e99f85e2d345p+2
28314=0x1.210cce0bd610cp+0
28334=0x1.141c419e41741p+0
28396=0x1.727b9cc09a029p+1
28644=0x1.2d61544824c5cp+0
28706=0x1.29eaa1ffc699dp+0
28830=0x1.55047d8b66016p+0
28892=0x1.859a74363302cp+0
29016=0x1.1ffc629897f3p-1
29512=0x1.8e15bd4ccc73dp-3
29636=0x1.cf2e4477ee17ap-1
29698=0x1.224db6ada9bf4p+1
29884=0x1.09936bfa1c712p+0
29946=0x1.f5ce222288182p+0
30070=-0x1.62411eb15dbe7p-5
30132=-0x1.64026e55c4f26p-4
30380=0x1.f7dc8e89cef62p-1
30442=0x1.f29dec9e3f46cp+0
31000=0x1.fb8f7c0f6bc33p-1
32242=0x1.a50435e25ded5p+1
32253=0x1.3807a29e23ca2p+1
32254=0x1.0061f2a63c617p+1
32302=0x1.03d9e8c09bddbp+2
32304=0x1.b14597569d1a7p+2
32316=0x1.c146d5dc8dac6p+1
32322=0x1.decacdb0b79dap+2
32351=0x1.11506033eb0dap+2
32364=0x1.63890758a8258p+0
32366=0x1.3d1d88acdc21ep+0
32371=0x1.3ac9013b5561cp-2
32375=0x1.067cf2b357842p-2
32389=0x1.8edb7ce03dd2ap+1
32428=0x1.cac5b94164cfep+1
32440=0x1.e5269e1614ce3p+0
32550=0x1.892d3a072a1dfp+0
32563=0x1.838c65c4d1a01p+0
35218=0x1.a564ea6cd7b17p-1
35540=0x1.44042748882ap+1
36270=-0x1.6a8e1c4b982b9p+1
36272=-0x1.414b169d1ffbfp+0
36273=0x1.580cd0372b5a7p+3
36306=0x1.683ffa9fde831p+2
36332=0x1.09eaeb840edp-9
36335=-0x1.0eee8d8b65448p-4
36368=0x1.2c94c5041d665p+1
36394=0x1.d30cfe1d466b5p+1
36396=-0x1.b3a864fa57ec1p+0
36407=0x1.179e8a7d99661p+2
36414=0x1.eedf34bc96746p+1
36439=0x1.11595e640311fp+1
36459=0x1.22c3d5b887a2dp+2
36583=0x1.dc84d1c55a05cp+1
37360=0x1.6e23c24b24a33p+2
40300=0x1.7b2da2956dcc5p-1
40319=0x1.1408274a272e5p-8
40362=0x1.f324d3a2278dep+0
40364=0x1.ab50b8843405ap-4
40372=0x1.6786bfdb29c9ep-2
40426=0x1.dd06ae329e4c2p+2
40438=0x1.291dfb8f0c7c4p+2
40496=0x1.cc6720b14af1dp-3
40499=0x1.0cb2954f446fbp+0
40550=0x1.c5a62c0b2dcddp+1
40562=0x1.30e4fbf46f4d2p+1
44392=0x1.5f249a6e890c7p+2
44454=0x1.9f7af77c8304ap+1
48298=0x1.29abe737ad08ap+0
48360=0x1.b4c6ca6d21097p+1
48422=0x1.91bcea1f28f14p-1
52330=-0x1.8d8d3088ae1f9p-7
52342=0x1.16b567ce6f81p-10
52392=0x1.8185661d65261p+2
52404=0x1.d651fb035b114p+1
52516=0x1.cba4cc84f284ep+1
52528=0x1.5ad77d6291d94p+1
52638=0x1.b88940a888642p+0
52764=0x1.5fefa7019185p-4
56358=0x1.a1c00b7058adep+0
56360=-0x1.47bdaefc5d753p-3
56409=0x1.5a5035a905e1dp+0
56422=0x1.9678c805e9d95p+2
56434=0x1.ada4e4ad4c8b6p+1
56482=0x1.fe0683904586dp+0
56496=0x1.f717f62fc3a0dp-2
56546=0x1.fde89cb77d4d3p+1
56558=0x1.c46df280de40dp+1
60388=0x1.ce0bbc0ef30c2p+2
60450=0x1.0386069e51a03p+2
64294=0x1.92c0945365f6ap+1
64356=0x1.3c14d81fabf89p+2
64361=0x1.d52eff1d6072cp-3
64418=0x1.cae6f5098ead1p-1
68324=0x1.b38319583b1adp+0
68386=0x1.09cc52b23c18ep+2
68397=0x1.6d0ae2ec272f9p-2
68448=0x1.354a5a5db3471p+1
72303=0x1.79c03b7b32de4p-2
72354=0x1.f7a1db8777a44p-6
72416=0x1.791e224cb61e6p+1
72478=0x1.79e5001cede27p+1
72489=0x1.02f307ecc63c3p+0
72540=0x1.133ca9cd0b448p+1
76448=0x1.72e85749d646dp+2
76460=0x1.6aea8145542a6p+1
76510=0x1.3ae11b9ce8d56p-5
76572=0x1.0936958f5e92ap+2
76584=0x1.a165757f7a3afp+1
80414=0x1.c6c60287996a7p+2
80476=0x1.03b5df02d3b8dp-2
80485=-0x1.4a5089d7fdd4ep-2
80487=0x1.8a92c14242b3cp-1
80516=0x1.9771c2bfd8773p+0
80538=0x1.3e98f6f2f122fp+1
80662=0x1.c987bba5f39bfp+0
80972=0x1.74509111ee3cap-3
81158=0x1.5c890ead610b8p+0
81344=0x1.74a1a560b3d4ap-3
82088=0x1.a3167abbd7783p-1
82274=0x1.8e4ad00c3eae2p-4
82398=0x1.fa8c85c4a2a5bp-1
84384=-0x1.c05f259660574p-4
84386=0x1.0371ac1acc3b1p+3
84434=0x1.54ef093b774acp+1
84444=0x1.8768e226edb92p-2
84448=0x1.97f88f6d1e05p+1
84450=0x1.2388108e55c36p-2
84451=0x1.fa6b5ec0e10b9p+1
84454=0x1.063281c9ec608p-1
84455=0x1.c21534ad99556p-3
84459=0x1.5f2d11a8c82a8p+0
84460=0x1.c988cf9a1f509p+1
84482=0x1.e3f8ae59b6b7ap-2
84496=0x1.27b22dbdcd63fp+1
84498=0x1.4669829c6899cp-1
84506=0x1.fb9c92e77028fp-2
84513=0x1.ffe170b82246p-4
84516=0x1.9da80763cfba8p-2
84520=-0x1.7451cea8c5c1cp-9
84523=0x1.1929d4d4630e8p+0
84524=0x1.8f3f3718f0ffp-1
84558=0x1.3d4f97580c35cp-1
84572=0x1.1370b706d04bp+1
84620=0x1.640508ab403f4p+1
84696=0x1.ba48e6a8a1cd5p-1
84944=0x1.d8ea7fdcb3e0ep+0
88412=-0x1.6e72ec904d933p-1
88417=0x1.c52e907fd3f4ep+2
88422=0x1.21a422b246395p+0
88427=-0x1.671e87beac0c2p-3
88442=0x1.86cfe4ff25e9fp+1
88473=0x1.e394caa7addb7p+1
88474=0x1.ee19849a9699ap-4
88530=0x1.815e0a6d9fc63p-1
88536=0x1.4208a67204a8cp+1
88540=0x1.19d1c9c6ee44ep+0
88541=0x1.77571fb2a956ep+0
88542=0x1.ce02a75ca2a74p+0
88545=0x1.620bcfe4f0e18p-1
88551=0x1.ac5beab879aep+1
88552=0x1.01afefae57fedp+1
88559=0x1.59b143c31fa9ap+0
88561=0x1.c515afd38a8dbp-1
88566=0x1.6dd09b22c8a8ep+0
88581=0x1.71aa71cc941d8p-4
88598=-0x1.493ed30caeb06p-4
88603=0x1.ef08c8af3ac66p-4
88608=0x1.246228bdfab03p+0
88628=0x1.a1d657551df71p-3
88659=0x1.38549fc6ce65p-2
88851=0x1.68eebd8a20104p+0
91207=0x1.5284b31550dbcp-2
91852=0x1.999ffb661a8fp+2
92379=0x1.2efa72f498a73p+2
92504=0x1.c46e66eb43f49p-3
92519=0x1.1cca902d2be1cp+1
92561=0x1.0cd6db9120f6bp+0
92563=0x1.4728a44b927afp+0
92566=0x1.325a755d01ba6p-1
92580=-0x1.7b131ec1cfc2dp-2
92594=-0x1.676791684a893p-3
92604=0x1.6cdcfec9c2e5cp+0
96534=0x1.b267580adfa66p+1
96658=0x1.c04e2f4473f9p+2
100502=0x1.d5bd75be5a725p+1
100626=0x1.0a9fa61db8866p+1
100688=0x1.51c25ad7c086dp+0
100750=0x1.b4bce3af6604cp+1
104594=0x1.33d763451f5d4p-4
104600=0x1.a41febf0cdc97p+2
104605=0x1.053e1e8038384p-3
104647=0x1.67319f15c764fp+0
104724=0x1.03b41b3f63123p-1
104729=0x1.fd89624917772p-3
104771=0x1.a04a07ec1d8fp+0
105090=0x1.946f56741fc56p+0
105344=0x1.7da7f2914a068p-1
105964=0x1.1b32a76166ee5p+1
108562=0x1.b6fa218cf2275p+0
108566=0x1.27b1e23fbabf5p+1
108686=0x1.3b742036b7d56p+0
108748=0x1.50ec49683527ep+1
108810=0x1.253e0531b4f1cp+1
109244=0x1.9804a58d43935p+0
112654=-0x1.21ecb00066bd3p-1
112661=0x1.7bf003e7d4fbep+2
112716=-0x1.494219dcd42afp-7
112723=0x1.7401572561d56p-1
112737=0x1.ab9523134164ap-1
112785=0x1.853780a912d17p-1
116622=0x1.75262aa773c71p+2
116746=0x1.71a86628eab93p-1
116748=0x1.17faff797134bp-1
116808=0x1.7c435a84a8cd4p+1
117304=0x1.ab8eb68640778p-1
117676=0x1.d55872c2df666p-2
120654=0x1.b8a8391329eb9p+2
120666=0x1.9e54fe56a515p+1
120716=0x1.a29c86caa55dcp+0
120728=-0x1.c582b52d7e567p-2
120734=0x1.30fe42b1cc551p+1
120761=0x1.33eefa823ddc3p+2
120763=0x1.114dd9c08ba6dp+1
120840=0x1.6bc0d57db7dc3p+1
120852=0x1.eaeb1376d6b91p+1
120962=0x1.e29c9e3d2723fp+0
121460=0x1.d16b564ca1464p-1
124682=0x1.e0113809b7937p+2
124744=0x1.7283ce7446f81p-4
124746=0x1.f82066be04ceap+0
124806=0x1.bb76591292b27p+0
124826=0x1.226800b8e816dp+0
124868=0x1.3057e5e1e508ep+1
124992=0x1.3e579488de4a9p+1
125116=0x1.57c41860f16eap+0
125178=0x1.19157d5bc1a93p-3
125302=0x1.0b303af91630cp-1
125488=0x1.2c9f0b5bb079bp-2
125612=0x1.e74e4ad4fa046p-5
125674=0x1.54a6489a960a6p-5
125736=-0x1.185fb2fd08b44p+0
125922=-0x1.7b0179eee4429p+0
126108=0x1.5f7be01ad34fdp+0
126170=0x1.bd531dbf5ec2cp-5
127782=0x1.1df64a9c4bfb9p+1
127906=0x1.4c089ffaacfc9p-10
128154=0x1.aafc5a494a7aap-3
128712=0x1.633a151f3afap+1
128714=0x1.4143c784cad97p+1
128716=0x1.12944e3dcdc66p+0
128719=0x1.265c12b27c7aep+0
128720=0x1.31b7c0f50c20cp+0
128721=0x1.aba57b8031236p-1
128722=-0x1.0d8170d4b04a1p+0
128729=-0x1.feda68270028fp-1
128730=0x1.fb3b7cf825c56p-3
128740=0x1.59f6476a9658fp+0
128756=0x1.7d4e978add288p-2
128760=0x1.3a4158773b1cep+2
128761=0x1.9d65e4756edc8p-1
128774=0x1.0286971a3f9cp-1
128776=0x1.17a6a8e27c9fp-1
128784=0x1.1012c6926e514p+1
128788=-0x1.854afe583c128p-5
128789=0x1.c0c85cef2c78bp-2
128819=-0x1.feb4a796b8557p+1
128836=0x1.d99e3c78f58e3p+2
128898=0x1.d8cdfd4a1c49bp-2
129022=0x1.a7295beb866cep-5
132804=0x1.e7c5bb7b5bb37p-1
132812=-0x1.f0148a8456b0dp-6
132866=0x1.1b2ad1469397bp+1
136710=0x1.31713e6953921p+0
136713=0x1.562045036ba04p-1
136834=0x1.2e28b5f2c92e1p+0
136896=0x1.c61928526a792p+2
137085=0x1.2f77860aebdfp+0
140740=0x1.409d75f81547fp+1
140743=0x1.a5d295b2ee74p-2
140745=-0x1.91bacea7273dap-2
140748=0x1.e5947061635ecp+0
140758=0x1.31fe8c63f7577p-4
140770=0x1.1cd4a711a7f4ap+0
140802=0x1.088bc70ac04bap+1
140864=0x1.f86ed8a6210c3p+3
140926=0x1.1aca945ca1e33p+1
140928=-0x1.ee352540fda46p-4
140929=0x1.58fba35d7a652p-3
140933=0x1.c137f15edd5a7p-3
140934=0x1.194c268f2a11ep+0
140937=0x1.50851bdda36b8p-5
140940=0x1.acf992d1b488fp-3
140947=0x1.891183e0e5f34p-2
140970=0x1.ba749a08c1ae8p-2
140988=0x1.9bc69103781b4p+0
141236=0x1.54bb0278c3cbep+1
141298=0x1.22052c539d9c6p+1
141422=0x1.8b24f2a473d62p+1
141608=0x1.74740db83099bp-2
141670=0x1.f39443a8b5924p+0
141794=-0x1.2272f41a3eb35p-1
142042=0x1.e8c440d6684f5p+0
142104=0x1.a7fedac74b05p+0
142848=0x1.e239e7d2c157ep-1
143468=0x1.cfca795dba614p-3
143530=0x1.e1dec51902e3ap-1
143716=0x1.60097233dc3b8p-1
144026=-0x1.11ef1236f57f9p-7
144832=0x1.3ccc9cfa3a111p+1
144834=0x1.fb05250f2d1ap-2
144843=0x1.3aea12d4dc7a8p+1
144894=0x1.ae44125955548p+0
144896=0x1.b1ebe0f82fb59p+0
144901=0x1.c0987eb7e97c7p+0
144902=0x1.8e338c1d42839p+0
144904=0x1.817ab3b2567ccp-1
144939=-0x1.cfd7eb9ba5fe2p-1
144941=-0x1.b5544e6bf79f5p-2
144956=0x1.f0db5cb05a3f1p-1
144957=0x1.74e99e8d84cf3p+0
144958=-0x1.12768d6b3638cp-1
144962=0x1.26acbc730b70fp-1
144966=0x1.7c8aafda97392p-2
145018=0x1.5aa2781fefb48p+1
145027=0x1.91de7fdf2be7bp+0
145028=0x1.425b745dd8834p-1
145029=0x1.7e22554dd464ap-1
145031=0x1.383eb7aabe3cp+0
145032=0x1.6f20de765021fp-4
145036=-0x1.4b6c2c562c983p-1
145037=-0x1.157258e24ab4cp-2
145046=0x1.c6462c2b748dfp+0
145071=0x1.a36ec05877da1p-1
145084=0x1.007deeae32f32p+3
145132=0x1.f8378a8d4f1a2p+0
145148=0x1.a3ec93a8cc395p-1
145150=0x1.789ecf50066afp-1
145170=-0x1.604a0af512724p-2
145194=0x1.0994e2e497ea1p+1
145208=0x1.68bfbfd21b45cp-1
145256=0x1.03ed0963361c8p+1
145580=0x1.946b7ca23c572p-2
149048=0x1.0b997eb00e976p-1
149110=0x1.d1e938d66f50ep+0
152954=0x1.7f8121ba92129p-3
153078=0x1.6f8c01f20f219p+2
153140=0x1.538e6a3db097bp+1
153202=0x1.a00d16ef2c6d3p+1
154256=0x1.20e9b3e8daedfp-2
154628=0x1.83a3579612da8p+0
156984=0x1.7b36a1427eacep+1
157033=0x1.005d180b84918p+0
157046=0x1.17031f455a286p+1
157079=0x1.75559e8254442p+1
157090=0x1.918fcd7f2e4fcp+1
157108=0x1.6493e39a528f9p-1
157110=-0x1.82e019cf05833p-1
157117=0x1.ea274496d46e2p-1
157150=0x1.8d95f72d2c5d2p+0
157170=0x1.40312e3a9631cp+0
157172=0x1.f4b32759bc33ap-2
157198=0x1.6263065d831b2p+0
157232=0x1.4ca05cc39ecd4p+2
157294=0x1.a2071079c39e9p+2
157790=0x1.963bbe5fa1316p+0
157852=-0x1.08f36927e7d13p-3
161138=0x1.74f69789ac4ffp+0
161142=0x1.db3dec818def8p+0
161149=0x1.8316ea2ebe88fp+0
161156=0x1.50631e6f51c7ep-1
161161=0x1.f794e1bd4b81dp+1
161162=0x1.368e3e0b32e16p-5
161164=0x1.55a2d4121319p+0
161166=-0x1.004a8f9ec5052p-1
161171=0x1.a2729b61f383ep-6
161173=0x1.e5b5c58d10ab4p+0
161200=0x1.88ecbcabd8f7ep+1
161223=0x1.0032170320369p+1
161225=-0x1.9794cbe734487p-2
161240=0x1.452050b58d648p+0
161242=0x1.a46752a36cb17p-1
161245=-0x1.37a3d4616efc4p-2
161262=0x1.11c90755aa3fap-5
161324=0x1.3399e4beaa4fap+1
165168=0x1.15953e4bdb481p-4
165238=0x1.f59c58f75439dp-1
165300=0x1.67fe4d32671ep+1
165362=0x1.68575efb78114p+1
169324=0x1.b8955144e2727p+2
169336=0x1.331e37ade39c4p+2
169386=0x1.8272028d090ap+2
169398=0x1.416de34c01b76p+2
170936=0x1.22a6830c8c9fcp+0
173228=0x1.43be112cf1e92p+2
173231=0x1.243f7db290678p+0
173290=0x1.43a69b4ad1f8p+0
173303=-0x1.c011fb51830e7p-2
173310=0x1.0bdbf6d26a67dp-9
173352=0x1.be15dd043eaffp+1
173541=0x1.49c7e5fdea2e2p+0
173848=0x1.59c1129d6e7b6p-1
173972=0x1.d5755f65cdf48p+0
174282=-0x1.87ee02bf6f878p-3
174406=0x1.2ecea43d53ddcp+1
174530=0x1.9ad46d168f095p+0
174654=-0x1.6ee0335f63055p+0
174964=0x1.5950cc67c695p+1
175088=0x1.5210db0cfb56fp+0
176328=0x1.8db776e8fa994p-6
176390=0x1.be5907e6e77b2p-4
176886=0x1.214da4a9575a3p-1
177196=0x1.86179050fbba4p-2
177198=0x1.37cf81cfc1e8ep+1
177199=0x1.02b24f665aebbp+0
177210=0x1.28a3bae9ecb49p+2
177216=0x1.eda6288ce5411p-3
177223=0x1.4a4172af6e279p-1
177258=0x1.33b5402e0075ap+0
177268=0x1.4c7115a3972d8p+0
177272=-0x1.9972a26b8dc43p-6
177300=-0x1.df64bfde7a3bap-3
177305=0x1.f467cd140f5bp-2
177309=0x1.0cf4f6546c42ep+1
177320=-0x1.adb9d3543p-7
177325=0x1.ebdc947183da1p+2
177350=0x1.09583b5e91a85p+2
177382=0x1.28278dce615c1p+1
177384=0x1.4e9e9641be4b2p-1
177387=0x1.089c862861ebep-2
177388=0x1.e0fca4d83fc1ap-1
177391=0x1.3cc39a63f5c11p+1
177392=0x1.09febc6fdba49p-1
177393=-0x1.0c423e13bb88dp-3
177395=0x1.40ea4fb7bddc8p-1
177397=-0x1.f71540f797939p-3
177405=0x1.b428147ae207p+0
177412=0x1.c34bd49d00c2bp-2
177418=0x1.04e8bbab1b58p-2
177424=-0x1.b6c1acba44dap-2
177433=0x1.d0636d1aca086p-2
177435=-0x1.b2e52d9a48b2ap-3
177442=0x1.36747298c4082p-1
177443=0x1.6810af68f9a0ap-5
177449=0x1.0863ea9317e9bp+0
177474=0x1.e010527c4ce24p+0
177697=0x1.4e108eab51767p+1
177722=-0x1.1258284deffb6p-5
180698=0x1.413dea762cb8fp+2
181297=0x1.199f7a66a9f74p+3
181350=0x1.80adbbf0e625bp-1
181360=0x1.7cde2f7b87e38p-3
181381=0x1.30f08b223c357p+0
181421=0x1.3660eeb5408a4p+1
181545=0x1.641306216407ep+0
181669=0x1.75fc4798a1774p-5
185318=0x1.6ad371cb9408p-1
185328=0x1.ed2401dd94cd9p+2
185384=-0x1.1c65f81874b0ep+1
185391=0x1.389f9c2ac7f26p-3
185412=0x1.59b4f5fc628p+0
185432=0x1.390ca8323e4a3p+1
186010=0x1.0431d4c23d4c6p-2
189294=0x1.40d45c51b5f4p+0
189356=0x1.40e7c988884bfp+0
193946=0x1.faa9a09921139p+0
197222=0x1.8d203e0fb9f59p+2
197284=0x1.8c087b91b14bfp-1
197408=0x1.b15e344fa39b5p-3
197718=0x1.5ff31cea2c257p-3
201128=0x1.58c453229d7f6p-1
201130=0x1.086ecf777ecb9p+1
201142=-0x1.7b9aa16b7a28cp-2
201173=-0x1.075abdc39cf8bp-1
201190=0x1.76a9c332c87dap+0
201195=0x1.2e27ee08ea16dp-5
201200=0x1.825392940e59fp+0
201205=0x1.1cc8ca51e1c52p-5
201252=0x1.cbc64d3f9272cp+2
201314=0x1.25eba14b2ac64p+1
201438=-0x1.c1e903f90926ep-1
201624=0x1.184b83531a79fp-2
201934=0x1.e31f3ce33e001p+0
202182=0x1.b754410423433p-3
205165=0x1.1724c7d2e058p-1
205166=0x1.8c1d2bdaf56bap+0
205179=0x1.67f15bf70807p-1
205184=0x1.2a5d780b20c6ep-1
205220=0x1.4ba1003c198a6p-1
205282=0x1.28703408aa8aep+1
205289=0x1.c23e44826936bp-3
205294=0x1.d068c604345c8p-1
205322=0x1.66843e9791595p-4
205326=0x1.87552de3efb2cp-1
205328=0x1.22684c284792fp+0
205331=-0x1.e0a610eb395e4p-3
205332=0x1.47db5f5e09e89p+1
205337=0x1.2ac7109dd297fp-5
205344=0x1.2d8d2194e6307p+1
209188=0x1.08cdb80f3adfap-2
209250=0x1.2d5e32dbc020ep+2
209314=0x1.d6efbcffb677bp+0
209374=0x1.f0a6cd0522681p-4
209808=0x1.15bb0247566d3p+0
211048=0x1.db88d526c1a5fp+0
213218=0x1.49b7ae550cb18p+0
213242=0x1.c44e0294a7decp+0
213280=0x1.012e55715c88ep+1
213282=0x1.2b474858bd4aap+3
213294=0x1.ead9d8422cc12p+1
213342=0x1.7a66d1074be5cp+1
213347=0x1.a9ab470ce44ebp-2
213352=0x1.c1a882bc4cc1p-1
213353=-0x1.98e1f0fb26116p-5
213404=0x1.598e77a284da1p+0
213406=0x1.7506e08f33b0ep+0
213418=0x1.08d3ed62e71c4p+2
213528=0x1.64b0439dd147ap-2
213530=-0x1.303a05427858cp-5
217248=0x1.1a33f4fbceb23p-1
217270=0x1.19c032f2e1c2bp-1
217293=0x1.1c2b15852e58fp-7
217310=0x1.50be9c17a4c64p+2
217320=-0x1.aa2dc76407fd6p-2
217321=0x1.afc5df25173c4p+0
217372=0x1.6c557d2626d53p+0
217374=0x1.c06ce0befa64bp-1
217376=0x1.0b1cc20d7d235p+0
217382=0x1.25e7a9c99315ap+1
217400=-0x1.c7763bc2d5575p+0
217434=0x1.34ebd40fde363p-3
217445=0x1.f9d11f08954ddp+0
217992=0x1.3b9f8d6a0fd3ep-7
218002=-0x1.9d0e41c18912fp-4
220224=-0x1.09ca8f4f75a72p-1
221280=0x1.3ed80f40e6b6ep-8
221287=0x1.f5d86e65e191p+0
221342=0x1.7d3fd54bac6dfp+0
221345=0x1.8dbd410a1b44bp+0
221350=0x1.15e43210586acp-3
221354=-0x1.164b5c41cc405p+1
221387=0x1.4c4fca8797417p+0
221402=0x1.27b9b047076c6p+2
221464=0x1.8fe21060de3bfp+1
221960=0x1.9faa9f40978bap-4
225308=0x1.f01d82d6400c5p+0
225370=0x1.66c5a9330cc52p+0
225372=-0x1.3477ef5cba347p+0
225377=0x1.1867324363b73p+0
225382=0x1.eadbc087c3103p+0
225397=0x1.59a55ecfd85cfp-1
225410=0x1.03d21a3e70004p-1
225419=-0x1.03d9759c43b78p-2
225420=0x1.73ceaf66f16fdp+1
225425=0x1.d4766aaaaa98p-2
225432=0x1.9f29713e00f2dp+0
229287=0x1.1a116b1f942b5p+2
229400=0x1.2eb008745239ap+1
229402=-0x1.8e63f7d27a212p+0
229408=0x1.0f38a244748c1p+0
229411=0x1.c1f93bd772f49p-1
229412=0x1.dfa8618e1202p-1
229414=0x1.1475299cfab7ep+1
229415=-0x1.9d408461926eap-5
229423=0x1.3e4f1f75024fp-3
229425=0x1.2b85a016278d2p+1
229443=0x1.c121603082049p-1
229462=0x1.8b72d68214d77p-1
229473=0x1.ff14ef35ceb36p-1
233306=0x1.26e7e70fa11e3p+1
233430=0x1.02c97e60de567p-1
233492=0x1.eb0f7d4bf20ffp+0
233554=0x1.da29cec70438fp+1
237462=-0x1.37f4fafc4b609p+0
237470=0x1.193df30daa107p-3
237474=0x1.6cbee0d948c8dp+1
237486=0x1.312c2a175f814p+1
237522=0x1.38d4b16cc265ep+2
237584=0x1.b732b730973f8p+0
238080=0x1.0103144d9b312p+1
238886=0x1.51cafb2de54a8p-2
241428=-0x1.e485a591ea4cap-1
241435=0x1.e098389e1533fp+2
241497=0x1.361f401485c71p+1
241502=0x1.b2fe69fb6affep-2
241534=0x1.a5e4a4714822ep+0
241536=0x1.65c733231269p+0
241539=-0x1.170b7ac4dd756p-3
241540=0x1.9e2c1971efbadp+0
241559=0x1.d097a3886cdf2p+0
244039=0x1.a55c3e9518649p+0
245458=0x1.09ca840e23ae4p+2
245470=0x1.1d8c31f0e3163p+0
245485=0x1.726bd3196c35dp+0
245590=0x1.276aac9280a14p+1
245592=0x1.2b2c09fbd4eecp-5
245614=0x1.4a90e8ca09d36p+0
245644=0x1.5cbd1262e73bap-1
245652=0x1.41db7f0b3bb9bp+1
245654=0x1.68a87f98f9b7p+0
245676=0x1.60716f9175ec5p+0
249550=-0x1.affe8ee04a105p+0
249561=0x1.d28b027967e42p+1
249569=0x1.1ab198917de55p+0
249685=0x1.b1787c2d76a0ap+1
249693=0x1.371c64368e1cap+0
253553=0x1.ac08bf1923f5cp-2
253580=0x1.05284dedcf37ap-1
253642=0x1.443468682cb5fp+2
253704=0x1.21a63953d3eb2p+2
254014=0x1.5f3dfd797d42p-5
254200=0x1.a5abef9ada7d3p+0
254262=0x1.371885a1f0ba4p+0
254634=0x1.b9a0a3294ec2dp+0
256184=0x1.04479612df4bap+0
257486=0x1.3e6a9088a05dp+1
257548=0x1.6f7369a004913p+1
257550=0x1.2a83b9b86afecp-3
257555=0x1.1b8a0c91c2e1p-1
257562=0x1.d2930fc60d624p+0
257564=0x1.88da7de8b202cp+0
257581=0x1.c608a0d3a1c5ap+0
257610=0x1.299275b498bep+1
257625=0x1.e6f2a2cbebdfbp-3
257633=0x1.260d0c8bdf6d2p+0
257636=0x1.f6e85d1dffe14p-1
257639=0x1.0758185b80ceap-1
257649=0x1.d4a24baf42452p-2
257672=0x1.0b94c7cfa4c08p-4
257734=0x1.a021bf0ee181dp+0
261702=0x1.bdbebac386a5ap+1
261764=0x1.67ea35f5fc057p+1
265670=0x1.053817acf9f94p+1
269638=0x1.11453838e02dcp-3
269640=-0x1.92966e7cad5b8p+0
269652=0x1.9f5b92ba2d8a1p+1
269665=0x1.2d6bf50c69a64p+0
269762=0x1.1e4c1bc4b0c4ap+0
269772=0x1.6c6129318a73cp-3
269824=0x1.21e9ff7521441p+0
270831=0x1.6163c1e30b5f8p+0
273668=0x1.81abf3b2caf3bp-1
273730=0x1.d6c15167b52fcp+0
273792=0x1.545f0fb1ba9bfp+1
273804=0x1.f9ff01f078fdp+0
273854=0x1.5d8b562d08054p+0
273866=0x1.072e64e682581p+2
274536=0x1.07996cf924d97p+0
275032=-0x1.de0c92b2e9c1cp+0
276334=0x1.0ed6442cab15bp+0
277698=0x1.b95cc7676abfcp+1
277760=0x1.ba60d8af5efdep+1
277771=0x1.ad547a72425cp-2
277779=-0x1.91f2c2e2760aap+0
277822=0x1.582c9643ae475p+1
278504=0x1.4ab986b01ff51p+0
281673=0x1.ce5a7da333ab4p+1
281735=0x1.1331106c30d65p+1
285701=0x1.6bcd92dc87ap+2
285758=0x1.7c4f057b75cfap-1
285763=0x1.d591bc36914f9p+0
289610=0x1.050958b9766cdp+0
289672=0x1.01a83b35c5c9dp+0
290044=0x1.8d30228ae130cp+0
293582=0x1.ea68077ae907fp+2
293644=0x1.1c76f6ec41757p+2
297476=0x1.b63275044989ep-2
297563=0x1.66063126203f6p-1
297602=0x1.27170260d6b8cp+1
297614=0x1.1bde0626b120cp-1
297664=0x1.2cc761edbf33p+1
297676=0x1.93379bcc766edp-1
301519=0x1.ca452d7f6d6f5p+0
301528=0x1.76b23d332fc1dp+0
301590=0x1.74cb850f03694p+0
301767=0x1.1c4486e436fb6p+0
302520=0x1.7ab06bdfea832p+0
305660=0x1.145f667b70dddp+0
305722=0x1.bb82e7206bab6p-4
306032=0x1.11cfaae06a8d5p+0
309628=0x1.18a4ab98f4af8p+0
309690=0x1.96efd8c57a174p+2
309752=0x1.2caa298d15887p+1
309876=0x1.a240e5742688ap+0
310558=0x1.084a84ad31501p+0
313596=0x1.297b104c2b056p+2
313603=0x1.2e6ac48ccc449p+0
313608=0x1.447305549adffp-2
313617=0x1.2254e3cc8bc7ep-1
313658=0x1.5318bccdecc6ap+0
313679=0x1.09da2e4dea868p+2
313720=0x1.9e57179218c51p+1
313740=-0x1.1c375e9f6483fp-1
313741=0x1.dbe3678ec0c9dp-2
313747=0x1.f0524f68fcd98p-2
313760=0x1.cef272769c4ep+0
313782=0x1.9039af0fbe4e5p+0
313803=0x1.0b7a1ae18350ep+0
317690=0x1.08f4cb962432dp+1
317702=-0x1.482640da79d51p+0
317752=0x1.f2241919e8635p+2
317764=0x1.7220dbefca91dp+1
317814=0x1.679bda350a99cp+0
317826=0x1.a5d1b882fb751p+1
321656=0x1.79e6cb54bf4ccp+2
321658=0x1.1d0b8df069a98p+1
321718=0x1.ea6e862446f38p+1
321720=0x1.d8d027afa72b6p+1
322214=0x1.2368bbf22473cp+1
322400=0x1.6efdcd74a37d2p-5
322586=0x1.e2b833875b365p-1
322958=0x1.68d8d28f2ed84p+0
323268=-0x1.98b86a09c259ep-10
325562=0x1.30b1147f6b4d3p+0
325564=0x1.e9e26c274fd31p-2
325569=0x1.7f9f8eeb29d8ep-2
325576=0x1.4a62d1ed4c975p-1
325578=0x1.f91216e7241acp-2
325589=0x1.c6506ff3a77fap-1
325613=0x1.354316c1cda0dp-2
325614=0x1.dedd9c03796p-7
325624=0x1.21ced88bfa107p-1
325634=0x1.a3b6fe945711bp-3
325635=-0x1.07610be141314p-8
325639=0x1.ec600e9419c76p-1
325680=0x1.f03667f6bdfcep-7
325686=0x1.5d64b0105f787p-1
325748=0x1.d57037c48458ap-7
325759=-0x1.0aec9a3401c27p-1
325762=-0x1.9d35fc546dc2dp-6
325767=0x1.53222505c2b86p+0
325795=0x1.ecb2e4c321794p-3
325872=0x1.3d418e41db70dp-1
329778=0x1.bd387635efdc5p-1
329780=-0x1.cf89049f8164p-2
329789=0x1.ffca51873ed69p-3
329844=0x1.c51af3e828dap+2
329892=0x1.5bc1e940aa029p+0
329906=0x1.64904383c94cfp-1
329954=0x1.65d9637444a75p+0
330030=0x1.0a5f3e165807ep-1
330278=0x1.2ae7ec47a07b5p+0
333746=0x1.80d978792cddfp+1
333808=0x1.7dd970abac128p+1
337652=0x1.545028742cabp+1
337714=0x1.27dde07ff45a6p+0
337716=-0x1.b8880ef0352dcp-1
337728=0x1.88166edce8e02p+0
337776=0x1.dc5d3a44e4b6dp+1
337838=0x1.3ab3629aca30bp+1
337962=-0x1.ba82843220dc7p+0
338706=0x1.f4c527c05835cp+1
341744=0x1.708f2580e1455p+1
341746=-0x1.72ff16dac2293p-2
341758=0x1.b7c9f022a1217p-2
341806=0x1.4b8eb83fdfb44p+2
345650=0x1.24cfcde72778p-2
345652=-0x1.06a1a5f48bf99p+1
345658=-0x1.f91a733d930efp+0
345664=0x1.8d3ebb6579292p+1
345682=0x1.c8e5eb289cd49p+0
345700=0x1.45e81e4f71088p+0
345712=0x1.8e17aa62e12f2p+1
345726=0x1.b03b66b44fd3cp+0
345762=0x1.4199e770c5a45p+0
345774=0x1.225031a9427b3p-2
345776=-0x1.64099c0f3f9b7p+1
345778=-0x1.7e5f86a425337p-1
345788=0x1.0f7e67b7b16c3p+2
345794=0x1.0cf676d0d7f1cp+0
345796=0x1.7398e516402dap+0
345801=0x1.6fbc77042fa87p+1
345821=-0x1.352159d9645d8p+0
345826=0x1.9065723c30b19p-1
345836=0x1.4eec5a07f0e02p+2
345898=0x1.b633a2eb945bcp+0
346022=0x1.b4819acfa05fdp+1
349791=0x1.9e7438c1b6a48p+1
349806=-0x1.0cdbaf8f3dfe3p-8
349818=0x1.382cec0bdb9f7p+0
349866=0x1.0477e4782016dp+2
349928=0x1.d4855664b2228p+1
350052=0x1.25e65f3042d92p-1
353772=-0x1.b54610a4c3465p-2
353776=0x1.00a989aab2285p+3
353824=0x1.606f2f8de5729p-1
353838=0x1.0ace6e22e13dcp-1
353886=0x1.5d1753a6e9e52p-1
354210=0x1.e2204a9be2937p+1
355016=0x1.0b91df31b9088p-1
357693=0x1.1377fe4b5b23fp-1
361584=0x1.35ddaa4609dd8p-3
365614=0x1.0359ecf99ee36p-5
365624=0x1.337a50b55a4p-5
365661=0x1.1c48acfe47489p-2
365723=0x1.a94dc0a3db339p-2
366234=0x1.179fcdb9e001p+0
366244=0x1.cbfb26473030dp-2
369520=0x1.ca8fe81e4cd33p-1
369582=0x1.1dab1bfa32e83p+1
369644=0x1.772297c632e1p-1
369706=-0x1.5eeb358f7f70ep-4
369710=0x1.949ff5c7743c8p-2
369716=0x1.71a1ae3389e66p+0
369754=0x1.08e9bacaed7f6p+1
369768=0x1.ca3e6257687d8p+1
373674=0x1.d6cf6796bdfffp+1
373798=0x1.5e93ff842600dp+0
375224=0x1.40a7fa315b1aep-2
377642=0x1.b0ba865161b5ap-7
377704=0x1.467e7c9b9cc25p+1
377766=0x1.034bef0a1c00ap-2
377778=0x1.840b189bccd7bp-1
377789=0x1.8b902a9524266p-1
377828=0x1.80f125feab08bp+1
381672=0x1.02f84212b3322p+2
381734=0x1.1b2baea9049c8p+0
385665=0x1.3fa69d8824d02p-3
385709=0x1.b7b48e1f9853p+2
385771=0x1.4bf6fe1954eadp+1
389608=0x1.5be63b51aea91p-1
389670=0x1.f529e554249b8p-4
389677=0x1.017470990707ep-1
389732=0x1.580eb121b50d2p+2
389794=0x1.1f5781561bc78p+2
393638=0x1.6d5edffad52bep-2
393700=0x1.2065f4d910a39p-1
393705=-0x1.8a8960295078dp+0
393707=0x1.417d1edf90bfdp-1
393711=0x1.2d824a448e5b1p+1
393721=0x1.389792e0840c4p+0
393762=0x1.3e7983a954a6cp-1
397668=0x1.cee55a59ea3d4p+0
397679=0x1.068e30ee834bfp-1
401760=0x1.48c10669fbdf6p-1
401884=0x1.5995ff026de72p-1
405790=0x1.e1a0d244bc3ccp-2
405852=0x1.6942c1a8b2162p+1
406038=0x1.8964338111928p-2
409765=0x1.c579c9b4b9272p+0
409843=0x1.09877be0cfbb4p-3
413788=0x1.396fa66173e45p-1
413912=0x1.1c2044321c3cap-1
417776=-0x1.e5f31ebe62d94p-3
417783=0x1.9c0cecb71210ap+1
417880=0x1.3d6d778dd610ep+1
417942=0x1.b486e0017ebcp-1
418004=0x1.4159edba6797dp+1
426002=0x1.09daffa2d3e7fp+0
426064=0x1.60d7a460a5708p+0
429908=0x1.c591e7e5a6c29p+0
430032=0x1.8fbf93f2dcabep-2
433938=0x1.478a96f229d7ep+1
434000=0x1.d4d86601e0007p-1
434062=0x1.2c0c92cb323ddp-1
437906=0x1.2273a359967fdp+0
437968=0x1.5664b2728f8e7p+1
438030=0x1.15981f1c705f2p-4
438092=0x1.956d629cfc694p-1
438154=0x1.f472c5e688d7p-1
442060=0x1.151471642fa3ap-1
442122=0x1.a23047b3d7235p+1
442184=0x1.cbdcec720074cp-1
442618=0x1.12b6000cd40adp-2
446028=0x1.625e7b4fa55a7p-2
446162=0x1.17144d300de08p+0
450198=0x1.76c86ac4631bp+2
450260=0x1.2756905d6d2e9p-3
454103=0x1.3b432db7b591ep+0
454165=0x1.4457f91517729p+2
455219=0x1.23a9ec5394e0bp+0
458118=0x1.edef1c467450cp-3
458242=0x1.c0aa603cb108fp+0
458304=0x1.c5553dad9e359p+0
462212=0x1.20250a15d07dep+0
462224=-0x1.2915975f03491p+1
462272=0x1.4a19f82662293p+2
462334=0x1.85632846f1541p+0
462830=0x1.af73cc55c53a4p-3
463636=0x1.db5d2d5cc11e5p-2
463946=0x1.9e1e90e523d03p-8
466178=0x1.5cbade845f515p+1
466240=0x1.56005308f1721p+1
466244=0x1.6d0ff23fdfb6ep-4
466280=0x1.7b99e163cc5c5p-3
466302=0x1.42e4acbf2188bp+1
466364=0x1.04f4122e9565p+2
470219=0x1.bc14f8be5e6dcp-1
470222=-0x1.db738233cd886p-3
470227=-0x1.fd266d196ebeap-6
470231=0x1.0b8aa5866cc69p+1
470270=0x1.d709f9e8a62cap+0
470349=0x1.93644c41aa7a1p+2
470394=0x1.10da9b509fd9p-1
470411=0x1.6afbc9a06a7bcp+1
470518=-0x1.253894a40b982p+0
478268=0x1.dabc859c455e1p+0
478330=0x1.10c76e1afe10ep+2
482174=0x1.d43fffad21762p+0
482186=0x1.563bf33fd88a7p-1
482214=0x1.a4e49c878cbf9p+1
482248=0x1.8c9a34f05c8d3p-3
482298=0x1.8b190c37549ap+1
484840=0x1.0bb46e18499bp+0
486204=0x1.471fff340261ap-1
486213=-0x1.3496a08cc9a66p-2
486346=0x1.4037307edfea9p+3
486408=0x1.52cc9ce8ab8dfp+0
486470=0x1.dc48dcaaac5d2p+0
490234=0x1.5e29e08c89f67p+0
490345=0x1.0ec24ef3063c5p+0
490358=0x1.696fac3e9f57bp+0
490420=0x1.8f41ea13c61cp+2
494264=0x1.99a472bbcef35p+2
494330=0x1.66db3795e8974p-2
494388=0x1.fa7c438eed23ep+1
494512=0x1.4b51b0d7278a8p+0
495008=0x1.9587e49d704dep-8
495690=0x1.3de71d3c811dp-3
496000=0x1.a55b1c99c22a2p+1
498242=0x1.2c718f9073d98p-1
498303=0x1.ec70071eb19fap+0
498304=0x1.648086fb76c0fp+2
498308=0x1.73290b515afb1p+1
498314=0x1.39ad14a419f97p+1
498321=0x1.b09d54253baf3p+1
498327=0x1.48408ccc3e451p-5
498358=-0x1.8f1c85895689fp+1
498370=0x1.11ee71219ffe1p+1
498383=0x1.11e2e6cd64b3p+1
498400=0x1.3cb146b07f321p+0
502324=0x1.ce2b879bbd62ep+0
502334=0x1.27ea3d2b55a7ap+0
502335=0x1.8e3bb6759e21ep-4
502351=0x1.312c3e2f51e29p+1
502357=0x1.664aea37f6933p-1
502457=0x1.9b5da7f36092cp+2
502479=0x1.b6bdca057fbc7p+0
502519=0x1.191ae184c7eecp+1
502643=0x1.f2cb06fcb6185p+0
504401=0x1.6b38259903738p+2
506364=0x1.bf14173bb7a8bp+2
506386=0x1.aaf0bc139c837p+0
506416=0x1.0fda5925350bfp+1
506485=0x1.14c1d6dbce95p+2
506547=0x1.0067865f93f04p+2
510515=0x1.476a844723241p+1
510577=0x1.4adf8988f23d6p+1
514538=-0x1.389b03a28d99p-3
514549=0x1.fb12fb794db18p+0
514557=0x1.c5976b9502d0cp+2
514600=0x1.277fb38720dabp-1
514611=0x1.d936cf0253c9dp+1
514619=0x1.b1b88fd981c1bp+0
514743=0x1.eb7c83a658616p+0
518444=0x1.0357d0cc8a07ep+0
518449=0x1.15a373e0fa34fp-2
518506=0x1.c2407da3b3a7ap-1
518583=0x1.549751b8a578cp-5
518720=0x1.75e101678c92bp-1
518754=0x1.cd9414823c4c9p+1
518807=0x1.e6cafad472edp-2
518816=0x1.fcd4335cbae76p-5
518869=0x1.445bad200f223p+2
522102=0x1.2457a3c6c8c2cp+1
522722=0x1.4dda69e6bc8e4p+1
522728=-0x1.6f0760af88547p-1
522784=0x1.c3ce85823a327p-1
522846=0x1.d9f5d34a90d1ep+0
526690=0x1.d967c2e7d3c66p+1
526752=0x1.30cf5e90581b2p+1
526814=0x1.cfaa77167d224p+0
530667=0x1.6c46f6c5e01e8p+0
530668=0x1.e9ee358002fd1p-1
530720=0x1.2023cc004e0d6p+0
530782=0x1.a5801a416f702p-1
530784=0x1.d2dab5097afcep+0
530796=-0x1.09d4f1fc99c7ap+0
530829=0x1.e56d957d55d92p-1
530864=0x1.fc5e44a2e7966p-1
530871=0x1.a12a2f007560ep+0
530926=0x1.fda3f4aa7e421p-1
530933=0x1.a1e213def7067p+0
534876=0x1.755deaaff1ec6p+0
534957=0x1.6c25bb5426a38p+3
535019=0x1.10122bd0a57e6p-1
535701=0x1.80b46858f607bp-2
542996=0x1.8ee264db16a06p-2
547042=0x1.96f87a19eb62fp+2
547064=0x1.7eb7db65dd848p+0
547093=-0x1.82b7fef2c9b34p-3
547104=0x1.ee9bec85a59d6p-4
547118=0x1.24773e5c85a47p+0
547166=0x1.de30259cee306p-1
548924=0x1.3625ce7ee13a8p+1
551009=0x1.f503bbc6f2f98p-1
551056=0x1.7e037ccdffaf9p-6
551071=0x1.9641b7ab72be5p+2
551095=0x1.320e1f94f3172p-1
551133=0x1.59cff8f660785p-1
555086=0x1.16d016723a09ep+0
555097=-0x1.741206c6d4058p-2
555101=0x1.54729672ee6e2p+1
559240=0x1.d2e01e15af3fp+1
559302=0x1.e6fb726979e5ap+1
563146=0x1.42e4e77926d5cp+1
563156=0x1.f62828c10db68p-3
563172=0x1.03a7683e9efbap-4
563208=0x1.317f314c0cffdp-2
563277=0x1.cc8a1d5149e4ap+2
563339=0x1.7f58cfa91a758p+1
567176=0x1.c431b97daf34dp-2
567201=0x1.bf8e95353d6e1p+1
567300=0x1.4ec40d784cb2fp-1
567362=0x1.16fef32911c03p+0
571206=0x1.0d6851da9d266p+2
571330=0x1.98297facdb0b7p+1
571454=0x1.4e8ca86b6abacp+0
572260=0x1.cb833710396fap-3
575370=0x1.42bd29c0781fcp-1
575432=0x1.43e1615bc0f64p-1
579452=0x1.bbb868a8fc09ep+0
583358=0x1.513197384f785p+0
583360=-0x1.1adf49aa9b732p+1
583372=0x1.c9355de0dd27dp-1
583430=0x1.debc61f28149ep+1
584050=0x1.f2752a36217a9p-1
587450=0x1.5d9991c4cc94bp+0
587512=0x1.7d326032c284fp-1
591420=0x1.1d48f934cac89p-1
591480=0x1.63eeacdfef97bp+0
591542=0x1.2b72b99c94f2dp+2
595448=0x1.d108dec196d27p+0
599542=-0x1.252651059f1fdp-10
599560=0x1.8e1157bd66ed3p-1
599602=0x1.3dec91c61196cp-1
599608=0x1.eade0e67d85cep+0
599642=0x1.4387b43fbfccp+0
599664=0x1.c01a0914e4d34p+0
599704=0x1.7417322f53e17p+0
599794=0x1.5a2447ea624fbp+1
600036=0x1.6172577f1ed68p-2
603508=0x1.f4a6aab06e30ep-1
603570=0x1.1b0782e0dfdc5p+1
603632=0x1.a61933a4ac816p+0
604252=0x1.753a156cd0f8bp+0
607600=0x1.5ed5dbecb4749p-1
607610=-0x1.b46cb9dc25977p-4
607662=0x1.9a3f70c115566p-1
607724=0x1.29b46383a136ep+1
607848=0x1.6eaab90b4f54dp-4
608592=-0x1.069b1600a3536p-4
611630=0x1.c80082576fc9ap-1
611692=0x1.5f515ec6ce21cp-1
611701=0x1.43310528f47f5p+2
611754=0x1.9ab1992b4bf99p+1
611763=0x1.f456b1a347f68p-1
615608=0x1.3bd0e1884a706p+2
615722=0x1.462359bbf8115p+0
615784=0x1.24bec73d6f649p+2
619628=0x1.e3cb0245dd34ap+0
619692=-0x1.7c3a0c309dc89p-3
619704=0x1.055028734c4e6p+1
619752=0x1.31ae06b1b733dp-2
627750=0x1.a89e7cc8a1f36p-1
627812=0x1.a89e7cc8a1f36p-1
627874=0x1.a914cac0063ecp-1
631842=0x1.3960055d2667ap+1
635895=0x1.1dc7f767de02ep+1
635957=0x1.25d1390852bccp+1
639915=0x1.87f9ded08a2b1p+1
640101=0x1.39e4f74fc2424p+0
643813=0x1.439d1f6d5b6cfp+2
643870=0x1.ceecfefad1771p-2
645053=0x1.32103629dd61bp+0
647838=0x1.d1d26ba4d7a3bp+0
647900=0x1.16ed72dd107dp+1
651806=0x1.f0082eaac324ep-2
651868=0x1.43d8a684824f1p-1
651879=-0x1.2254848348269p-2
651886=0x1.8542c164348cp+1
651896=0x1.5a574773061e9p+2
651930=0x1.82125e9fe764fp+0
651948=0x1.feaa6ecb1c1c1p+1
651958=0x1.5e03389531dafp+0
652640=0x1.b240744ba6ba9p+0
655774=0x1.2b82d33088c34p+1
655836=0x1.24ca5e4e6429ap-1
659932=0x1.164253995d3c4p+3
663834=0x1.31c8e0554d61p+1
663840=0x1.8f0d954d2f57ep-1
663876=0x1.3a9427c06036p+0
663901=0x1.de90ee448ae34p-1
663958=0x1.db5f128e6c597p+1
663964=0x1.31e1f0928ff0cp+1
664124=0x1.c2815fff341ebp+0
667802=0x1.b76f773a4ca7p+1
667864=0x1.000373b7829b2p+1
667893=0x1.85a98b7bb49f9p-1
667961=0x1.2b87fcbdebed9p-1
667988=0x1.2aa0d470ac88bp+0
668360=0x1.c3b1601ec420ep+0
671832=0x1.4c0efa33940adp+1
671894=0x1.a66b980fc2593p-1
673382=0x1.6398c3edf6879p-1
675738=0x1.5563d667d5d44p+2
675844=0x1.00d9741a3fde7p+2
677474=0x1.afa955f555e53p+0
679708=-0x1.18a470607bb4ep+1
679720=0x1.14b3a84870c19p+0
679832=-0x1.78941ff18c01p+0
679844=0x1.eb374fb99f175p+0
679857=0x1.28c8048266954p-1
679905=0x1.853412413cd94p+2
680091=0x1.850fadf2778cp+0
683860=-0x1.36f80b870d98bp+0
683877=0x1.ce954447393f8p-3
683935=0x1.b514ab9dd651bp+1
684121=0x1.3a48e5b760a1ep+1
687828=0x1.34babeb659fb9p+0
687830=-0x1.0e7c37ad6f131p-4
687890=0x1.3d20f177e4aap+1
687892=-0x1.6140573b6436bp-4
691798=-0x1.b56ae993825a4p+1
691810=0x1.f3bc7b9e30f53p-1
691831=0x1.d87d1ab4d0556p-1
691858=0x1.5a6a9333232f4p-1
695895=0x1.250bd24ab5eaap+3
695957=0x1.a1a0293e5539p-1
696515=-0x1.f8bcbb7b3df5ep-3
698437=0x1.17a4cd16bc43ap+2
699819=0x1.8355f9b9310e1p+1
699881=0x1.924c60b752971p+0
703958=0x1.e44d14e4facfbp-1
704144=0x1.e737219dffd33p-1
712070=0x1.d0e4a544bb24p-2
712132=0x1.1f4dfae1953d9p-2
712194=0x1.fdb198adb54p-10
716162=0x1.5834a6029aa83p+1
720132=0x1.1ce2d5c418cb9p-4
720144=-0x1.278c6cadf9ca1p+1
720150=0x1.59ce00002b9fap+0
720192=0x1.ceb79fbba4de8p+1
724235=0x1.b3509e7defd41p+1
724244=0x1.78dbf84cd386p+0
724421=0x1.0795e8fc8683ap+1
725174=0x1.8c0b22887aaf6p+0
728252=0x1.4b08925538dacp+2
728376=0x1.eb19daed59052p+0
728500=0x1.8d984cc506cd4p+0
728810=0x1.019fa3389056cp+0
732220=0x1.4679bd887a4f5p+1
732264=0x1.1a42cdb679cf9p+0
732344=0x1.da4e624468fb5p+1
732345=0x1.301f2676101ccp-1
732365=0x1.06eff2e62ab89p+0
732406=-0x1.3daf346f28692p-2
732430=0x1.dadadb4169e37p+2
732492=0x1.1bc052096da86p+0
736374=0x1.105facd3d826dp+0
736419=-0x1.190c674ca1b2p-3
740466=0x1.3a5e929d9432dp-6
740469=0x1.48ac7d3c7eac1p+0
740511=0x1.19c3524feb514p+3
740528=0x1.ceb61d05f04e7p+1
740697=0x1.65e42c1713878p-6
740717=0x1.a590e57644dc5p+0
740821=0x1.ba1007a7c9f52p-3
740883=0x1.163ba2286eb25p-3
741503=0x1.3b405083bc46ap+0
742016=0x1.669a884afddp-1
742123=0x1.9b3944e411685p-2
742185=0x1.b5cd33197d5d4p-2
744372=-0x1.4581c2a93693ap-2
744373=0x1.2b19d694b17cdp+2
744434=0x1.270dab4847d72p-2
744436=0x1.e51e7a0c25604p-1
744437=0x1.4090c43fc03a6p-4
744438=0x1.7b561036309acp-2
744441=0x1.b1edbcae42064p-2
744497=0x1.e0537dcd715f6p+1
748405=0x1.cf653214388bap-1
752561=0x1.253a54c0651f1p+3
752871=0x1.11655af7b8e97p+0
755227=0x1.1538103b19d8ap+1
756524=0x1.b87f61294fa54p+0
756548=0x1.f24d068c12da6p-2
773651=0x1.26eeb63508c93p-1
776488=-0x1.5777cd0ed2032p-1
776490=0x1.c3321cd406a58p+2
776502=0x1.80da5a4dbc7c5p+0
776552=0x1.9688ae89e65p-10
776564=0x1.0a44ee277694fp+1
776676=0x1.55acb5e544616p-1
780401=0x1.c553cbd71c88ep+2
780463=0x1.e1d48d6257b16p+0
784340=0x1.8c65224bfd02dp-1
784449=0x1.a73bbf89c4d7ep-1
786036=0x1.19ca21a1ccfedp+1
788475=0x1.1dc682d975a09p+1
788537=0x1.9d6da4dec42d7p-1
788578=0x1.2a121ebfe9d1cp+0
788640=0x1.b1207b27c70a4p+0
796452=0x1.d1fc5694b4aaap+1
796596=0x1.a47532fc17f7ep-4
796638=0x1.8314545fec8d1p+0
797692=0x1.2633acd928666p+0
800484=0x1.204cc92de51e7p-2
800668=-0x1.aece32764f42p-3
800689=0x1.74972ea360fbcp+0
800854=-0x1.b3674d26cc3b5p-3
800875=0x1.74ade6079029dp+0
804636=0x1.0e744d3bc3a15p+1
804760=0x1.13431d31e326fp+1
808728=0x1.3481565cbb10dp+1
816726=0x1.2431346709298p+2
816788=0x1.429537cee6601p+1
820657=0x1.1bfa1e712e3eep+1
820696=-0x1.23101393b754ap+0
820714=0x1.37c7fa54a37f7p+0
820756=0x1.a4e6581545c82p-2
820772=0x1.2c24afd4af6f8p+2
820794=0x1.f33b347950bb9p+0
820834=0x1.c656f6e7502bcp-1
820856=0x1.26b56ad667269p-1
821082=0x1.f02acead748b7p+0
824677=0x1.480dfc588965bp+2
824701=0x1.4b4af041a89dfp+1
828840=0x1.3def72c86ae2p+3
828902=0x1.84b03bea80571p+1
832722=0x1.0b867038e48d8p+1
832784=0x1.d37d05085ab71p-6
832831=-0x1.2572a1828d762p-5
832833=0x1.5bcfc2e24d869p+0
832846=0x1.6c1772f837682p+2
832908=0x1.12954244767ap-6
836814=0x1.bf288a748a21dp+0
840844=0x1.90756b57df35p-1
840913=0x1.82ce8f32620e3p+2
840975=0x1.0ff4b4146c4fdp+0
843455=0x1.2fee603ba1fe8p+0
844837=0x1.e33d46050367p+1
844936=0x1.6ee374d6763e1p+1
844998=0x1.3a9ff3d776ccfp+1
845000=0x1.1daa606c959afp+0
845122=0x1.167e9db6c9b7bp-6
848844=0x1.f3c2f9ab8f4c9p-1
848906=0x1.96000117c4b56p-1
848914=0x1.745a79af5036cp-3
848972=0x1.b6025d3c5e98ep-2
848975=0x1.da9a0ada4cfd3p+2
849006=0x1.4fa14779ac35ep+0
849028=0x1.861862bc8a5dcp-1
849037=0x1.345ee9c897d09p+1
849161=0x1.89b9ee433de93p+0
849192=0x1.64859b9b610ecp+0
849282=0x1.62b6faa25da2fp-1
852934=0x1.33efd1bf841ebp-3
852939=0x1.a141cfbad42f9p+0
852944=0x1.dfcfa836bfca4p+2
856902=0x1.7b549e9e1974dp-1
856912=0x1.77be52877d9f5p-6
857026=0x1.7fe74c35f2313p+2
857336=0x1.09027d3f9fa12p-4
860932=0x1.78e42ffc09da3p+0
860994=0x1.093477924710cp+1
861011=0x1.b1bd66f1bfd53p+0
861056=0x1.e86368bd1e5c6p+0
864962=0x1.1b0025042eadcp+1
864964=0x1.32dc2ab59dfe8p-4
869164=0x1.87f7b64f782dep-1
869226=0x1.923e24b915c4ep-1
873147=0x1.cd1df6ae307edp+1
873209=0x1.cdbe3346c6176p+1
881262=0x1.2ea022b193906p-6
881278=0x1.fe05b38a60869p-3
881283=0x1.e66bc65e4af3ap+0
881292=0x1.2dbeb562d9cfp-2
881325=0x1.60ea8f9bd8c26p-1
881330=0x1.d970d73cab1d6p+0
881826=0x1.bb3936bf064c3p-1
883872=0x1.bab7f21541c6bp-2
885257=0x1.5d012fcf99d63p+0
885319=0x1.0cf265483871cp+0
885338=0x1.45f2ffe33d94bp+1
885360=0x1.4b7b03108a40ep+2
889328=0x1.da0cc36745238p+1
889390=0x1.17557fb05359dp+1
893234=0x1.355ffcfc0beb9p+0
893296=0x1.ef0d017488b99p+1
893438=0x1.74d8418a4926cp+3
893500=0x1.c58816acbd947p-2
897326=0x1.697a2f1a484bep-1
897328=0x1.1e711617a7574p-2
897388=0x1.8b39dabdf6d88p-1
901480=-0x1.1dbc5a79d0d2p-2
901500=0x1.a5f600d5950bdp-1
901507=0x1.1e2f932852ca9p+0
901542=-0x1.2c8cc66ea25ep-2
901562=0x1.a6f5fe7d5999dp-1
901569=0x1.1ebad5c332e03p+0
905386=0x1.08f0939aa3e9ep+2
905510=0x1.2c1b9cbbe265ap-2
905634=0x1.a339aa1217681p-5
906378=-0x1.5c0fc2992a34ap-3
909356=0x1.5dbe599bee797p-1
909368=0x1.bdbbb8df7d449p-2
913570=0x1.d8096c367332cp+0
915182=0x1.3b061934ad31bp-5
917538=0x1.b08aa2520b593p+1
917600=0x1.f8f12dfdfdd75p+0
917662=0x1.f0f8c836e4b3cp-6
918344=0x1.836ee6af44a54p-5
919398=0x1.9bbcb0533233p-3
921506=0x1.b348ff699d24fp-3
921588=0x1.3eecf78e4315ap-9
921630=0x1.043b8336658ddp+2
921692=0x1.8d2bec57ebdf4p-3
925660=0x1.6228237a75b41p+2
925722=0x1.c853290fa4286p-1
927210=0x1.4ceceeb83d6ep-5
929577=0x1.1ed7eb35bd30fp+0
929698=0x1.bdd8931e12983p+0
929760=0x1.bdfc3448bd7ccp+0
