#mdl#2#4178
#rdr#2/0/0
10:u0:%x[0,0],
11:u1:%x[-1,0],
#qrk#81
1:O,
22:B-depart_date.day_name,
19:B-fromloc.city_name,
18:B-depart_time.time,
17:B-toloc.city_name,
12:B-flight_mod,
27:B-arrive_time.period_of_day,
24:B-depart_date.month_name,
14:B-airline_name,
13:B-flight_stop,
18:B-arrive_time.time,
27:B-depart_time.time_relative,
24:B-arrive_date.month_name,
12:B-round_trip,
27:B-arrive_time.time_relative,
18:B-restriction_code,
15:B-cost_relative,
22:B-arrive_date.day_name,
18:B-toloc.state_code,
18:B-meal_description,
27:B-depart_date.date_relative,
12:B-class_type,
6:B-meal,
9:B-economy,
28:B-depart_date.today_relative,
5:B-mod,
27:B-depart_time.period_of_day,
12:B-day_number,
11:B-city_name,
19:B-stoploc.city_name,
20:B-fromloc.state_code,
22:B-arrive_time.end_time,
13:B-flight_time,
4:B-or,
22:B-fromloc.airport_name,
24:B-depart_date.day_number,
14:B-airline_code,
13:B-fare_amount,
20:B-fromloc.state_name,
20:B-toloc.airport_name,
13:B-flight_days,
24:B-arrive_date.day_number,
20:B-toloc.country_name,
18:B-toloc.state_name,
17:B-fare_basis_code,
24:B-depart_time.period_mod,
8:B-return,
20:B-toloc.airport_code,
24:B-depart_time.start_time,
14:B-airport_name,
16:B-transport_type,
15:B-flight_number,
9:B-connect,
27:B-return_time.period_of_day,
24:B-arrive_time.start_time,
15:B-period_of_day,
22:B-depart_time.end_time,
24:B-return_date.month_name,
27:B-arrive_date.date_relative,
22:B-fromloc.airport_code,
11:B-meal_code,
14:B-airport_code,
10:B-day_name,
24:B-return_date.day_number,
12:B-month_name,
12:B-state_code,
27:B-return_date.date_relative,
15:B-aircraft_code,
18:B-depart_date.year,
6:B-time,
20:B-stoploc.state_code,
24:B-arrive_time.period_mod,
12:B-state_name,
16:B-today_relative,
15:B-time_relative,
24:B-return_time.period_mod,
28:B-arrive_date.today_relative,
11:B-days_code,
28:B-return_date.today_relative,
22:B-stoploc.airport_name,
22:B-return_date.day_name,
#qrk#1897
5:u0:to,
7:u1:_x-1,
4:u0:a,
5:u1:to,
9:u0:flight,
4:u1:a,
11:u0:airports,
9:u1:flight,
6:u0:the,
11:u1:airports,
5:u0:in,
6:u1:the,
11:u0:saturday,
5:u1:in,
7:u0:from,
11:u1:saturday,
9:u0:please,
7:u1:from,
9:u1:please,
12:u0:san-diego,
6:u0:5pm,
12:u1:san-diego,
13:u0:pittsburgh,
6:u1:5pm,
11:u0:san-jose,
13:u1:pittsburgh,
5:u0:on,
11:u1:san-jose,
11:u0:arriving,
5:u1:on,
11:u1:arriving,
5:u0:go,
4:u0:i,
5:u1:go,
9:u0:dallas,
4:u1:i,
9:u1:dallas,
10:u0:flights,
11:u0:earliest,
10:u1:flights,
10:u0:morning,
11:u1:earliest,
10:u1:morning,
7:u0:noon,
7:u1:noon,
10:u0:display,
9:u0:august,
10:u1:display,
9:u0:us-air,
10:u0:nonstop,
9:u1:us-air,
9:u0:boston,
10:u1:nonstop,
6:u0:7pm,
9:u1:boston,
7:u0:give,
6:u1:7pm,
11:u0:stopover,
7:u1:give,
9:u0:arrive,
11:u1:stopover,
8:u0:after,
9:u1:arrive,
8:u1:after,
9:u0:what's,
9:u1:what's,
9:u0:monday,
7:u0:june,
5:u0:me,
7:u1:june,
13:u0:round-trip,
5:u1:me,
7:u0:list,
13:u1:round-trip,
10:u0:phoenix,
7:u1:list,
9:u0:before,
6:u0:all,
9:u1:before,
6:u1:all,
8:u0:ap-57,
15:u0:philadelphia,
8:u1:ap-57,
13:u0:cincinnati,
15:u1:philadelphia,
13:u1:cincinnati,
12:u0:designate,
12:u1:designate,
11:u0:cheapest,
11:u1:cheapest,
9:u0:denver,
9:u1:denver,
16:u0:san-francisco,
7:u0:like,
10:u0:between,
7:u1:like,
9:u0:number,
10:u1:between,
9:u1:number,
6:u0:and,
6:u1:and,
10:u0:leaving,
7:u0:than,
10:u0:seating,
9:u0:united,
10:u1:seating,
18:u0:united-airlines,
9:u1:united,
18:u1:united-airlines,
10:u0:looking,
5:u0:at,
20:u0:american-airlines,
20:u1:american-airlines,
12:u0:wednesday,
11:u0:thursday,
12:u1:wednesday,
10:u0:tuesday,
11:u1:thursday,
5:u0:dc,
10:u1:tuesday,
6:u0:for,
5:u1:dc,
10:u0:listing,
6:u1:for,
10:u0:oakland,
10:u1:listing,
10:u1:oakland,
8:u0:miami,
8:u1:miami,
5:u0:is,
7:u0:need,
5:u1:is,
7:u1:need,
10:u0:airline,
10:u0:ontario,
10:u1:airline,
10:u1:ontario,
6:u0:fly,
6:u1:fly,
17:u0:transportation,
17:u1:transportation,
10:u0:atlanta,
7:u0:what,
10:u1:atlanta,
7:u1:what,
8:u0:lunch,
8:u1:lunch,
5:u1:at,
8:u0:while,
8:u1:while,
5:u0:it,
5:u1:it,
7:u0:next,
7:u1:next,
12:u0:las-vegas,
7:u0:last,
12:u1:las-vegas,
7:u1:last,
14:u0:first-class,
14:u1:first-class,
10:u0:houston,
10:u1:houston,
8:u0:meals,
11:u0:possible,
8:u1:meals,
12:u0:baltimore,
11:u1:possible,
12:u1:baltimore,
10:u0:airport,
10:u1:airport,
7:u0:tell,
7:u1:tell,
16:u0:economy-class,
16:u1:economy-class,
12:u0:available,
12:u1:available,
8:u0:which,
8:u1:which,
7:u0:fare,
7:u1:fare,
6:u0:yes,
8:u0:going,
6:u1:yes,
8:u1:going,
6:u0:two,
6:u1:two,
7:u0:show,
7:u1:show,
17:u0:st.-petersburg,
8:u0:today,
8:u1:today,
6:u0:you,
6:u1:you,
14:u0:information,
14:u1:information,
7:u0:most,
7:u1:most,
7:u1:than,
12:u0:afternoon,
12:u1:afternoon,
5:u0:of,
5:u1:of,
12:u0:september,
12:u1:september,
7:u0:want,
7:u1:want,
8:u0:leave,
8:u1:leave,
5:u0:by,
5:u1:by,
5:u0:do,
5:u1:do,
6:u0:can,
10:u0:departs,
8:u0:sixth,
10:u1:departs,
9:u0:sunday,
8:u1:sixth,
12:u0:tower-air,
9:u1:sunday,
12:u1:tower-air,
7:u0:meal,
7:u1:meal,
16:u1:san-francisco,
7:u0:have,
7:u1:have,
10:u0:seattle,
10:u1:seattle,
13:u0:washington,
13:u1:washington,
8:u0:delta,
8:u1:delta,
13:u0:long-beach,
13:u1:long-beach,
15:u0:indianapolis,
15:u1:indianapolis,
9:u1:august,
8:u0:fares,
8:u1:fares,
7:u0:many,
7:u1:many,
7:u0:that,
7:u1:that,
10:u0:toronto,
10:u1:toronto,
19:u0:american-airline,
19:u1:american-airline,
7:u0:much,
20:u0:dallas-fort-worth,
7:u1:much,
20:u1:dallas-fort-worth,
8:u0:tampa,
7:u0:10pm,
8:u1:tampa,
7:u1:10pm,
10:u1:leaving,
7:u0:12pm,
6:u0:i'd,
7:u1:12pm,
8:u0:spend,
6:u1:i'd,
8:u1:spend,
7:u0:with,
7:u1:with,
10:u1:looking,
9:u1:monday,
7:u0:does,
7:u1:does,
8:u0:april,
8:u1:april,
12:u0:departing,
12:u1:departing,
11:u0:landings,
11:u1:landings,
7:u0:type,
7:u1:type,
9:u0:1245pm,
9:u1:1245pm,
10:u0:chicago,
10:u1:chicago,
21:u0:northwest-airlines,
21:u1:northwest-airlines,
6:u0:6pm,
6:u1:6pm,
15:u0:flight-times,
15:u1:flight-times,
9:u0:travel,
9:u1:travel,
9:u0:ground,
9:u1:ground,
5:u0:or,
5:u1:or,
11:u0:midnight,
11:u1:midnight,
9:u0:tacoma,
9:u1:tacoma,
10:u0:orlando,
10:u1:orlando,
7:u0:some,
7:u1:some,
11:u0:aircraft,
11:u1:aircraft,
23:u0:philadelphia-airport,
23:u1:philadelphia-airport,
15:u0:twenty-fifth,
15:u1:twenty-fifth,
12:u0:1-o'clock,
12:u1:1-o'clock,
8:u0:could,
8:u1:could,
10:u0:sixteen,
10:u1:sixteen,
6:u0:now,
6:u1:now,
12:u0:charlotte,
12:u1:charlotte,
6:u0:via,
6:u1:via,
7:u0:code,
6:u0:twa,
7:u1:code,
6:u1:twa,
10:u0:one-way,
10:u1:one-way,
7:u0:long,
7:u1:long,
11:u0:downtown,
11:u1:downtown,
11:u0:describe,
11:u0:columbus,
11:u1:describe,
11:u1:columbus,
8:u0:there,
8:u1:there,
8:u0:times,
8:u1:times,
14:u0:124-dollars,
14:u1:124-dollars,
11:u0:new-york,
7:u0:make,
7:u1:make,
6:u0:how,
13:u0:new-jersey,
6:u1:how,
12:u0:8-o'clock,
13:u1:new-jersey,
12:u1:8-o'clock,
8:u0:night,
8:u1:night,
10:u0:detroit,
10:u1:detroit,
12:u0:milwaukee,
12:u1:milwaukee,
6:u0:are,
6:u1:are,
5:u0:hp,
5:u1:hp,
13:u0:love-field,
13:u1:love-field,
8:u0:costs,
8:u1:costs,
6:u0:9am,
18:u0:early-afternoon,
18:u1:early-afternoon,
9:u0:friday,
9:u1:friday,
8:u0:daily,
8:u1:daily,
9:u0:fourth,
9:u1:fourth,
11:u0:november,
11:u1:november,
10:u0:through,
10:u1:through,
17:u0:salt-lake-city,
17:u1:salt-lake-city,
8:u0:would,
8:u1:would,
4:u0:8,
4:u1:8,
7:u0:stop,
7:u1:stop,
9:u0:newark,
9:u1:newark,
10:u0:without,
10:u1:without,
14:u0:minneapolis,
14:u1:minneapolis,
13:u0:american's,
11:u0:somebody,
11:u1:somebody,
10:u0:twelfth,
10:u1:twelfth,
8:u0:coach,
15:u0:5-o'clock-pm,
15:u1:5-o'clock-pm,
7:u0:july,
7:u1:july,
9:u0:canada,
9:u1:canada,
12:u0:breakfast,
12:u1:breakfast,
5:u0:an,
5:u1:an,
6:u0:i'm,
6:u1:i'm,
14:u0:kansas-city,
14:u1:kansas-city,
7:u0:ohio,
7:u1:ohio,
5:u0:yn,
5:u1:yn,
6:u0:230,
6:u1:230,
6:u1:can,
8:u0:early,
8:u1:early,
9:u0:lowest,
9:u1:lowest,
17:u1:st.-petersburg,
7:u0:cost,
16:u0:new-york-city,
16:u1:new-york-city,
14:u0:westchester,
14:u1:westchester,
9:u0:ticket,
9:u1:ticket,
15:u0:twenty-third,
15:u1:twenty-third,
8:u0:225pm,
8:u1:225pm,
9:u0:flying,
9:u1:flying,
9:u0:serves,
9:u1:serves,
4:u0:4,
4:u1:4,
7:u1:cost,
12:u0:nashville,
12:u1:nashville,
7:u0:kind,
7:u1:kind,
7:u0:book,
7:u1:book,
17:u0:twenty-seventh,
17:u1:twenty-seventh,
11:u0:airlines,
15:u0:abbreviation,
11:u1:airlines,
15:u1:abbreviation,
10:u0:florida,
10:u1:florida,
7:u0:back,
7:u1:back,
8:u0:under,
8:u1:under,
11:u0:tomorrow,
9:u0:single,
11:u0:provided,
6:u0:bwi,
6:u1:bwi,
5:u0:la,
5:u1:la,
7:u0:10am,
7:u1:10am,
33:u0:general-mitchell-international,
33:u1:general-mitchell-international,
12:u0:northwest,
11:u0:stopping,
12:u1:northwest,
11:u1:stopping,
7:u0:mean,
8:u0:about,
7:u1:mean,
8:u1:about,
13:u0:fort-worth,
13:u1:fort-worth,
4:u0:c,
4:u1:c,
10:u0:arrives,
10:u1:arrives,
12:u0:7-o'clock,
12:u1:7-o'clock,
12:u0:cleveland,
12:u1:cleveland,
6:u0:use,
7:u0:find,
6:u1:use,
6:u0:far,
6:u1:far,
9:u0:latest,
7:u1:find,
9:u1:latest,
6:u0:any,
6:u1:any,
14:u0:lowest-cost,
14:u1:lowest-cost,
7:u0:used,
7:u1:used,
10:u0:evening,
10:u1:evening,
12:u0:saturdays,
9:u0:return,
12:u1:saturdays,
9:u1:return,
8:u0:serve,
8:u1:serve,
18:u0:least-expensive,
18:u1:least-expensive,
9:u0:around,
9:u1:around,
4:u0:q,
10:u0:service,
4:u1:q,
10:u1:service,
11:u1:tomorrow,
11:u1:new-york,
6:u0:has,
6:u1:has,
9:u0:depart,
9:u1:depart,
8:u0:first,
8:u1:first,
21:u0:southwest-airlines,
17:u0:delta-airlines,
21:u1:southwest-airlines,
9:u0:leaves,
17:u1:delta-airlines,
9:u1:leaves,
11:u0:st.-paul,
11:u1:st.-paul,
10:u0:economy,
10:u1:economy,
9:u0:cities,
9:u1:cities,
9:u0:second,
19:u0:at-the-same-time,
19:u1:at-the-same-time,
9:u0:prices,
9:u1:prices,
10:u1:phoenix,
10:u0:airfare,
10:u1:airfare,
9:u0:taking,
9:u1:taking,
8:u0:810pm,
8:u1:810pm,
12:u0:st.-louis,
10:u0:classes,
12:u1:st.-louis,
10:u0:eastern,
10:u1:classes,
10:u1:eastern,
9:u0:making,
9:u1:making,
13:u0:la-guardia,
13:u1:la-guardia,
13:u0:california,
13:u1:california,
10:u0:memphis,
10:u1:memphis,
10:u0:burbank,
10:u1:burbank,
12:u0:limousine,
12:u1:limousine,
7:u0:trip,
7:u1:trip,
9:u0:dinner,
9:u1:dinner,
8:u0:seats,
9:u0:served,
9:u1:served,
23:u0:continental-airlines,
23:u1:continental-airlines,
5:u0:ea,
5:u1:ea,
7:u0:into,
8:u0:other,
8:u1:other,
16:u0:twenty-eighth,
15:u0:1000-dollars,
15:u1:1000-dollars,
6:u0:see,
6:u1:see,
12:u0:5-o'clock,
12:u1:5-o'clock,
8:u0:texas,
8:u1:texas,
8:u0:again,
8:u1:again,
16:u1:twenty-eighth,
11:u0:one-stop,
11:u1:one-stop,
6:u0:out,
6:u1:out,
11:u0:distance,
11:u1:distance,
8:u0:718am,
8:u1:718am,
14:u0:restriction,
14:u1:restriction,
6:u0:8pm,
6:u1:8pm,
6:u0:270,
6:u1:270,
5:u0:if,
5:u1:if,
9:u0:either,
9:u1:either,
11:u0:colorado,
11:u1:colorado,
11:u0:schedule,
11:u1:schedule,
14:u0:continental,
7:u0:more,
11:u0:planning,
7:u1:more,
11:u1:planning,
7:u0:wish,
7:u1:wish,
10:u0:explain,
10:u1:explain,
28:u0:dallas-fort-worth-airport,
28:u1:dallas-fort-worth-airport,
12:u0:lufthansa,
12:u1:lufthansa,
6:u0:may,
6:u1:may,
21:u0:westchester-county,
21:u1:westchester-county,
5:u0:21,
5:u1:21,
7:u0:goes,
9:u0:laying,
7:u1:goes,
9:u1:laying,
10:u0:lastest,
10:u1:lastest,
14:u0:connections,
14:u1:connections,
6:u0:650,
15:u0:1100-dollars,
15:u1:1100-dollars,
7:u0:okay,
7:u1:okay,
7:u0:your,
7:u1:your,
11:u0:december,
11:u1:december,
11:u0:eleventh,
11:u1:eleventh,
7:u0:fine,
7:u1:fine,
10:u0:qx-fare,
10:u1:qx-fare,
5:u0:dl,
5:u1:dl,
17:u0:boston-airport,
17:u1:boston-airport,
7:u0:then,
7:u1:then,
11:u0:arrivals,
6:u0:530,
11:u1:arrivals,
7:u0:city,
7:u1:city,
6:u0:296,
6:u1:296,
6:u0:one,
6:u1:one,
10:u0:weekday,
10:u1:weekday,
4:u0:6,
4:u1:6,
7:u0:also,
7:u1:also,
8:u0:flies,
8:u1:flies,
6:u0:dfw,
6:u1:dfw,
5:u0:qo,
5:u1:qo,
9:u0:amount,
6:u0:get,
6:u1:get,
11:u0:question,
11:u1:question,
10:u0:fifteen,
10:u1:fifteen,
7:u0:less,
7:u1:less,
9:u0:boeing,
9:u1:boeing,
9:u0:offers,
9:u1:offers,
7:u0:i'll,
7:u1:i'll,
14:u0:los-angeles,
14:u1:los-angeles,
8:u1:coach,
8:u0:615pm,
8:u1:615pm,
7:u0:look,
7:u1:look,
12:u0:fifteenth,
12:u1:fifteenth,
9:u0:people,
9:u1:people,
6:u0:way,
6:u1:way,
7:u0:able,
7:u1:able,
12:u0:sixteenth,
12:u1:sixteenth,
11:u0:american,
11:u1:american,
11:u0:airplane,
11:u1:airplane,
7:u0:soon,
7:u1:soon,
13:u0:continuing,
13:u1:continuing,
7:u0:this,
7:u1:this,
7:u0:each,
7:u1:each,
9:u0:direct,
9:u1:direct,
9:u0:eighth,
9:u1:eighth,
5:u0:as,
5:u1:as,
8:u0:lives,
8:u1:lives,
6:u0:but,
6:u1:but,
6:u0:say,
14:u1:continental,
14:u0:coach-class,
14:u1:coach-class,
10:u0:12-noon,
10:u1:12-noon,
6:u0:2pm,
6:u1:2pm,
11:u0:services,
11:u0:starting,
11:u1:starting,
30:u0:san-francisco-international,
30:u1:san-francisco-international,
13:u0:connecting,
13:u1:connecting,
8:u0:don't,
8:u1:don't,
4:u0:5,
4:u1:5,
11:u0:database,
11:u1:database,
8:u0:hello,
8:u1:hello,
4:u0:h,
4:u1:h,
7:u0:know,
7:u1:know,
17:u0:late-afternoon,
17:u1:late-afternoon,
6:u0:ten,
6:u1:ten,
5:u0:be,
5:u1:be,
10:u0:seventh,
10:u1:seventh,
10:u0:working,
10:u1:working,
9:u0:thanks,
9:u1:thanks,
18:u0:orlando-airport,
18:u1:orlando-airport,
7:u0:plan,
7:u1:plan,
8:u0:total,
8:u1:total,
7:u0:time,
7:u1:time,
13:u0:1600-hours,
13:u1:1600-hours,
8:u0:least,
8:u1:least,
10:u0:layover,
10:u1:layover,
5:u0:qw,
5:u1:qw,
9:u0:stands,
9:u1:stands,
10:u0:any-day,
10:u1:any-day,
10:u0:numbers,
10:u1:numbers,
10:u0:express,
10:u1:express,
19:u0:transcontinental,
19:u1:transcontinental,
19:u0:eastern-airlines,
19:u1:eastern-airlines,
6:u0:day,
6:u0:852,
6:u1:day,
6:u1:852,
12:u0:thirtieth,
12:u1:thirtieth,
10:u0:tickets,
10:u1:tickets,
11:u0:capacity,
11:u1:capacity,
19:u0:flight-schedules,
7:u0:week,
19:u1:flight-schedules,
7:u1:week,
11:u0:weekdays,
11:u1:weekdays,
14:u0:us-airlines,
14:u1:us-airlines,
8:u0:where,
8:u1:where,
12:u0:twentieth,
12:u1:twentieth,
11:u0:montreal,
11:u1:montreal,
12:u0:returning,
12:u1:returning,
12:u0:traveling,
13:u0:twenty-six,
6:u0:8am,
6:u1:8am,
5:u0:my,
5:u1:my,
14:u0:466-dollars,
14:u1:466-dollars,
7:u0:only,
7:u1:only,
10:u0:red-eye,
4:u0:y,
4:u1:y,
13:u0:thirteenth,
13:u1:thirteenth,
9:u0:planes,
9:u1:planes,
5:u0:no,
5:u1:no,
18:u0:time-of-arrival,
18:u1:time-of-arrival,
6:u0:928,
6:u1:928,
8:u0:720am,
8:u1:720am,
10:u0:qualify,
9:u1:second,
15:u0:3-o'clock-pm,
15:u1:3-o'clock-pm,
7:u0:take,
7:u1:take,
5:u0:hi,
5:u1:hi,
8:u0:fifth,
10:u0:arrange,
8:u1:fifth,
10:u1:arrange,
9:u0:twenty,
21:u0:lufthansa-airlines,
21:u1:lufthansa-airlines,
7:u0:1083,
5:u0:aa,
5:u1:aa,
15:u0:twenty-sixth,
15:u1:twenty-sixth,
16:u0:11-o'clock-am,
16:u1:11-o'clock-am,
8:u0:codes,
8:u1:codes,
7:u0:sort,
7:u1:sort,
10:u0:various,
10:u1:various,
13:u0:interested,
13:u1:interested,
13:u0:twenty-two,
13:u1:twenty-two,
5:u0:nw,
5:u1:nw,
10:u0:charges,
10:u1:charges,
7:u0:near,
7:u1:near,
5:u0:ua,
5:u1:ua,
12:u0:2-o'clock,
12:u1:2-o'clock,
8:u0:630pm,
8:u1:630pm,
7:u0:uses,
7:u1:uses,
10:u0:calling,
10:u1:calling,
6:u0:9pm,
6:u1:9pm,
6:u0:jfk,
6:u1:jfk,
6:u0:813,
6:u1:813,
13:u0:passengers,
13:u1:passengers,
12:u0:4-o'clock,
12:u1:4-o'clock,
21:u0:pittsburgh-airport,
6:u0:let,
21:u1:pittsburgh-airport,
6:u1:let,
15:u0:thirty-first,
15:u1:thirty-first,
13:u0:rental-car,
13:u1:rental-car,
8:u0:plane,
8:u1:plane,
11:u0:nonstops,
11:u1:nonstops,
13:u0:wednesdays,
13:u1:wednesdays,
7:u0:name,
17:u0:denver-airport,
9:u0:within,
9:u1:within,
12:u0:operating,
12:u1:operating,
10:u0:january,
10:u1:january,
6:u0:air,
6:u1:air,
5:u0:ff,
5:u1:ff,
4:u0:9,
4:u1:9,
16:u0:delta-airline,
16:u1:delta-airline,
6:u0:163,
6:u1:163,
12:u0:transport,
12:u1:transport,
8:u0:price,
8:u1:price,
5:u0:ls,
5:u1:ls,
8:u0:using,
12:u0:including,
8:u1:using,
12:u1:including,
7:u0:four,
7:u1:four,
8:u0:their,
8:u1:their,
8:u0:hours,
8:u1:hours,
11:u0:michigan,
11:u1:michigan,
8:u0:stand,
8:u1:stand,
14:u0:car-rentals,
14:u1:car-rentals,
15:u0:arrangements,
15:u1:arrangements,
7:u0:ap57,
7:u1:ap57,
14:u0:seventeenth,
14:u1:seventeenth,
11:u0:mornings,
11:u1:mornings,
6:u0:7am,
6:u1:7am,
7:u0:1850,
7:u0:3724,
7:u1:3724,
7:u0:live,
7:u1:live,
7:u0:1291,
7:u1:1291,
7:u1:into,
8:u0:let's,
8:u1:let's,
7:u0:2100,
7:u1:2100,
10:u0:takeoff,
10:u1:takeoff,
7:u0:11pm,
6:u0:ewr,
6:u1:ewr,
7:u0:0900,
7:u1:0900,
6:u0:run,
6:u1:run,
13:u0:fourteenth,
13:u1:fourteenth,
8:u0:934pm,
8:u1:934pm,
7:u0:1222,
7:u1:1222,
9:u0:prefer,
7:u0:11am,
7:u1:11am,
5:u0:am,
5:u1:am,
9:u0:twelve,
8:u0:sorry,
8:u1:sorry,
10:u0:what're,
10:u1:what're,
15:u0:twenty-ninth,
15:u1:twenty-ninth,
12:u0:3-o'clock,
8:u0:third,
12:u1:3-o'clock,
8:u1:third,
15:u0:8-o'clock-am,
15:u1:8-o'clock-am,
12:u1:traveling,
12:u0:companies,
12:u1:companies,
6:u0:505,
6:u1:505,
25:u0:salt-lake-city-airport,
25:u1:salt-lake-city-airport,
10:u0:choices,
10:u1:choices,
8:u0:stops,
8:u1:stops,
14:u0:reservation,
14:u1:reservation,
8:u0:final,
8:u1:final,
16:u0:early-morning,
16:u1:early-morning,
17:u0:business-class,
17:u1:business-class,
6:u0:fit,
6:u1:fit,
8:u0:types,
8:u1:types,
11:u0:reaching,
11:u1:reaching,
6:u1:9am,
5:u0:s-,
5:u1:s-,
9:u0:philly,
9:u1:philly,
9:u0:should,
9:u1:should,
13:u0:requesting,
13:u1:requesting,
8:u0:those,
8:u1:those,
9:u0:begins,
9:u1:begins,
20:u0:canadian-airlines,
20:u1:canadian-airlines,
5:u0:qx,
5:u1:qx,
10:u0:midwest,
10:u1:midwest,
4:u0:3,
4:u1:3,
5:u0:12,
5:u1:12,
8:u0:order,
8:u1:order,
8:u0:being,
8:u1:being,
7:u0:same,
7:u1:same,
9:u0:repeat,
9:u1:repeat,
8:u0:rates,
8:u1:rates,
5:u0:19,
17:u0:united-airline,
5:u1:19,
17:u1:united-airline,
17:u0:departure-time,
17:u1:departure-time,
5:u0:71,
5:u1:71,
10:u0:mondays,
10:u1:mondays,
6:u0:4pm,
6:u1:4pm,
18:u0:12-o'clock-noon,
18:u1:12-o'clock-noon,
18:u0:atlanta-airport,
18:u1:atlanta-airport,
17:u1:denver-airport,
27:u0:general-mitchell-airport,
27:u1:general-mitchell-airport,
11:u0:scenario,
15:u0:pennsylvania,
15:u1:pennsylvania,
8:u0:class,
8:u1:class,
10:u0:october,
10:u1:october,
21:u0:la-guardia-airport,
21:u1:la-guardia-airport,
11:u0:sometime,
11:u1:sometime,
8:u0:thank,
8:u1:thank,
10:u0:georgia,
10:u1:georgia,
13:u0:10-o'clock,
13:u1:10-o'clock,
6:u0:281,
6:u1:281,
8:u0:right,
8:u1:right,
5:u0:ac,
5:u1:ac,
24:u0:times-of-your-flights,
24:u1:times-of-your-flights,
8:u0:430pm,
8:u1:430pm,
6:u0:bur,
6:u1:bur,
8:u0:makes,
8:u1:makes,
17:u0:dallas-airport,
17:u1:dallas-airport,
10:u0:connect,
9:u0:1220pm,
9:u1:1220pm,
9:u0:1115am,
9:u1:1115am,
6:u0:f28,
6:u1:f28,
8:u0:offer,
8:u1:offer,
25:u0:the-day-after-tomorrow,
25:u1:the-day-after-tomorrow,
8:u0:cheap,
8:u1:cheap,
7:u0:rent,
17:u0:most-expensive,
17:u1:most-expensive,
7:u0:1991,
7:u1:1991,
6:u0:six,
6:u1:six,
7:u0:will,
7:u1:will,
14:u0:originating,
14:u1:originating,
6:u0:229,
6:u1:229,
11:u0:directly,
11:u1:directly,
7:u0:zone,
7:u1:zone,
8:u0:tenth,
8:u1:tenth,
13:u0:departures,
13:u1:departures,
11:u1:provided,
6:u0:bna,
6:u1:bna,
7:u0:late,
7:u1:late,
10:u0:offered,
10:u1:offered,
6:u0:m80,
6:u1:m80,
8:u0:230pm,
8:u1:230pm,
8:u0:kinds,
8:u1:kinds,
11:u0:february,
11:u1:february,
6:u0:746,
6:u1:746,
10:u0:serving,
10:u1:serving,
10:u0:grounds,
10:u1:grounds,
12:u0:6-o'clock,
12:u1:6-o'clock,
10:u0:usa-air,
6:u0:311,
6:u1:311,
6:u0:sfo,
6:u1:sfo,
13:u0:dinnertime,
13:u1:dinnertime,
6:u0:459,
6:u1:459,
5:u0:fn,
5:u1:fn,
12:u0:9-o'clock,
12:u1:9-o'clock,
14:u0:destination,
14:u1:destination,
7:u0:area,
7:u1:area,
6:u0:car,
6:u1:car,
15:u0:america-west,
15:u1:america-west,
7:u0:gets,
12:u0:overnight,
12:u1:overnight,
6:u0:yyz,
6:u1:yyz,
19:u0:general-mitchell,
19:u1:general-mitchell,
15:u0:twenty-first,
15:u1:twenty-first,
24:u0:ontario-international,
24:u1:ontario-international,
10:u0:booking,
10:u1:booking,
12:u0:stopovers,
12:u1:stopovers,
6:u0:non,
6:u1:non,
17:u0:north-carolina,
17:u1:north-carolina,
16:u0:approximately,
16:u1:approximately,
8:u0:start,
8:u1:start,
10:u1:connect,
9:u0:wanted,
9:u1:wanted,
34:u0:canadian-airlines-international,
34:u1:canadian-airlines-international,
13:u0:eighteenth,
13:u1:eighteenth,
10:u0:friends,
5:u0:pm,
5:u1:pm,
8:u0:three,
8:u1:three,
7:u0:both,
7:u1:both,
13:u0:difference,
13:u1:difference,
6:u0:hou,
6:u1:hou,
5:u0:up,
11:u0:day-time,
5:u1:up,
11:u1:day-time,
7:u0:1055,
7:u0:when,
7:u1:when,
6:u0:130,
6:u1:130,
8:u0:we're,
8:u1:we're,
6:u0:106,
6:u1:106,
13:u0:lunch-time,
13:u1:lunch-time,
6:u0:100,
6:u1:100,
8:u0:730pm,
8:u1:730pm,
5:u0:us,
5:u1:us,
12:u0:airplanes,
12:u1:airplanes,
13:u0:car-rental,
13:u1:car-rental,
7:u0:seat,
7:u1:seat,
6:u0:838,
6:u1:838,
8:u0:catch,
8:u1:catch,
16:u0:twenty-fourth,
16:u1:twenty-fourth,
8:u0:thing,
8:u1:thing,
4:u0:b,
4:u1:b,
12:u0:following,
12:u1:following,
6:u0:who,
6:u1:who,
9:u1:amount,
11:u0:serviced,
11:u1:serviced,
6:u0:825,
6:u1:825,
19:u0:without-stopping,
19:u1:without-stopping,
6:u0:737,
6:u1:737,
15:u0:6-o'clock-pm,
15:u1:6-o'clock-pm,
7:u0:ap80,
7:u1:ap80,
18:u0:during-the-week,
18:u1:during-the-week,
6:u0:755,
6:u1:755,
8:u0:train,
8:u1:train,
6:u0:1pm,
6:u1:1pm,
11:u0:anything,
11:u1:anything,
4:u0:2,
4:u1:2,
12:u0:equipment,
12:u1:equipment,
7:u0:help,
7:u1:help,
7:u1:name,
15:u0:8-o'clock-pm,
15:u1:8-o'clock-pm,
6:u0:d9s,
6:u1:d9s,
10:u0:travels,
10:u1:travels,
12:u0:tennessee,
12:u1:tennessee,
7:u0:very,
7:u1:very,
13:u0:twenty-one,
13:u1:twenty-one,
9:u0:1145am,
9:u1:1145am,
24:u0:san-francisco-airport,
24:u1:san-francisco-airport,
12:u0:originate,
12:u1:originate,
15:u0:7-o'clock-pm,
15:u1:7-o'clock-pm,
6:u0:402,
6:u1:402,
18:u0:oakland-airport,
18:u1:oakland-airport,
11:u0:tuesdays,
11:u1:tuesdays,
20:u0:the-following-day,
20:u1:the-following-day,
6:u0:too,
6:u1:too,
6:u0:try,
6:u1:try,
6:u0:atl,
6:u1:atl,
6:u0:705,
6:u1:705,
7:u0:1209,
7:u1:1209,
11:u0:anywhere,
11:u1:anywhere,
8:u0:logan,
19:u0:during-week-days,
19:u1:during-week-days,
11:u0:sunday's,
11:u1:sunday's,
6:u0:put,
6:u1:put,
16:u0:no-later-than,
16:u1:no-later-than,
10:u0:closest,
10:u1:closest,
15:u0:arrival-time,
15:u1:arrival-time,
6:u0:823,
6:u1:823,
25:u0:earliest-possible-time,
25:u1:earliest-possible-time,
6:u0:819,
6:u1:819,
16:u0:twenty-second,
16:u1:twenty-second,
14:u0:dinner-meal,
14:u1:dinner-meal,
7:u0:rate,
7:u1:rate,
41:u0:general-mitchell-international-airport,
41:u1:general-mitchell-international-airport,
6:u0:mco,
6:u1:mco,
13:u0:12-o'clock,
9:u0:1230pm,
9:u1:1230pm,
5:u0:co,
5:u1:co,
10:u0:sundays,
10:u1:sundays,
9:u0:o'hare,
9:u1:o'hare,
10:u0:meaning,
10:u1:meaning,
13:u0:nineteenth,
13:u1:nineteenth,
20:u0:northwest-airline,
20:u1:northwest-airline,
15:u0:restrictions,
15:u1:restrictions,
10:u0:options,
10:u1:options,
10:u0:highest,
10:u1:highest,
7:u0:well,
7:u1:well,
7:u0:1017,
7:u1:1017,
7:u0:over,
7:u1:over,
12:u0:continent,
12:u1:continent,
7:u0:i've,
7:u1:i've,
8:u0:645am,
8:u1:645am,
11:u0:airfares,
11:u1:airfares,
10:u0:provide,
10:u1:provide,
6:u0:3pm,
6:u1:3pm,
21:u0:washington-airport,
21:u1:washington-airport,
7:u0:utah,
7:u1:utah,
16:u0:abbreviations,
10:u0:delta's,
10:u1:delta's,
12:u0:turboprop,
12:u1:turboprop,
13:u0:1200-hours,
13:u1:1200-hours,
10:u0:enroute,
27:u0:houston-intercontinental,
10:u0:another,
10:u1:another,
15:u0:5-o'clock-am,
15:u1:5-o'clock-am,
13:u1:12-o'clock,
7:u0:dc10,
7:u1:dc10,
11:u0:friday's,
11:u1:friday's,
9:u0:priced,
9:u1:priced,
8:u0:324pm,
8:u1:324pm,
14:u0:415-dollars,
14:u1:415-dollars,
18:u0:flight-schedule,
18:u1:flight-schedule,
8:u0:ninth,
8:u1:ninth,
12:u0:southwest,
12:u1:southwest,
13:u0:1300-hours,
13:u1:1300-hours,
14:u0:200-dollars,
14:u1:200-dollars,
13:u1:american's,
5:u0:98,
5:u1:98,
9:u0:thrift,
9:u1:thrift,
7:u0:sure,
7:u1:sure,
7:u0:1992,
7:u1:1992,
8:u0:838am,
8:u1:838am,
6:u0:139,
6:u1:139,
14:u0:wednesday's,
14:u1:wednesday's,
14:u0:meal-code-s,
14:u1:meal-code-s,
6:u0:430,
6:u1:430,
10:u0:heading,
10:u1:heading,
11:u0:missouri,
11:u1:missouri,
22:u0:continental-airline,
20:u0:san-diego-airport,
20:u1:san-diego-airport,
13:u0:air-canada,
13:u1:air-canada,
6:u0:lax,
6:u1:lax,
8:u0:names,
8:u1:names,
11:u0:takeoffs,
11:u1:takeoffs,
10:u0:located,
11:u0:shortest,
11:u1:shortest,
8:u0:530pm,
8:u1:530pm,
11:u0:noontime,
11:u1:noontime,
4:u0:f,
4:u1:f,
9:u0:quebec,
9:u1:quebec,
12:u0:beginning,
12:u1:beginning,
37:u0:philadelphia-international-airport,
10:u0:carries,
10:u1:carries,
6:u0:539,
6:u1:539,
8:u0:march,
8:u1:march,
7:u0:limo,
7:u1:limo,
8:u0:815am,
12:u0:itinerary,
12:u1:itinerary,
14:u0:round-trips,
14:u1:round-trips,
7:u0:4400,
7:u1:4400,
6:u0:73s,
6:u1:73s,
6:u0:210,
6:u1:210,
15:u0:1500-dollars,
15:u1:1500-dollars,
10:u0:fridays,
17:u0:city-of-boston,
10:u1:fridays,
17:u1:city-of-boston,
9:u0:dulles,
9:u1:dulles,
10:u0:doesn't,
10:u1:doesn't,
8:u0:ap-55,
8:u1:ap-55,
12:u0:determine,
12:u1:determine,
9:u0:during,
9:u1:during,
6:u0:630,
6:u1:630,
8:u0:bound,
8:u1:bound,
10:u0:longest,
17:u0:city-in-dallas,
17:u1:city-in-dallas,
11:u0:no-stops,
11:u1:no-stops,
7:u0:year,
7:u0:days,
7:u1:days,
12:u0:nationair,
5:u0:so,
5:u1:so,
8:u0:route,
8:u1:route,
7:u0:1110,
7:u1:1110,
8:u0:110pm,
8:u1:110pm,
9:u0:define,
9:u1:define,
6:u0:555,
6:u0:72s,
6:u1:72s,
7:u1:rent,
10:u1:friends,
8:u0:ap-80,
8:u1:ap-80,
5:u0:cp,
5:u1:cp,
7:u0:1205,
7:u1:1205,
11:u0:actually,
11:u1:actually,
6:u0:747,
7:u0:1700,
7:u1:1700,
7:u0:land,
7:u1:land,
14:u0:329-dollars,
14:u1:329-dollars,
18:u0:departure-times,
18:u1:departure-times,
20:u0:stapleton-airport,
20:u1:stapleton-airport,
13:u0:capacities,
13:u1:capacities,
5:u0:10,
16:u1:abbreviations,
16:u0:10-o'clock-pm,
16:u1:10-o'clock-pm,
15:u0:reservations,
15:u1:reservations,
11:u0:provides,
11:u1:provides,
6:u0:201,
6:u1:201,
8:u0:place,
7:u0:them,
18:u0:toronto-airport,
18:u1:toronto-airport,
14:u0:150-dollars,
14:u1:150-dollars,
6:u0:got,
6:u1:got,
18:u0:times-of-flight,
18:u1:times-of-flight,
12:u0:scheduled,
12:u1:scheduled,
7:u0:3357,
7:u1:3357,
9:u0:trying,
9:u1:trying,
6:u0:oak,
6:u1:oak,
13:u0:advertises,
13:u1:advertises,
10:u0:arrival,
10:u1:arrival,
6:u0:mia,
6:u1:mia,
8:u1:logan,
10:u0:reaches,
10:u1:reaches,
12:u0:minnesota,
12:u1:minnesota,
12:u0:different,
12:u1:different,
7:u0:runs,
7:u1:runs,
25:u0:lester-pearson-airport,
25:u1:lester-pearson-airport,
42:u0:dallas-fort-worth-international-airport,
11:u0:smallest,
11:u1:smallest,
7:u0:1026,
7:u1:1026,
8:u0:close,
8:u1:close,
11:u1:services,
6:u0:727,
6:u1:727,
9:u0:coming,
9:u1:coming,
15:u0:lowest-price,
15:u1:lowest-price,
8:u0:snack,
8:u1:snack,
9:u0:1020pm,
9:u1:1020pm,
12:u0:salt-lake,
12:u1:salt-lake,
10:u0:reverse,
10:u1:reverse,
20:u0:milwaukee-airport,
20:u1:milwaukee-airport,
16:u0:only-weekdays,
16:u1:only-weekdays,
10:u0:maximum,
10:u1:maximum,
9:u1:twenty,
15:u0:4-o'clock-pm,
15:u1:4-o'clock-pm,
8:u1:seats,
14:u0:400-dollars,
14:u1:400-dollars,
9:u0:1130am,
9:u1:1130am,
7:u1:11pm,
15:u0:2-o'clock-pm,
15:u1:2-o'clock-pm,
8:u0:month,
8:u1:month,
14:u0:rental-cars,
14:u1:rental-cars,
10:u1:located,
9:u0:having,
9:u1:having,
9:u0:belong,
9:u1:belong,
6:u0:buy,
6:u1:buy,
8:u0:great,
8:u1:great,
6:u0:d10,
6:u1:d10,
7:u0:1059,
7:u1:1059,
5:u0:sa,
5:u1:sa,
9:u0:1133am,
9:u1:1133am,
9:u0:inform,
9:u1:inform,
10:u0:arizona,
4:u0:m,
6:u0:217,
6:u1:217,
7:u0:here,
7:u1:here,
13:u0:new-york's,
13:u1:new-york's,
6:u0:445,
6:u1:445,
13:u0:1700-hours,
13:u1:1700-hours,
8:u0:these,
8:u1:these,
18:u0:midway-airlines,
7:u0:1039,
18:u1:midway-airlines,
7:u1:1039,
14:u0:represented,
14:u1:represented,
12:u0:departure,
12:u1:departure,
9:u0:locate,
9:u1:locate,
6:u0:733,
6:u1:733,
26:u0:maximum-number-of-stops,
12:u1:nationair,
11:u0:vicinity,
11:u1:vicinity,
9:u0:1030am,
9:u1:1030am,
8:u0:later,
8:u1:later,
6:u0:324,
6:u1:324,
6:u1:555,
5:u0:oh,
5:u1:oh,
10:u0:q-fares,
10:u1:q-fares,
6:u0:734,
6:u1:734,
7:u0:just,
7:u1:just,
8:u0:seven,
8:u1:seven,
33:u0:as-soon-thereafter-as-possible,
7:u0:they,
7:u1:they,
7:u0:date,
7:u1:date,
4:u0:1,
4:u1:1,
6:u0:323,
6:u1:323,
13:u0:everywhere,
13:u1:everywhere,
18:u0:phoenix-airport,
18:u1:phoenix-airport,
10:u0:indiana,
10:u1:indiana,
23:u0:schedule-for-flights,
23:u1:schedule-for-flights,
6:u0:428,
6:u1:428,
7:u0:1505,
7:u1:1505,
8:u0:bring,
8:u1:bring,
6:u0:ord,
6:u1:ord,
4:u0:7,
4:u1:7,
20:u0:airport-limousine,
20:u1:airport-limousine,
6:u0:305,
6:u1:305,
14:u0:300-dollars,
14:u1:300-dollars,
15:u0:7-o'clock-am,
15:u1:7-o'clock-am,
8:u0:210pm,
8:u1:210pm,
7:u0:taxi,
8:u0:wants,
8:u1:wants,
7:u0:2134,
7:u1:2134,
12:u0:expensive,
12:u1:expensive,
11:u0:listings,
11:u1:listings,
6:u0:269,
7:u1:taxi,
14:u0:500-dollars,
14:u1:500-dollars,
7:u0:1993,
7:u1:1993,
12:u0:atlanta's,
12:u1:atlanta's,
12:u0:hartfield,
12:u1:hartfield,
6:u0:405,
6:u1:405,
7:u0:town,
8:u0:takes,
8:u1:takes,
10:u0:tonight,
10:u1:tonight,
6:u1:747,
7:u0:1765,
7:u1:1765,
12:u0:repeating,
12:u1:repeating,
11:u0:mealtime,
11:u1:mealtime,
9:u0:that's,
9:u1:that's,
13:u0:concerning,
13:u1:concerning,
7:u0:1024,
7:u1:1024,
7:u0:such,
7:u1:such,
14:u0:932-dollars,
14:u1:932-dollars,
7:u0:must,
7:u1:must,
6:u0:845,
6:u1:845,
6:u0:415,
6:u1:415,
18:u0:eastern-airline,
7:u0:it's,
7:u1:it's,
6:u0:767,
6:u1:767,
4:u0:k,
4:u1:k,
9:u0:nights,
9:u1:nights,
12:u0:thursdays,
12:u1:thursdays,
12:u0:currently,
12:u1:currently,
8:u0:515pm,
8:u1:515pm,
6:u0:352,
6:u1:352,
6:u0:757,
6:u1:757,
9:u0:sounds,
9:u0:nevada,
9:u1:nevada,
6:u1:269,
7:u0:sd-d,
7:u1:sd-d,
9:u0:supper,
9:u1:supper,
13:u0:preferably,
13:u1:preferably,
10:u1:arizona,
10:u0:staying,
5:u0:82,
10:u1:staying,
5:u1:82,
7:u0:hold,
7:u1:hold,
10:u0:include,
10:u1:include,
6:u0:off,
34:u0:stapleton-international-airport,
34:u1:stapleton-international-airport,
6:u0:771,
6:u1:771,
8:u0:along,
8:u1:along,
9:u0:listed,
9:u1:listed,
7:u0:43pm,
7:u1:43pm,
13:u0:connection,
13:u1:connection,
11:u0:greatest,
8:u0:level,
8:u1:level,
8:u0:eight,
8:u1:eight,
8:u0:local,
8:u1:local,
0=0x1.c11d33492076ep+4
81=0x1.06daa58f671b4p+2
82=0x1.fcaad28f2de5ep-1
83=0x1.c0701f54d965dp+0
84=0x1.005be1f50b1bcp+1
85=0x1.a40c6618dd0bap+0
86=0x1.305e7f7020f27p+0
87=0x1.f07ec8881c5b6p-1
88=0x1.3b558c399a4c2p-3
89=0x1.d09bc670e9663p+0
90=-0x1.64b6f467e2f79p-2
91=0x1.5830df622f53dp+0
92=0x1.4a5847c09c0bdp-2
94=-0x1.02f814c4236dap-1
95=0x1.6e559867d16bcp-1
96=-0x1.626f087b4dd1bp-1
97=-0x1.f02fc65c0e59fp-5
98=0x1.0b8dc2373cddp-11
99=-0x1.bd3ece2fbc85bp-1
100=0x1.44e99a3ff24b9p-3
101=-0x1.99a81acac07aep-1
102=-0x1.23fa04d2b2758p-12
104=-0x1.7970f72c4f58bp-3
105=-0x1.8b4dfb9d895d4p-2
107=0x1.79624651c1403p-2
108=-0x1.62a6c6e6a20bep-1
109=0x1.78e8411812ac6p+0
110=0x1.cac6ddeb829fcp-1
111=-0x1.75b7fee9b0845p-1
113=0x1.83bdcb4c036d4p-8
115=0x1.f2334163b9eb9p-3
116=0x1.0456f9266980cp+0
117=0x1.fb3872f51f87ap-7
118=0x1.1d9f3970db625p+0
119=0x1.17ea80c4009a3p-3
120=0x1.3934e733a305cp-1
121=-0x1.cba8fcdca98ffp-2
122=0x1.c71f0c38e61c1p-2
123=-0x1.626f2485ebbabp-1
124=0x1.cadcda31f77c7p-1
125=0x1.de4b4af4f39a2p-1
128=0x1.7d2a9a1ebb979p-2
129=0x1.1750fb415a002p-1
130=0x1.3d2f1e291db5bp-1
131=0x1.273b05518b462p+0
132=0x1.94f91f7ef3c85p+0
134=-0x1.70eead8703dbep-1
135=0x1.9a65167236478p-1
137=0x1.94362f289b62p+0
138=-0x1.65d46d661329fp-1
139=0x1.73710ec0c4222p-5
143=-0x1.64390ac7d3ba3p-1
145=-0x1.62c3a98d3c5ecp-1
146=-0x1.dd95673e730d6p-1
147=-0x1.872fa2afe544ap-1
149=-0x1.22ba4d89d44ecp-2
150=-0x1.62a0af3fce712p-1
151=0x1.8f1f5817d5553p-2
152=-0x1.629144ea57414p-1
154=-0x1.6290bd3c7f4f1p-1
155=-0x1.6282e86c5520ap-1
157=-0x1.63da7936d35d8p-1
158=-0x1.626f29d5ba91bp-1
159=-0x1.626f24c5d2a59p-1
160=-0x1.626f2924f99cp-1
161=-0x1.62a0aed88aee4p-1
162=0x1.dc7dd66cab4afp+2
243=0x1.e27c8cca53dcp+1
244=0x1.01025be558e3cp-1
245=0x1.806f434c2068bp+0
246=0x1.b5ac1b9673d5dp+0
247=0x1.8685bae580c5fp+0
248=0x1.83f98aea84ac7p-1
249=0x1.c63bd9a91d8cp-1
250=-0x1.d15f4cf73c9ap-4
251=0x1.552e215df828fp+0
252=0x1.b8fa1763aa342p-5
253=0x1.943deeffb3045p+0
256=0x1.062a8946d8b0ep-3
257=0x1.365620b975163p-1
259=0x1.260f90422bcbep-4
261=-0x1.0c4b412763ba4p-1
263=-0x1.4b5f7317bac1dp-2
264=0x1.2b01840c7253dp-2
268=0x1.e588bdb3bdd6bp-2
269=0x1.030ca6f79333bp-1
270=-0x1.561cc90ba2d8dp-1
271=0x1.31b953032583ap+0
272=0x1.3078052585767p+0
273=-0x1.364f42bcd3c24p-1
274=0x1.6df55dbd97f96p+0
275=0x1.4d21eac95dce6p-3
276=-0x1.66aa8e6d59b5cp-5
277=0x1.7e0e864b7997cp-1
278=0x1.e3f83043de191p-1
279=0x1.46d791100cd9bp-1
282=0x1.2c749177bfcacp+0
283=-0x1.d64faf7966596p-2
284=0x1.b05dc224a9e9cp-1
286=0x1.57c3194a824a1p-1
287=0x1.7361772630536p-1
288=-0x1.90bbf8cfd6836p-1
289=0x1.acaf5bdfb4a92p-2
291=0x1.1586973e68e34p+0
292=0x1.9b623f90761f5p-1
293=0x1.c2440b70321d4p-2
294=0x1.abfc66a006bedp-1
295=0x1.7beb4613ba3d2p-6
296=-0x1.5c51a7f3855c7p-1
297=0x1.823c62c88674p+0
298=-0x1.5ddcdb2aabe7dp-1
299=-0x1.321672553b07ap+0
300=0x1.3d15fec0e05p-14
301=-0x1.e2e0cd42aba8ep-1
302=-0x1.79efc192eb216p-1
303=-0x1.554b81c1264c5p-1
304=0x1.2dd6fb41d84ffp+0
305=-0x1.57affbc380488p-1
307=-0x1.5584f4d357401p-1
308=0x1.51d7f3c9bbf24p-3
309=-0x1.99f3cd5933932p-1
310=0x1.0fb9aae91a05cp+0
311=0x1.a06fcb971db74p-1
312=-0x1.55645bde3394ap-1
313=-0x1.75126ee1ba6a4p-1
314=-0x1.558c103b9dafp-1
315=-0x1.564792645334ap-1
316=-0x1.55b9c745e0b93p-1
317=-0x1.55877d0412cecp-1
318=-0x1.554b85e217624p-1
319=-0x1.59febacf9e243p-1
320=-0x1.554b8db95648bp-1
321=0x1.e8251dff53c6cp-10
322=-0x1.554b8d107766dp-1
323=-0x1.5585c2ce599e6p-1
324=0x1.411a550671b1ap+3
405=0x1.0c6e7f75a7a3fp+2
406=0x1.4a31cead23c53p-1
407=0x1.3132f82c49051p+0
408=0x1.ba28f021e9bafp-1
409=0x1.74f2635e5b046p+0
410=-0x1.1a05b29fbb81bp+1
412=-0x1.6ba5a6651664p-1
413=0x1.0d609fd8227f1p+0
415=0x1.c432cb9f6c13bp+0
417=0x1.837d2a70db4fbp-1
422=-0x1.5d9975bc2b6cdp-3
423=0x1.1a47ac91aeb5ep-5
425=-0x1.5632ed7d9aaep+0
430=0x1.b2e67c584fff2p-1
431=0x1.9fc074fc4016ap-2
433=0x1.181d2267a73ecp+0
434=0x1.34adceffff3a2p-1
435=-0x1.a31f738872ea9p-2
437=0x1.73a702a4dfbccp+0
440=-0x1.e9f51dd2c2e5fp-5
443=0x1.b0cffb9851394p-1
446=0x1.37d8dd24da135p+0
449=0x1.70c772768c331p-4
453=0x1.53917e8a0aafap+0
456=0x1.51423d0a031p+0
463=0x1.f4517242aabe1p-3
476=0x1.5cd9d7b836966p+0
486=0x1.265a263767928p+2
567=0x1.1a25f98d6503ap+2
568=0x1.2e5a37dc543bdp-1
569=0x1.25df430e4399dp+0
570=0x1.287b3ed25e261p+0
571=0x1.046400485d1p+0
574=-0x1.52a3189c2e38bp-3
575=0x1.f8d2f87a057f9p-5
577=0x1.1987db6cd12a4p+1
578=-0x1.c3423907e20c5p-2
579=0x1.ed07fa5758c8ap-4
583=-0x1.0d28837589a05p-3
585=-0x1.1cf69a27d8727p-1
593=0x1.b7fc6f90b8bp-7
595=-0x1.e5f08aedab47fp-4
596=0x1.45ff40426447cp-1
598=0x1.42e49700f1977p+0
599=0x1.d83a0b2361be9p-6
600=0x1.fcf603f93ad2cp-3
601=0x1.0d4c0f4b12f7fp+0
602=0x1.66595594cdd44p-3
603=0x1.3b09a0858da4ap+0
604=0x1.4449a59509e48p+0
610=0x1.08bda5db9cc02p+0
611=0x1.b43ee0ef68f61p-4
613=-0x1.2dc14b212f21p-2
614=-0x1.44f03094ddc4bp-2
616=0x1.50972456c09edp-2
617=0x1.a59db1e546f38p-4
618=0x1.443aba5d4ac48p+0
623=0x1.7123a8fbb47f4p+0
625=-0x1.3de48e1c36befp-3
626=0x1.292f78d887a58p-1
632=0x1.4f5149d038fcbp-3
633=-0x1.a45141d5ec478p-3
634=0x1.7349f065ebcfcp-2
648=0x1.110a917fe8538p+4
729=0x1.e1df60854c6ccp-1
731=0x1.986b083028e6p-5
733=-0x1.34bb4f8e368e1p-6
810=0x1.d31ac4458406ap+2
891=0x1.1abedcb6aa29p+2
892=0x1.2143afd86656cp-1
893=0x1.5ccecf951fb49p+0
894=0x1.f25a535c938f2p-3
895=0x1.65adada3c7a44p+0
896=0x1.5ecec1e9c6ad2p+0
897=-0x1.c027d2c0acebap-2
899=0x1.7ebd006903fc6p-3
901=0x1.5819d671166c4p+0
902=0x1.d3bf018305a5ep-6
903=0x1.1ffb76c26e1ecp-1
905=-0x1.0fa0785c9abf8p-5
906=0x1.5deaa1d8c64e6p+0
908=0x1.0711fd6f0fed7p+0
909=-0x1.13d2c9699433fp-2
911=0x1.55a591c71dc6dp-1
917=0x1.91f5edfe47848p+0
919=0x1.fd850061f96bep+0
920=0x1.9ee40283b87b1p-1
921=0x1.baf386cfcafb5p-2
922=0x1.242c2eb0c86cfp+1
923=-0x1.0bc4dbefe2b29p-3
924=0x1.490b6269c1979p-3
925=0x1.994bb37cd570ep-2
926=0x1.7ac4df6e0de07p+0
927=0x1.fdaf9a501036fp-1
929=0x1.c58855da73a12p-3
930=-0x1.29324c4a0966ep-1
932=0x1.31c0627258cb7p-4
934=-0x1.13b4c68c9f0a2p-5
935=0x1.53635b67a6336p-3
936=0x1.9b427de7ab18ep-1
939=-0x1.505907ba5fa65p-5
942=0x1.1798baf30d32dp+1
943=0x1.a9e53a5bcededp-2
945=0x1.d109cea42c5e4p-2
948=0x1.d26438e398e14p-2
949=0x1.93c279507b7fdp-4
950=0x1.d19cacfa8a38ap-2
952=-0x1.6516115185e4cp-4
953=0x1.ce29f9a356f7bp-2
956=-0x1.6c39ba12f6cafp-3
958=0x1.96db4db3e5e9fp+0
972=-0x1.3cc1bc1995433p-1
973=0x1.fa92e039f60e9p+2
989=0x1.6ad0ee8707acdp+2
1053=0x1.c6f4bb3ca1b72p+1
1055=0x1.be17c201675dcp+0
1056=0x1.05644332d31bap+0
1057=0x1.ea58a22d487e7p+0
1058=0x1.39ef6fe0808f9p+0
1060=-0x1.5e916e93f2da6p-5
1061=0x1.907d55d8155c3p+0
1063=0x1.0a3e229dd4ddp+0
1064=0x1.6ded699cdeb96p-3
1065=0x1.4f039367ee538p-1
1067=0x1.91b368a4f8abp-4
1071=-0x1.9874156f8b415p-2
1073=-0x1.db49876dbd684p-1
1079=0x1.237699d51ee79p-3
1081=0x1.1532057c76c06p+0
1082=0x1.b58e544aa70b1p-2
1083=0x1.3ef004e94d0b8p-2
1085=0x1.35205d8898f5ep+0
1087=0x1.b452e2e6b3106p-1
1088=0x1.a6bea55bdcb13p-1
1091=-0x1.e7475a37338b9p-10
1096=0x1.1ce8be2b85e49p+0
1099=-0x1.a51ee4186bd1ep-4
1104=0x1.4c8568427d0ecp+1
1111=0x1.72a5604ef38b7p-2
1134=0x1.9da6a1da66834p+4
1215=0x1.1cfcc5b4ac36ep-1
1218=0x1.c12b11fd81d85p+0
1223=0x1.78607ab046024p-3
1225=-0x1.cd78ef54c459cp-4
1226=0x1.a71c5e7c678dcp-2
1229=-0x1.85d00a5810358p-2
1296=0x1.082c2e984a66cp+3
1377=0x1.0fc2bd7ddf604p+2
1378=0x1.4dca430157c47p-4
1379=0x1.416181a3cc77fp+0
1380=0x1.180aa30722dcap+1
1381=0x1.cef4c2f0259c6p+0
1382=0x1.0bfb139f51172p+0
1383=0x1.c663d832ed888p-1
1384=0x1.069b0034e96bbp+0
1385=0x1.0c7f26e1e5c79p-2
1386=-0x1.2786e98c2a23p-1
1387=0x1.9fd691201f496p+0
1388=0x1.44db2d1aae76dp-1
1391=0x1.211c2773c8f19p-1
1392=0x1.7a08879cb7802p-1
1394=0x1.92b7e0730d563p-3
1395=-0x1.78c87791b888p-3
1396=-0x1.462dd450df136p-7
1397=0x1.4ab3ad43daeadp-4
1398=0x1.6675d35e91fap-2
1399=-0x1.5dfa10564b6f9p-2
1401=-0x1.e450b176e5227p-4
1403=0x1.6f6b32b0c6604p-1
1404=-0x1.422e8a94552c7p-1
1405=0x1.4b6c731422d93p+0
1406=0x1.c107896952918p-1
1407=0x1.b04a7ea52ecbfp-4
1409=-0x1.41fe2075cc23ep-1
1410=-0x1.21f31033879cp-1
1411=0x1.6ace46254c9a4p+0
1412=0x1.1b333d2dc9f1dp+0
1414=0x1.9941b349973c5p-2
1416=0x1.13dd8c8a20102p+0
1417=-0x1.13ce2b74f5f7p-7
1418=0x1.aeb988453ce2ep-3
1419=-0x1.41feecb7752f7p-1
1420=-0x1.6847679bfda02p-1
1423=0x1.56f11af43c316p-4
1425=-0x1.66a7ae5f9089ep-1
1427=0x1.0f9d196dcf726p+0
1428=0x1.8b067a87ca11dp+0
1429=-0x1.4b04a1f4fb00ep-3
1430=-0x1.4733868269ad9p-1
1432=-0x1.46d74f8b73ef5p-1
1433=-0x1.44f814127fe73p-1
1434=-0x1.44ed096d18897p-1
1435=-0x1.d21a8f7f07dcfp-1
1436=-0x1.5a283a0c4f72bp-1
1437=-0x1.41fee581fffcp-1
1439=-0x1.4454d30967b9ap-1
1440=-0x1.41fedff08e956p-1
1441=-0x1.421dbc99252a1p-1
1442=-0x1.c113cd8ae5a91p-1
1443=0x1.db75df7e7aff2p-1
1444=0x1.bdc1901294945p+0
1446=-0x1.4210bd0e97bc2p-1
1447=-0x1.617e894448818p-1
1448=-0x1.4240adaad79a3p-1
1449=-0x1.41feeacf5be7ep-1
1450=-0x1.423c8bb2d3575p-1
1451=-0x1.421eeddab0ca8p-1
1452=-0x1.41feea23e5fd8p-1
1453=-0x1.448d720706faap-1
1454=-0x1.41fef74f3dd7ap-1
1455=-0x1.42ee205efe3ep-1
1456=-0x1.41fef5e2922e7p-1
1457=-0x1.42113fbdd7162p-1
1458=0x1.63888eac8753bp+1
1459=-0x1.c09d20c61d2c3p-1
1460=0x1.5ed321369c389p-1
1462=0x1.62cf261d0dfe5p-1
1463=0x1.741b1a906d463p-3
1466=0x1.486863698a48fp-1
1468=0x1.085d2102738fbp+0
1469=0x1.982a1d8ab7648p-5
1475=0x1.cfc2830923975p-1
1486=-0x1.61c3da60df37ap-4
1487=0x1.6bcb4fa20b66bp-2
1492=0x1.7ca40e1c9a01ap-4
1493=0x1.0303b894fb77p-6
1499=0x1.1017fb6636ce1p+0
1500=0x1.64e832d6b5853p-1
1504=0x1.b0a597ef72839p-4
1539=-0x1.2c9b3465db24p+0
1541=0x1.a00230065a925p+2
1543=0x1.af262e23ffcecp+2
1567=0x1.1ac5f6b80db9cp+2
1620=-0x1.253fa021a53a4p+0
1623=0x1.56e4f65fc96a4p+2
1630=0x1.8bab140b50d3fp+2
1651=0x1.3ee8591407a8p+2
1674=0x1.2b9f8b6ccad6ep+0
1701=0x1.8cd0b6ebc4289p+1
1703=0x1.c36195c4dd32dp-1
1704=0x1.961761a142ee2p-5
1708=-0x1.ae122cf935c62p-2
1711=-0x1.4ee0e878d3a4bp-1
1713=0x1.f7852731d37dap-1
1732=0x1.dc280f60f8a64p-1
1784=0x1.52980140de80ap+3
1786=0x1.4aefcd2edd18cp+3
1810=0x1.df5dfc2c9d6f5p+2
1811=0x1.f04a7317af277p+2
1863=0x1.52294675cde83p+1
1865=-0x1.1cbd50a5bbaa8p-5
1866=0x1.8b4e279566cdp+0
1881=-0x1.8c622b46d3f4p-3
1891=0x1.90795c81a91b6p-1
1893=0x1.31b7e332a04ecp-1
1944=-0x1.8dc69f36f67fp-1
1946=0x1.69480aa9f73c7p+2
1948=0x1.7a36fd01adf39p+2
1972=0x1.886bf1b0d87a2p+1
2025=0x1.2366c0bfe3fffp+2
2026=-0x1.0a25756c6bab3p-2
2027=0x1.91eb42b09a706p+0
2028=0x1.38b9791d74e86p+1
2029=0x1.bdc49b62c96d7p+0
2035=0x1.2ed5e1ab010cp+1
2042=0x1.caf9bccdc20d7p-1
2043=-0x1.e7e4e45a9c1b9p-2
2045=0x1.c8a6dcc7fa5dap+0
2050=0x1.365a335f4dd44p-1
2051=-0x1.084d271ebeea7p-5
2053=0x1.1ada6c86ff6a1p+0
2055=0x1.8f9594437c8c7p-5
2059=0x1.2ad3c89c345e4p+0
2060=0x1.ab15bb3de531ap-1
2063=0x1.52362908dc41ep-2
2077=-0x1.b7c80556e351ep-2
2080=0x1.cb4772eb8033dp+0
2106=0x1.94354daae0b8ap+3
2187=0x1.a66614e54b764p-4
2189=0x1.d98446919fd4p-2
2268=0x1.aeb647fb7c9c6p+2
2273=0x1.a635b762201cap+0
2349=0x1.3b3433f89a0eep+2
2350=0x1.5e8eada648de7p-2
2351=0x1.6bd512b43f29p+0
2352=0x1.e0667eccfc3e8p+0
2353=0x1.8d3c8df6d8e3cp+0
2354=0x1.42b0e66f28434p+0
2355=-0x1.8f128fe67d765p-2
2357=0x1.ca3dae4b9a9d8p-5
2359=0x1.849e3fc258bf3p+0
2361=0x1.5e2633dd66748p-3
2366=0x1.82a1fc2b442cap-6
2367=0x1.c449bf74a0cbep-2
2368=0x1.95eac21ca873ap-2
2369=0x1.45d9662c5af97p-2
2374=0x1.89af5a559f39ap+0
2375=0x1.5bdcd66b85a48p-1
2377=0x1.af5a3211edb2bp+0
2378=0x1.56a49eefd308bp-1
2379=-0x1.fb20773dc713fp-2
2384=0x1.082318fba8fc1p-1
2385=0x1.f9cc0b31380b9p-2
2386=0x1.895324993affcp+0
2387=0x1.6c4f1ab420e4cp-1
2388=0x1.8869c21f20abdp+0
2390=0x1.41d277725877ep+0
2392=-0x1.595892ce28615p-6
2393=0x1.1c8da3f8a136cp-1
2398=0x1.8995a827bce34p+0
2399=0x1.ab6321082c7c5p-2
2407=0x1.ea1b2b4da45fdp-5
2410=0x1.f2fc0f7bbbb42p-1
2430=0x1.96760e63348bbp+0
2431=0x1.c8b4052951a8ep+0
2432=0x1.4a50295220b05p-4
2433=0x1.3dbd7bcaeaad7p+1
2434=-0x1.9ae2634c163p-6
2435=0x1.34eb7c7e712e5p+0
2444=0x1.0b9841af585d8p-4
2449=0x1.20254fd18c9dcp+0
2458=0x1.4143800d58f1dp-1
2464=-0x1.1a9b637fadd1ap-6
2465=0x1.0aa4640c0e01fp-1
2469=0x1.aeac03aa395ebp-7
2475=-0x1.e8bf6150eafddp-4
2479=0x1.0ed5eec5bf1dp-6
2511=0x1.003b178cf63cfp+3
2592=0x1.3643dc8d66dbep+3
2673=0x1.ab58ae64c724dp+1
2675=0x1.52afbd9851e0cp-2
2676=0x1.340cd5d93a4dp-3
2677=0x1.ba80ccd060c2ap-2
2680=0x1.7e5d453a43e69p+0
2684=0x1.d0abf45de295fp-5
2687=-0x1.cf50122293cc4p-2
2694=0x1.7fbab87190ba1p+1
2756=0x1.e23f6e84dda62p+2
2758=0x1.e77591bf42a29p+2
2782=0x1.59aa370ab9555p+2
2783=0x1.8d1705f2ceab7p+2
2835=0x1.dfc64b3208634p+1
2836=0x1.2a1329e13ebeap-1
2837=0x1.abe7040b92966p+0
2838=0x1.7bb216a3a0afp+1
2839=0x1.f2fea216892b2p+0
2841=-0x1.29a9d033fb239p-3
2842=0x1.1e4cb87131df8p-3
2843=0x1.e578f10796fp-1
2844=0x1.1099880f4954ap+0
2845=0x1.1ea662e48e234p-2
2847=-0x1.8ed1a344c7beep-4
2852=-0x1.0070bd39c25e7p-3
2861=0x1.6d13716e21088p-2
2863=-0x1.0f8631e419897p-4
2864=0x1.656db138a1e29p-1
2865=-0x1.907b82c5079p-13
2866=0x1.3baa0dc780dbcp-2
2870=0x1.a1c238186690ap+0
2871=0x1.797dccf5cb483p-3
2874=-0x1.c5ea6b5e6958bp-4
2882=0x1.a0cf195331713p-3
2884=0x1.6db68a6961ec8p-1
2891=0x1.050393273da3fp-2
2916=0x1.17df4e825e2f9p+2
2917=0x1.5e4c6eeded809p-2
2918=0x1.e29726ca792c5p-1
2919=0x1.58d921fa6d2f2p+1
2920=0x1.b80bcd4606ddp-1
2923=0x1.3b6d92f3a905ap-2
2924=0x1.14ef32b5fbd6p+0
2926=0x1.7cb942158ac8fp-4
2930=0x1.f08581bfc8cadp-1
2933=-0x1.cf72af14fd31dp-4
2942=-0x1.e22a31d454534p+0
2944=0x1.4c1e5026514eap-1
2945=0x1.abeade2ab286cp-3
2949=-0x1.50943e43ba705p+1
2951=0x1.bbc0cfb5e27c5p+0
2959=0x1.ced70d5cf4497p+0
2967=0x1.3ca273edbe18bp+1
2969=0x1.5a5f1e9517a8ap+0
2988=0x1.625adfcef8e9p+0
2997=0x1.37a51389e9012p+4
3078=-0x1.4a55ba4e6bff5p-3
3083=0x1.20dd70fb106bep+3
3149=0x1.b503162966b0ap+0
3159=0x1.3aa94061d9cdap+2
3160=0x1.5c691ab1890a6p-1
3161=0x1.c0d120cfb1dd4p+0
3162=0x1.3636d9c83c0afp+1
3163=0x1.8f009cac4792cp+0
3164=0x1.61cfcebb9d022p-3
3167=0x1.f20b211f48191p+0
3169=0x1.06c3f8c1dea91p+1
3170=0x1.44ce197b7a4f8p-3
3171=-0x1.bd5aff2b14a7bp-10
3173=-0x1.2e90d7e1de88dp-4
3176=0x1.ce27050efb4d5p-3
3177=-0x1.3a86c05724c69p-2
3181=0x1.9af7197f0a25p-5
3183=0x1.c83c2e2cd5c14p+0
3185=0x1.df1e26675372ap-1
3186=0x1.111c59f262a34p+0
3187=0x1.8595952c2fd1p+0
3188=0x1.05a876ecd868cp-1
3189=0x1.1eeea99cac748p-1
3191=0x1.33c34c0bf87edp+0
3192=0x1.7e28770ad3fe5p-2
3193=0x1.e0813dc6fb553p-6
3194=0x1.d15fa75567666p+0
3195=0x1.94a9c6e217a89p+0
3196=0x1.1a8c459d47f8bp+1
3198=0x1.1d363439d2ec4p-4
3202=0x1.31041468bde7cp+0
3203=0x1.a09e2c44ad9e7p-5
3204=-0x1.e5f7f22e97738p-8
3205=0x1.55a6b70c3b4fdp-4
3206=0x1.468415c2d9966p-4
3207=0x1.49f2feb2f3927p-1
3208=0x1.5eac672e89a19p+0
3209=0x1.8b8fee6e27de7p-5
3210=0x1.3f2b9d3d5d903p+1
3215=0x1.e5cf20e9f339p-2
3216=0x1.0e02adba0b77dp+0
3217=-0x1.c6562ae41310ep-3
3220=0x1.01c3909c1040ap+0
3224=0x1.8cf3e6e1a6566p-7
3225=-0x1.79789b74caec5p-5
3226=0x1.28c8f12fc3e82p+1
3240=-0x1.eb6c01ff78482p+0
3246=0x1.5824b5f10b3b6p+2
3266=0x1.14660a3a3c54fp+3
3295=0x1.f2523559ad68cp+1
3321=0x1.ab4bf25717f9cp+1
3323=0x1.1651c9706b66cp-2
3324=0x1.5a5100e239c64p+0
3325=0x1.c90cdf752bdc6p-2
3326=0x1.cfe61180110f7p-6
3327=0x1.5aad52e7f3544p-1
3347=-0x1.f623407cc0376p-1
3355=0x1.63d3897cd438p-4
3388=0x1.ab9c09e12cedfp-1
3402=0x1.27a967c30b52ap+1
3404=0x1.a482af3c91928p-2
3405=0x1.e60c77e4a8abp-2
3406=0x1.6eee10dbd0943p-1
3412=-0x1.2b8c5fc337f6ep-7
3413=-0x1.7f0f4b4ed3f62p-5
3430=0x1.2e05242dfe4e9p+0
3434=0x1.153a645dc89f6p+0
3437=0x1.3d7eb1085218bp+0
3445=0x1.127933b8e2644p-2
3450=0x1.c6b37013dba0bp-8
3456=0x1.17c130911462fp+0
3483=-0x1.acc77546e18dcp+0
3486=0x1.7abcaf46affecp+2
3493=0x1.6918b255a36aap+2
3531=0x1.3861d84b154d8p+0
3564=0x1.b404d167a4cffp+1
3567=0x1.eefd4c011ef94p-1
3568=0x1.03423dfe31203p-1
3645=0x1.1cb98b7c5a533p+2
3726=-0x1.92b1f04a22fd3p-1
3733=0x1.0881bd5dff3abp+3
3738=0x1.551de07f6640fp+2
3783=0x1.826108298be1ep+0
3808=0x1.2414221da469ap+1
3809=0x1.e4ecff09a31fep-3
3811=-0x1.1382f10246727p-2
3825=-0x1.397ce0a37931dp-3
3837=0x1.670d7e4af40a8p-1
3888=-0x1.429aadde2545ep-2
3896=0x1.2667fcf94179p+3
3978=0x1.455b3d24e6753p+3
4050=0x1.3cb5c994e72f1p-1
4054=-0x1.dd38fc68ea836p-4
4071=0x1.2f71876e08a4ep-4
4079=0x1.7e5383198ba6bp-3
4096=0x1.8f7d59baa5ae2p-5
4131=0x1.d7138d9f0333dp+2
4133=0x1.dd3a500ec7a31p+3
4135=0x1.c59325d34d7ecp+3
4159=0x1.649b1f5bd996ep+3
4160=0x1.72496811e10aep+2
4212=0x1.a12df402ab05bp+0
4213=-0x1.14dcf6dc1569dp-3
4214=0x1.32616187c7766p-2
4216=0x1.35b4202a12ca7p-1
4218=0x1.837627c21e8cp-3
4219=-0x1.d7ed147595745p-1
4221=0x1.a4bc88e397134p-1
4224=0x1.355def8e04853p+0
4229=0x1.115ecd48570acp+0
4238=-0x1.40a7ce77872c3p-11
4250=0x1.972a382c30dc2p-1
4293=-0x1.5b6ddb3be78ep+0
4296=0x1.1bae04803ff72p+2
4303=0x1.51e897b54330fp+2
4324=0x1.4a89fd0604672p+0
4349=0x1.9cc5ff97d3928p+1
4374=0x1.08d8fbf2c3e3fp+2
4375=0x1.972f80a84a577p-1
4376=0x1.a488d10b8f1c8p+0
4377=0x1.1ffb2d6540586p+1
4378=0x1.9bc1b11cbb55fp+0
4379=0x1.47a0bdc9bda76p-2
4380=0x1.04a4c2e189fefp+0
4381=0x1.5f2820f59e533p+0
4384=0x1.40919d0335d72p+0
4386=0x1.0dd9ed87c7bd4p-2
4391=-0x1.247f50529ddb4p-2
4400=-0x1.400ef27b5acdap-2
4402=0x1.1bc9327ddde35p+0
4403=0x1.0af56995f1726p+0
4404=-0x1.5d9ba6d04626dp-4
4408=0x1.318cade36d988p-1
4409=0x1.3058b8049f34p-2
4410=0x1.8e0344c1b6d54p-1
4412=-0x1.62986b04d0aa2p-6
4415=0x1.3a114ab428c06p-4
4417=0x1.73229eab1090ap+0
4418=0x1.2fa5f03d157abp-1
4420=0x1.cdcd22e0e3c35p-2
4425=0x1.3eb38af26d1b4p+1
4434=0x1.6480184b54c35p+0
4449=0x1.5e019ee951fddp+0
4455=0x1.00b5fe82440d2p+3
4536=0x1.6351f34e2283ap+0
4537=-0x1.6eb634a69d4cep+0
4553=0x1.7eaa9c478857ap+0
4617=0x1.df192d55e91abp+2
4698=0x1.c8a9e08583ac1p+1
4699=-0x1.344af60825d2ap-11
4701=0x1.2ad516e42ba7fp+1
4702=0x1.e45cf7d97047ep-2
4703=0x1.ce04f216740eap-2
4706=0x1.b3d6b5e4b702ep-3
4709=-0x1.9c354d43f65cbp-3
4712=0x1.e945e2c78adbp-2
4715=0x1.527260ebbc0f3p-4
4726=0x1.474ebe96c366p+0
4733=0x1.7cdf9972ea79ep-3
4779=0x1.132be95e88a6bp+3
4860=0x1.65e8f80e95b83p+1
4862=0x1.e7ec5b1580016p-4
4864=0x1.5931e1f5872a4p-2
4899=0x1.723901315fc5ap-1
4941=-0x1.2f619964917e7p-1
4943=-0x1.512c0a9c4cc0ep-2
4945=-0x1.84effa54a5671p-3
4952=0x1.154e2b98dc3e2p+3
4955=0x1.9e0b0a8d83801p+2
4961=0x1.909eb824b20d1p+0
4966=0x1.8f0fac788c3dp+0
5022=0x1.2289e63b1c871p+2
5024=-0x1.eb09000f9d191p-6
5026=0x1.8ac108b2ad254p-1
5029=-0x1.32ae8a88440e5p-6
5034=0x1.6919f0eae3305p+0
5050=0x1.2c78b6a8e3d69p-3
5056=0x1.d7bd53c1403d6p-4
5103=0x1.06112625ae97ap+2
5105=0x1.0f35c7f01613ap-1
5107=0x1.f55e37ed29dbap-1
5108=-0x1.82b678a029b8dp-1
5109=0x1.9a513180fbbc6p-2
5113=0x1.5603074c4690ap+0
5114=0x1.137cae997fb22p-1
5117=0x1.2288861e242a1p+0
5129=-0x1.f4b15c56dd643p-2
5134=0x1.83585df1d68f9p-2
5146=0x1.9bd417c5ada83p-1
5159=-0x1.7098f54b769b4p-5
5184=0x1.066b6de8e07b2p+3
5265=0x1.9e6ba87091752p-2
5267=-0x1.0d67dc8860ed9p-4
5268=0x1.6a4e431630947p+0
5270=0x1.124de30dde967p-5
5272=0x1.ff942a73b5379p-1
5275=-0x1.b7d13aebe576cp-7
5291=0x1.c1ac48c898e15p-5
5293=0x1.0dcdeb720dff9p-1
5308=0x1.40cecb19af047p+1
5346=-0x1.df76c8ef6b1b7p-1
5347=0x1.0e7905d7afa2p+3
5363=0x1.6af04526c69e6p+2
5408=0x1.96e06ec6b5af5p+0
5427=-0x1.390e0d97c5c97p+0
5434=0x1.fd51da4c273abp+2
5439=0x1.9b80d491778c2p+2
5508=0x1.4c577afa9ef94p+3
5589=0x1.8938e88c0e5dcp+1
5591=0x1.93b7d17222d9p-4
5617=0x1.ff68405f38265p-3
5624=0x1.c71d6b7b26af1p-1
5683=0x1.613ace00bc2d4p+3
5751=0x1.12a764c72390ep+2
5752=0x1.843f6fb57b166p-5
5753=0x1.4e4c075c74dbap+0
5754=0x1.5df1f6141e033p+0
5755=0x1.77eec24536816p+0
5758=0x1.1e59e5b73d833p-1
5760=0x1.22b0604d4a05ep+0
5761=0x1.716df9be37325p+0
5762=0x1.71954488da44dp-1
5768=0x1.21096c3da2271p-2
5777=0x1.0b927c0c5eb98p-5
5779=0x1.8ebcd75424f9cp-2
5780=0x1.bb4781aa79f34p-1
5781=-0x1.15a86ba9fe6c7p-3
5782=0x1.9d77aee65ac35p+0
5786=0x1.a8b00ee80520bp+0
5787=0x1.f06733c67586ap-1
5789=0x1.8239dd76aa57dp+0
5790=-0x1.9ae8706bb8776p-4
5792=0x1.5ba8a1c0153cp-7
5799=0x1.b5a023205aba8p-7
5800=0x1.e8e60baf55973p-1
5802=0x1.4bd7d3fb32514p-1
5807=-0x1.8733fd305aab4p-12
5810=0x1.837206dcd9b95p+0
5832=0x1.16583bf9844d2p+3
5913=0x1.372e4e679caeap+2
5914=-0x1.bf1f5435e079fp-1
5915=0x1.0bcd08331ec17p-1
5917=0x1.eaeb999e68ce4p-2
5921=0x1.e4b3248d0f496p-3
5922=0x1.3d400416b3eaap+1
5927=-0x1.253270a5c1a3cp-3
5930=0x1.5b2270cf6f28dp+0
5937=0x1.60cf346cbccb8p-2
5941=0x1.aa9239689b10ep-4
5942=-0x1.35c41ec223bd1p-2
5946=-0x1.4bb60af2ffb59p+0
5948=0x1.2b53dbc3c1383p-3
5956=0x1.7ecdb0c5d7ddap-4
5994=-0x1.033cb9e6bfa94p+0
5996=0x1.81a0e48a4208p+2
5998=0x1.6b6c184e4d6c6p+2
6022=0x1.638f37c813e08p+1
6023=0x1.83c2f904cbe14p+1
6075=0x1.ea80dfdd90d46p+1
6076=0x1.2c152fd61950cp-1
6077=0x1.110f8a3de427ep-1
6079=0x1.5700071a2c504p-1
6083=0x1.84a2ed2066031p-3
6086=-0x1.76f8a949cae85p-2
6089=0x1.0a0f4539bc5aap+0
6091=0x1.08d897b776ff9p-1
6092=-0x1.378bfad2c2c13p-3
6093=0x1.739e216c6c2c8p-3
6103=0x1.13435e8c14d4ap+0
6104=0x1.a5840e6c20dddp-1
6105=-0x1.ef01ebd9c1dfap-3
6107=0x1.25cb40b416981p-5
6108=-0x1.487be0d0e2276p-1
6109=0x1.1b82b93bf1b2ep-1
6110=0x1.5147aff8edcb7p-1
6113=-0x1.71934571e5352p-10
6118=0x1.b33ae9aee880cp-4
6121=0x1.361da4f217d12p-4
6126=0x1.5c9bde73fb022p+0
6156=-0x1.c058e9298e2bap-1
6158=-0x1.99a6714f92b3ep-2
6160=-0x1.20bb2be0fd6e8p-2
6167=0x1.0745e9ae348a4p+3
6170=0x1.fa0a9d40ae5dep+2
6237=0x1.fdd5b1bd54f42p+2
6318=0x1.990a24fcd45dep+1
6320=0x1.67d2b97f37a2p+0
6322=0x1.71b6aa5f1a95ap-2
6328=0x1.6060e089b5258p+0
6346=0x1.03411fdd923d6p-1
6352=0x1.0c956472ccd43p+0
6353=0x1.0e34b908ee61cp+1
6399=0x1.7426dcee9092fp+1
6401=0x1.4d32f0d347e86p+0
6402=0x1.c46eb791e68fdp+0
6403=0x1.7c368d05ebdfcp+0
6404=-0x1.80afd0f91e91p-4
6405=0x1.6e35d898bf983p-6
6406=-0x1.f51fb9bc83fafp-1
6407=0x1.8ba6cf7d0f551p+0
6409=0x1.19a1f9d3ecb0bp+1
6411=0x1.63958c64f4971p-3
6413=0x1.860b951276a93p-1
6417=-0x1.fa672c50755b2p-2
6419=-0x1.2f44b32379eb4p+0
6425=-0x1.0c91f67b85151p-12
6427=0x1.d670edb59286p-1
6429=0x1.f1932be30754bp-5
6434=0x1.71be98a1968eap+0
6437=-0x1.cfa92203640b6p-10
6442=0x1.f763bc21a444ap-4
6443=0x1.0df6b7b0b26fbp+0
6451=0x1.db4696329349cp-1
6456=0x1.71e9792d63937p+0
6467=0x1.7b452e6705e42p+0
6478=0x1.7b456deebe3b7p+0
6480=-0x1.4649363c5e18ep+0
6495=0x1.e2416625134dfp+2
6561=0x1.1a479a3c3bf5cp-1
6563=0x1.226b2c58c776dp+3
6565=0x1.2823d30d60c19p+3
6589=0x1.76dc10c9df65ap+2
6590=0x1.8e6d253dc4bbp+2
6650=0x1.dfa9dc9b33cbap-2
6670=0x1.9cf9356df511ep+0
6723=-0x1.280098252fd01p+1
6725=0x1.8b34108856c4fp+2
6727=0x1.24e00c0fa7e0ep+2
6752=0x1.d77c56fefced1p+1
6804=0x1.8e1e6db85fab4p+1
6805=-0x1.172e56c1724ecp-4
6806=0x1.28ec444577055p+0
6807=0x1.664c32a0181d2p+1
6808=0x1.2ad6328a145cbp+0
6811=0x1.1b63818e37489p-3
6812=0x1.7cbc9d815a461p+0
6814=0x1.56d867d929006p-4
6821=0x1.a20b076392d93p-2
6829=0x1.62e58160a21c2p-2
6830=0x1.58ef32db1dd2ep+0
6832=0x1.6176d6f364137p+0
6833=0x1.2ca0976b7321ap-2
6834=-0x1.f9483bc96d318p-5
6838=0x1.160bb6f4803abp+1
6839=0x1.1f5dac90b7067p+1
6842=-0x1.43ae167756185p-9
6847=0x1.09f60bd1d36d2p+0
6851=-0x1.0d5dd06f6634bp-3
6863=-0x1.9c142383a993ep-10
6865=0x1.56634a40d598bp+1
6885=0x1.097e7d9a5c079p+2
6886=-0x1.4175397c1eb4cp-1
6888=0x1.23a960826a3c6p+0
6902=0x1.4f64983184ae8p-1
6928=0x1.77a16d6a8b3d2p+0
6966=0x1.baeff242a258ap-4
7144=0x1.575a8c36fd0afp+3
7209=0x1.18e3ed2cb9db3p+1
7210=-0x1.8dbe94a13319bp-2
7211=0x1.aa0e849c1746p-1
7212=0x1.7fa16a5fd97a6p+0
7213=0x1.dc6009040317cp-1
7216=0x1.2f0906c1a8a67p-1
7226=0x1.c8950d6570f0cp-2
7244=0x1.246bd016d2fcp-2
7250=0x1.976d18d46f9ep-2
7255=0x1.38ee3c5866687p-3
7275=0x1.18dc0ecd2e87cp-2
7290=0x1.bd3d82ad5ae6dp+2
7292=0x1.b7fe2c72cee78p+3
7294=0x1.a0006b6f96bcep+3
7318=0x1.6970c3463d8a2p+3
7319=0x1.7a46d939abcbap+3
7371=0x1.21d1f9824493ap+2
7373=0x1.2f7820abeffe8p+0
7374=0x1.354515c9161d3p+1
7375=0x1.3d379d6560451p+0
7377=0x1.7e9fac7f44066p-3
7378=0x1.40181605ed907p-2
7379=0x1.14da8d0727c07p-1
7388=0x1.b13ccf730ac3p-3
7389=-0x1.b48f6fb26aebcp-2
7395=0x1.2b6010a2f92dcp-2
7399=0x1.f97a4ec038bcap-1
7400=0x1.b3fbfb886b4c7p-2
7405=0x1.f721e43bd1a8cp-1
7406=0x1.620e3ea55f373p+0
7407=0x1.2c57eaafc3117p+0
7408=0x1.521549376482cp+0
7409=-0x1.ea172eb069e42p-6
7414=0x1.9b3f17f946fd5p-1
7415=0x1.37222dd76c7f4p+0
7418=0x1.68bfa9a475899p-11
7430=-0x1.0d2d93de9038p-7
7432=0x1.247602bad7e7p-2
7436=0x1.0d85b832386aap-1
7454=0x1.6ee572d2b1aeep+3
7456=0x1.8140936ba3d32p+3
7480=0x1.1db374031b1a6p+3
7481=0x1.3687406161f1fp+1
7533=0x1.22afb773ef586p+3
7614=0x1.08da2b6d4e177p+3
7695=0x1.1c23b2bbb0696p+2
7697=0x1.240186fb469b6p+0
7699=0x1.acbc69d0c5823p-1
7701=-0x1.c6c45ce09b6b1p-9
7702=0x1.068db9a5d2a4ep-3
7705=0x1.4713984ee8b9bp-1
7707=0x1.f02297cc4e936p-3
7711=0x1.3306e5de2831bp-1
7723=0x1.1c9348c2d829dp+0
7729=0x1.69b071abe1b6p-2
7730=0x1.9d9550e8d26aep-6
7736=0x1.f59bd148e14dfp-1
7745=0x1.dbc780094ad48p-3
7747=-0x1.6d226ce8cbb74p-1
7751=0x1.8075e64bb743bp+0
7776=0x1.128829b4cbee8p+2
7827=0x1.8c2f636a6ddbep+0
7857=0x1.ba01348dfe783p+1
7859=0x1.a1e6d5f61a804p-1
7861=0x1.1f653da706e76p-1
7865=0x1.79df4ec303ab8p-4
7871=-0x1.64d6cb91d4864p-7
7874=0x1.2342d89983bf8p-3
7885=-0x1.32aa1670d766ep-4
7886=0x1.e50b988b580e9p-2
7892=0x1.a1883de6bb69dp+0
7896=0x1.b84b0883acd13p-3
7904=-0x1.f124dca714482p-4
7905=0x1.c10c5036e3a2p-5
7907=0x1.c1d037860ef09p-1
7908=0x1.c1f8d3ae5072fp-1
7916=0x1.bd8d1de6b8a9dp-1
7938=0x1.8ded54358df0fp+1
7940=0x1.6056824e9b78cp-2
7949=-0x1.78e7528fe0207p+0
7963=0x1.b449d30cf4ad6p+0
7984=-0x1.c04c36b07ad91p-6
8019=0x1.437389b47dca1p+3
8100=0x1.f2368200d280fp+1
8101=0x1.4ade646ab2289p-1
8102=0x1.a98e233e0e3aap-1
8103=0x1.1b6e8fcdfcaf8p+1
8104=0x1.da04d95ce8823p-1
8107=-0x1.62535d70550cbp+0
8108=0x1.1fba5896c9c68p-1
8110=0x1.60a105e7202fcp+0
8111=-0x1.64246ab66e11fp-1
8112=0x1.9a3c1b1a2830ap-2
8113=0x1.c44eb7fd1501p-4
8114=0x1.3deeb3a6bf2eep-4
8116=0x1.4e69b877e4dd3p+0
8124=-0x1.e4bb6b2e9c164p+0
8125=0x1.903989a15bf87p-7
8128=0x1.51686cc2830b3p-1
8129=0x1.750546f4f9deap-1
8132=0x1.662f66c3a8f43p-1
8134=0x1.3f2cbcf080469p-2
8135=-0x1.91a97bbd042dfp-6
8136=0x1.a375e89823a36p-1
8141=0x1.12d0c25774c4p+0
8145=0x1.a1a272c0bf801p-3
8146=-0x1.5ed95c3f25fb6p-3
8151=0x1.17788e7bb6d07p+1
8152=-0x1.74c8d6144f204p-1
8167=0x1.732b7c8310448p-2
8173=0x1.77d14d7fd797cp-2
8181=0x1.09de5d6c44388p+3
8262=0x1.d91ba7feabd5bp+2
8343=0x1.c237d0a98a3c8p+1
8424=-0x1.13a3f4e5e2e38p-1
8432=0x1.1ebd9463ffd21p+3
8507=-0x1.06d3650d7f7eap-4
8509=0x1.22aa030f70ccp-3
8586=-0x1.7a54eb4e24d2p-4
8594=0x1.18873063d1ee7p+3
8667=0x1.85930b2e62448p+1
8669=0x1.a10ab0dc2773ap-1
8670=0x1.0631b7aac97c6p-4
8671=0x1.185b4b90331f1p+0
8692=0x1.5fa28dfd14cfep+0
8748=0x1.0abdcf0b49774p+2
8750=0x1.5baa50a9c4bacp-4
8751=-0x1.faa550084c23p-9
8752=0x1.534f14441262dp-2
8758=0x1.5c255bc3b95ecp-3
8774=0x1.ac25113d89457p-1
8777=-0x1.e0041d4919a1p-6
8789=0x1.680a52cbb959ap+0
8829=0x1.b8157a7d57e77p+2
8910=0x1.05c90c04bd979p+3
8999=0x1.2e6736a6d2d3cp+3
9072=0x1.6f9cd1017b693p+1
9073=0x1.e08a06e30d03ap-2
9076=0x1.6508ef1046b24p-3
9079=0x1.eed3793f28864p-5
9086=0x1.7d7cd130326c9p-2
9089=-0x1.66f42a50574a5p-10
9101=0x1.1fe9070e4e7ep-9
9109=0x1.54a8e501230c4p+0
9153=-0x1.e443ace26ef2cp-1
9154=0x1.152f22cd5638p+3
9170=0x1.848e6dccf5c7bp+2
9215=0x1.eb3e524c66b61p+1
9234=-0x1.69cdea9b1c3bdp+0
9235=0x1.11897be237704p+3
9251=0x1.6188a6eaa1bc3p+2
9296=0x1.92441409a64ccp+0
9315=0x1.80e8b66635233p+1
9316=0x1.99bc1ade51ec8p-3
9317=0x1.e4b13a4736204p-2
9319=0x1.dc5d50002bcc6p-2
9321=0x1.33f1a58927dap-2
9340=0x1.655a9f30f0625p+0
9341=-0x1.bf429e9976732p-3
9384=0x1.67b96b088b4a6p+0
9396=-0x1.028b8e4f35a73p+1
9397=0x1.f2bd4562c2754p+2
9413=0x1.701b8bc61b002p+2
9458=0x1.6ecd7fa6ff0d9p+0
9477=0x1.2eb9fb397de9p+1
9478=0x1.142960c68b376p-3
9479=0x1.7b14f471d0d9ap-2
9481=0x1.664d24979cf99p-4
9487=0x1.bb796b2ea49cep-8
9491=-0x1.3e30ea5db5ab4p-3
9495=-0x1.433edef331b17p-2
9505=0x1.61f8c06201fbcp-3
9506=-0x1.11ec82eb08e1ep-5
9507=0x1.efee22a7ecf74p-2
9536=0x1.28b585119950dp-1
9537=0x1.6e3b703bf142dp+0
9558=-0x1.3d396f1ed4e17p+0
9576=0x1.f537112ac7c5p+2
9588=0x1.ce55f07ac2cap+2
9623=0x1.54d7c24c9581ap+2
9628=0x1.1877b9303987cp+2
9639=0x1.098bd7609b025p+2
9640=0x1.2dc4b58999f8p-1
9641=0x1.2395f378504b3p-1
9643=-0x1.d0d7ae73e2902p-6
9657=0x1.cde48d6ad3c58p-1
9667=0x1.7b7de1dda50c9p-2
9669=-0x1.0dc736d310525p-2
9673=0x1.a1e5d35b763ecp-1
9674=0x1.49d4548523a6p-1
9680=0x1.76d27524b15d6p-1
9720=0x1.c97352b3ca08dp+2
9724=0x1.fe1c03d14c4bap+0
9801=0x1.28070155d6817p+2
9803=0x1.25bca48bfac5ap-5
9805=0x1.dd4f836685c09p-4
9811=0x1.1875ed7cfc1eep-1
9830=0x1.62a0101db1ca4p-5
9882=0x1.408b61072d5bcp+2
9963=0x1.41e174c7086cp+2
9965=0x1.9cace8ae7048p-2
9966=0x1.527b292a64794p-1
9967=0x1.c6e745db1ac91p-2
9969=0x1.f265825cac8a7p-7
9973=-0x1.2131309bd90f1p-2
9977=-0x1.6605958f97707p-4
9983=-0x1.c807edf05b7a5p-3
9991=0x1.53577d7f6036p-11
9992=0x1.9f0b273575b17p-2
9994=0x1.156fefdb65404p+0
9997=0x1.756366287ec22p+0
9998=0x1.cd8a7908141ffp-1
10001=0x1.215d11c9b4787p+0
10004=0x1.18f309cdd22d2p+0
10006=-0x1.2851348a7b19fp-6
10044=-0x1.4f4a790fba16ap+0
10046=0x1.9757e68641e36p+2
10048=0x1.c26b7adf6009cp+2
10072=0x1.f04c1a2952a87p+1
10206=0x1.1f99761f310cep+2
10208=0x1.5097d796881f1p-1
10209=0x1.6d2c29d859018p+0
10210=0x1.f70a13888409ep-1
10214=0x1.73b97a385418p-5
10217=-0x1.ed2b15337c213p-1
10220=0x1.3dc354e712ec2p-3
10223=0x1.721708f083d77p-4
10224=-0x1.caeb1edcf8d08p-2
10236=0x1.18f4a521826a2p-3
10241=0x1.13b5ce5725abcp+1
10242=0x1.3c8a2b5a97cc8p+0
10247=0x1.6a7aff51df27cp-2
10287=-0x1.5cefc44bd7e73p-1
10289=0x1.86d7adad2ef36p+2
10291=0x1.a15a5fe5345a4p+2
10368=0x1.172750b8d06c6p+2
10370=0x1.60e96f7a8c302p-1
10372=0x1.b64aa636af16ep-2
10374=0x1.265efd93716adp-1
10378=0x1.5bcfd1acc3308p+1
10394=-0x1.04895c8f0abfcp-1
10449=0x1.1dc7155823b9bp+3
10530=0x1.f415094d78c41p+2
10611=0x1.f07239274d96dp+1
10612=0x1.0d762ef8a4c47p-2
10613=0x1.6349a535c5ebbp+0
10614=0x1.0203afa35f34cp+0
10615=0x1.8345324be8947p+0
10616=0x1.6d1312d9e76bcp-1
10617=-0x1.9a851f6dcf6f9p-4
10618=-0x1.115c56b5eefb3p-1
10619=0x1.66f8a6f5f4d19p+0
10621=0x1.1529bf60b76b1p+1
10623=0x1.78679e5c45803p-1
10628=-0x1.cdae93709618ap-4
10629=-0x1.2238be8887fedp-1
10636=0x1.dc0da80842906p-1
10637=-0x1.89d94ac3487c5p-3
10639=0x1.e9a95cd79b997p-1
10641=0x1.69a2fbeef0246p-7
10646=0x1.27aed2e89040cp-1
10649=-0x1.ee39958d5a276p-12
10650=0x1.0e754299ac94bp-1
10652=0x1.e18f042a7d12fp+0
10654=0x1.b8a7b76197a64p-1
10662=0x1.dab1c69df69c9p-1
10664=0x1.d53c43a74da6cp-1
10692=0x1.c3f4a2c5a251fp+1
10694=0x1.3f0e8421682cbp-2
10696=0x1.0ed428358b981p+0
10699=0x1.ed8a6e8d36f04p-2
10701=0x1.3f48041de6094p+0
10702=0x1.b9eba9f5234c4p-1
10703=-0x1.b6e41c863d84ep+0
10706=0x1.3b78afb2c897p-1
10718=0x1.06b09006052bbp-2
10721=0x1.83b91cad2e1e4p-5
10741=0x1.2f46d109892b1p+0
10773=0x1.df83bffc1c1e3p+2
10854=-0x1.57c41510097c4p+0
10856=0x1.5451faac2f888p+2
10858=0x1.b1ba522ec7e14p+1
10935=0x1.62641e5866601p-2
10936=-0x1.569b0895bd9adp+0
10937=0x1.134d14cf9c535p-1
10938=0x1.e9d7f74c24ebdp-1
10939=0x1.90cdbb29e2b42p-2
10943=0x1.1f990ddf0d2d8p-8
10952=0x1.349edcf6832f6p+0
10963=0x1.4a79268f0e0bcp+0
11016=0x1.88e0f99a45848p+1
11020=0x1.1237b43891003p-4
11034=-0x1.3ca5e5d3a332ep-3
11046=0x1.679ae8abfac7dp-1
11097=0x1.0858083a14525p+3
11178=0x1.60073b1eb92e8p+1
11180=0x1.0a7b1acd2afccp+0
11181=0x1.9748681557de7p-1
11182=0x1.5e8988e3eb713p-1
11189=-0x1.35b96af64329ap-5
11204=0x1.18aace664615p+0
11206=-0x1.178cfe7b7466ap-6
11213=-0x1.480936223a208p-4
11216=0x1.96b2bf2005427p-1
11219=0x1.4bcc150715c88p+0
11229=0x1.4761befa9ca57p+0
11245=0x1.4a1c63ca1e4efp+0
11259=0x1.fe40375abda07p+2
11340=0x1.75d4c8b2005f6p+1
11342=0x1.f1970be5c5195p-3
11344=0x1.efe4259bd4b68p-2
11346=0x1.223dd15a3158bp-5
11347=-0x1.4f75dc1b95e82p+0
11350=0x1.78b24b1695d49p+0
11352=0x1.08a07789d9358p+0
11366=-0x1.1ce53c767905ap+1
11368=-0x1.17e77c04a4acep-4
11374=0x1.93462c8f1cdd5p-1
11387=0x1.b1b6277dfdef1p-3
11388=0x1.72110e16c4a41p-2
11391=0x1.4b7af8a9725afp-2
11394=0x1.24a4366a370fep+0
11395=0x1.347b92505ed99p+0
11396=-0x1.d4e80262665b4p-9
11423=0x1.512a706054e6fp+3
11425=0x1.53c2d9b2a7fc1p+3
11449=0x1.f47eb037c69c6p+2
11450=0x1.0a22a7bf78acfp+3
11502=0x1.515a624ecd24p+3
11583=0x1.d486b9524116dp+1
11585=0x1.4221b6eb98c6fp+0
11586=0x1.c5c65c7e8cd08p-1
11587=0x1.1ad9d4ae7061cp+0
11588=0x1.5354c260a6583p+0
11589=-0x1.cd4c624ae704dp-3
11591=0x1.7058642df6a03p+0
11593=-0x1.6a0fd48524e87p-1
11601=-0x1.e5366cf4580c9p+0
11607=0x1.32f29abd0912dp-3
11609=0x1.7c6a6ea45c4d7p-3
11611=0x1.36cea885a8cc7p+0
11614=0x1.86aef1149a428p-3
11615=0x1.6283af1789693p-3
11617=0x1.170058e4dae9fp-1
11618=0x1.c7b662045a384p+0
11622=-0x1.e6dd36b5e5eabp-4
11626=0x1.7f900853e8a0dp+0
11632=0x1.3c021aec4353ap+1
11639=0x1.bc3af479cbc0bp+0
11643=0x1.5e964affcc218p-2
11644=0x1.553e48b1e91ddp-6
11648=0x1.c76b3a3c5c2f1p-3
11650=0x1.9291bae6d7044p-2
11664=0x1.08f6dafb596f3p+2
11665=0x1.c07123f241fd4p-2
11666=0x1.34a47cbc3fce4p+0
11667=0x1.cac3014fb5de5p+0
11668=0x1.8c699693bb7a4p+0
11669=0x1.523045ddd04d6p-2
11670=0x1.c3d81000ac9a7p-4
11671=0x1.41256483c8968p-1
11673=0x1.d67b3eddbb9bep-2
11674=0x1.e8443009f446ep+0
11675=0x1.bc1d6ad69bc29p-4
11682=0x1.1419b210c26e7p-9
11684=0x1.549561e353cbfp+0
11690=-0x1.06ecdc3f8e91ep-3
11692=0x1.815ae5e639b6p+0
11693=0x1.63739c760882bp+0
11696=0x1.58046cada6626p+0
11698=0x1.740fb1804f93dp-2
11699=0x1.48754d5f61afdp+0
11700=0x1.c062386b19ebdp+0
11702=0x1.5103c7dfed3b4p+0
11703=0x1.64f780589e7cep+1
11707=0x1.773dfc1dab80cp+0
11708=0x1.8986f95a2c089p-1
11709=-0x1.d7d575e1973f8p+0
11711=0x1.230c21ce5fe4cp-8
11714=0x1.9b52c60a0475fp+0
11715=0x1.34e137585ad9ep-2
11720=0x1.295b250c52e56p-3
11723=-0x1.5cbd8145c007fp-6
11732=0x1.33125384efb0fp-1
11745=-0x1.5a7aff77ab6bcp+0
11764=0x1.e16f1b88781fap+2
11829=0x1.b3227082b1562p+0
11830=0x1.e2d415829092bp-2
11907=0x1.34fb961b7e6b7p+2
11909=0x1.6369a2293f5ebp-3
11911=0x1.20812956facc2p-3
11917=0x1.e1c2423c0029p-3
11925=-0x1.794bd3b5dcf0bp-2
11935=0x1.210615d18b5c5p+1
11936=-0x1.1619cb8907a1cp-7
11940=-0x1.33f2bd95bb709p+0
11941=0x1.dc7a59ddfca5p-1
11955=0x1.8fc88560bb314p-2
11977=0x1.5b23c55fcc572p+0
11988=0x1.a8427d5eb5a19p-4
12150=0x1.54e214a4384e7p+2
12235=0x1.e4491206349f9p-3
12317=0x1.3a5cf81e5c133p+0
12332=0x1.e2c830b6abb3fp+2
12370=0x1.6a27b8c1eac2bp+2
12378=0x1.a1042eb67877dp+1
12393=0x1.7719938e5c9a1p+1
12395=0x1.a1913853c0791p-4
12396=0x1.bcde37653d0f4p-2
12397=0x1.d0992e00995bp-5
12403=0x1.3abb8436c2b3dp+0
12421=0x1.79171062d8d6cp+0
12422=-0x1.8bc3bf9694266p-9
12428=0x1.014a0e5649621p-1
12474=-0x1.292b408fc03c4p+0
12476=0x1.702dd33c5df9bp+2
12478=0x1.98caf64442b6fp+2
12502=0x1.b02bf1aeeb508p+1
12560=0x1.e71be4c21cc8ep+2
12636=0x1.4fc7dc2080a05p+1
12638=0x1.f02d14d7429b7p-1
12640=0x1.50bb29085032bp-1
12644=0x1.24005fb6441e4p+0
12646=0x1.0d9a0ef9f0d8cp+0
12671=0x1.68b95b8a7ce0ap-1
12687=0x1.37a9247c8865p+0
12717=0x1.e7ca82f08d7bep-1
12720=0x1.646539e6dbc68p+0
12721=-0x1.7bc3e0fdce892p-3
12723=0x1.168ee1e562a59p+0
12737=-0x1.0e5ffbcf0e35dp-1
12743=-0x1.07d51911462ep+0
12746=0x1.68d523847d2b8p-3
12775=0x1.51eda1a889e86p+0
12819=0x1.4d261302ecdap+3
12879=0x1.34f1490c15c1ep+1
12882=0x1.2975f0970d67bp-2
12883=0x1.4485ee0c087e3p-2
12889=-0x1.4573d12973e6bp-5
12905=0x1.2ff0fa662527dp-1
12908=0x1.464dc925cccf8p-2
12918=0x1.ec9f37c8ecf4p-2
12939=0x1.9bee01c4a2f9dp-1
12960=-0x1.b0ff2bd3f64c2p+0
12962=0x1.581ca75792c5fp+2
12964=0x1.8494926efc972p+2
12988=0x1.8473d82b9c26fp+1
12989=0x1.c5770e8aa5be6p+1
13041=0x1.fd71d8258140dp+1
13052=-0x1.045c93896d8c3p+0
13055=0x1.c866416936bdbp-2
13067=0x1.637dcae73daa9p-2
13069=0x1.036d6bc330a01p-1
13122=-0x1.a10e413005011p+0
13144=0x1.e8e50a3683973p+2
13203=0x1.4a1ebcaf13b74p+2
13284=0x1.b98a42743065bp-1
13288=0x1.48f683ec63ce8p-4
13367=0x1.1eff18ecd163cp+3
13369=0x1.285e24481e934p+3
13393=0x1.75fbce408011fp+2
13450=0x1.efa4b99d54fa2p-3
13500=0x1.04f2c43601b4fp-1
13527=0x1.c31e70074d0a1p+1
13528=0x1.53a8d5166a9fbp-2
13529=0x1.562bb7ace7e67p+0
13530=0x1.259703b543802p+1
13531=0x1.220baf5ae5b2ep+0
13535=0x1.14fc1e81d2dd6p+0
13537=0x1.7d935c69eaa8ap+0
13539=0x1.bcbe26621ce74p-3
13544=-0x1.f643f0982baecp-5
13545=-0x1.0f7611a545ecap-1
13556=0x1.a4dcd157e13f1p-1
13557=0x1.baa964df9378p-5
13560=-0x1.66879f169c33ep+0
13561=0x1.5c2586aca352ap-2
13562=0x1.e805205f31274p-1
13563=0x1.5a4ad8438c7c8p+0
13570=0x1.bc21007f34925p-1
13576=0x1.65e91a67107b3p+0
13578=0x1.780745d92cdbbp+0
13608=0x1.85ce8eb45328ap+2
13689=0x1.d3b44c4638bc5p+1
13692=-0x1.9c04de8e9ce84p-14
13693=0x1.d79d177356616p-3
13696=0x1.8b15b8e2ba0f7p-4
13699=0x1.89f82ae84ff2p-3
13770=0x1.f8f456e41789bp+2
13851=0x1.04da7b53ae87p-1
13855=0x1.7be60c05334f4p-2
13871=-0x1.19a78ba5dc56ap-1
13902=0x1.ecdd737e0bb54p-4
13909=0x1.3880a6839348cp+0
13932=-0x1.ac64c6035f45p+0
13955=0x1.e4a0e9855f1eep+2
14094=0x1.ed6faa5cf7ebp+2
14175=0x1.e8829cb8fba6ep+1
14176=-0x1.bbf20c53cc3acp-5
14177=0x1.04d9e19acea5fp-1
14178=-0x1.47005ad9b5b62p-4
14179=-0x1.f096da36ed2bp-4
14182=0x1.18eb386f8e407p-4
14183=0x1.18f078ece5895p-1
14185=0x1.66729fe3deed5p+1
14186=-0x1.f0b086036f08fp-3
14189=0x1.96d418fdd097fp-2
14203=0x1.993ea78a8577p+0
14204=0x1.48a81a93dcd3ap+0
14209=0x1.2c3c431feabb8p+0
14243=0x1.15b1f8bbfba1ep-2
14255=0x1.2e8ed4f2e3d0ep+0
14256=0x1.e7c4a9a21bdbcp+2
14337=0x1.e3404fd36f28cp+1
14338=0x1.8be5dde1b4e52p-2
14339=-0x1.049d8b7fa05a4p-4
14340=0x1.14dc533139e04p+0
14341=0x1.7cf2bb4a79f45p-4
14347=0x1.34643043d33e6p-3
14351=-0x1.7019d0a4d797bp+0
14353=0x1.43877f13fdacep-2
14354=-0x1.28b5ffeab19e6p-3
14365=0x1.dc53b850fc46ap-1
14366=0x1.df2b5ecbad03p-1
14411=0x1.37fb261e1ac38p+0
14418=0x1.0aa22f9092436p+3
14499=0x1.39cadc4b34d68p+2
14500=0x1.618dee9b6a148p-4
14501=0x1.349c43f672734p+0
14502=0x1.eef554ab848c7p-1
14503=0x1.cbf30fd1adadfp-1
14504=-0x1.3ebde9b45f127p-5
14506=0x1.b5d9008094692p-2
14524=-0x1.6ea9c41151b8fp-6
14528=0x1.104ac0869d94bp-4
14534=0x1.1d31fc4cfbe3cp-3
14542=0x1.8e5baebe9d0a3p-1
14543=0x1.89ecd75bf7a2p-5
14550=0x1.389acde2e2986p+0
14567=-0x1.a390d7995f2c1p-1
14580=0x1.de88448dfad1ep+1
14661=0x1.0620a973085fbp+3
14744=0x1.4bd80f466cc5p+0
14823=0x1.d92297a7788a6p+1
14825=0x1.78cfb32c3a338p-3
14855=-0x1.7ed3ea7374705p-4
14860=0x1.7dad5d2cbd7dbp+0
14862=0x1.c604325eb4f47p-3
14867=0x1.7dad69b93f2dp+0
14904=0x1.28c767aa6cde4p+1
14924=0x1.3c7f0a412a4c8p+2
14985=0x1.d52b289b92994p+0
14989=0x1.6a666b5d95d27p-5
15066=0x1.1daa3e4f0e1ebp+3
15147=0x1.9227762b16127p+1
15148=0x1.8c7b851a07ba9p-2
15149=0x1.bd757999dde0dp+0
15150=0x1.7be4db787a064p-2
15151=0x1.bccaa8867bd5ap+0
15152=0x1.e934528d52f89p-3
15153=-0x1.373f8562db064p-2
15154=0x1.535a078123586p-1
15155=0x1.cceafc6c030e6p-3
15157=0x1.095d300feac9bp+1
15158=0x1.dba5ada4c48dap-4
15159=0x1.ae1b8826cdc85p-2
15160=0x1.de83aa02bf7bap-1
15161=-0x1.9bfdddc4f75a3p-3
15163=0x1.31dd2acd8f21ap+0
15164=0x1.3f7af02d79cf1p+0
15172=0x1.a947f4749f9e8p+0
15173=0x1.b219bba034708p-4
15175=0x1.b9159c6c9b225p-1
15176=-0x1.632520614184dp-1
15177=-0x1.6104dd8988034p-3
15181=0x1.13d74dc3be1f4p+0
15182=0x1.34fc6122ade53p+0
15183=0x1.324f9e358911fp-3
15188=0x1.0f626f72cf7a3p+0
15190=0x1.19ca78b124daap+0
15191=0x1.171f473d091a8p+1
15193=0x1.6ef0c5acb0825p-4
15194=-0x1.ae71476ac9263p-3
15196=0x1.12c316f913c94p+0
15198=0x1.123ce66639c9ep+0
15201=0x1.a9ef28799986p+0
15206=0x1.413af2a1601cap-1
15228=-0x1.a9a20b2c21bcap-1
15230=0x1.926fc9a64f6dap+2
15232=0x1.6eaecf5e1ae27p+2
15309=-0x1.569d9e35a26dfp-1
15333=0x1.fd3cf11995ef8p+2
15392=-0x1.fe8a540e1df51p-4
15394=0x1.3af060947694ep+0
15471=0x1.00f64f2e5d798p+3
15552=0x1.26bd7604dadcbp+1
15554=0x1.2cb897eb1cffep+0
15555=0x1.8b5b57d7ecf74p-5
15556=0x1.10494a73cc54p+0
15557=0x1.7e8d366a767d7p-1
15562=0x1.49ac9b5925992p-1
15563=-0x1.43e9217494145p-1
15566=0x1.024872b1cd11dp-2
15569=0x1.9e7f319ebd7cfp-12
15580=0x1.891da02759a4bp-2
15596=0x1.124dab196e5ap-2
15597=-0x1.67de643a7d113p-1
15598=0x1.db1414aff748bp-4
15599=0x1.69f19089a0c9cp-1
15603=0x1.5256177b8d1bbp+1
15633=0x1.c35eb51d9036cp+2
15714=0x1.1c4b667bc597ap+2
15716=0x1.a0d89d380e6bdp-2
15721=-0x1.1c281a9e3153ep+0
15726=0x1.49ddb35f2e1a7p+0
15749=0x1.10393489b542ap-2
15795=-0x1.16df193a24ad7p-4
15820=0x1.60ff6d08fe2cbp+2
15957=0x1.3b481d0774c19p+1
15959=0x1.80c4ea0f4ca47p+0
15961=-0x1.fee4b6a8bc689p-4
16038=-0x1.50f5ecc30972ap-4
16044=0x1.b014941e953c2p+2
16064=0x1.1f08509555a12p+3
16119=0x1.92b56dfb64e7cp+1
16123=0x1.3aac6c54665cep-4
16129=0x1.c5e2e837ab8ccp-3
16130=0x1.1320895fe9ab8p-3
16133=-0x1.02d9be3eff533p-3
16143=-0x1.6596ce0b2051ap+0
16148=0x1.472a9993bfd34p-1
16157=0x1.aca66ed1b6f69p-4
16160=0x1.80b2d2c8a62d7p-2
16170=0x1.5469085cc40f8p+1
16195=0x1.511abdfc916dbp+0
16200=0x1.1c9b8f02589c5p+3
16281=0x1.11ee5b4ea1b24p+2
16282=0x1.2428c016ebf2dp-1
16283=0x1.de6746fb08ebbp-1
16284=0x1.9c48f421453edp+0
16285=0x1.4afa08d6506b2p+0
16287=0x1.8cc6f4d81a8f1p-3
16291=0x1.afc58fd3adc47p+0
16298=-0x1.63979f8206d1ep-5
16299=-0x1.a25d4de1d768dp-2
16307=-0x1.ab275d8c2f2aap-3
16309=0x1.98ba31ec2e58cp-4
16310=0x1.b812969127fb7p+0
16311=0x1.5ee8bedf96477p-3
16313=0x1.31d9105b7f3a3p-5
16318=0x1.11c0a8732b74fp-1
16332=0x1.f3bf6e6c62aacp-1
16369=0x1.1d2f8138c372cp+3
16445=0x1.bf10edae446cap-1
16463=-0x1.4e64b2999e8b4p-1
16478=0x1.7301fd37957d2p+0
16509=0x1.935f230873922p+1
16524=0x1.0fd1a63f71526p+3
16605=0x1.1881459cee0b3p+2
16607=0x1.16abed03d70d5p+0
16609=0x1.82f4d570f3c16p-1
16613=0x1.5b545c246e1fp-3
16630=0x1.df70b8b5bfc52p-5
16631=-0x1.cad2e8dc36feep-9
16649=0x1.af0671867172p-1
16651=0x1.2d8f4a11792ap-4
16657=-0x1.a60c2a1412e5ep-2
16658=0x1.418e26df32509p+0
16686=0x1.704e402e0c467p+2
16688=0x1.3345bbc342f53p+0
16767=0x1.7503365a2ea65p+1
16768=0x1.93fdfa0afbcc2p-8
16769=0x1.11f4929c6e4f4p-5
16770=0x1.6aefabe61e6e2p-1
16771=0x1.bc1f9f6f5102p-2
16772=0x1.ee1d6871e13dfp-1
16773=0x1.492951c27b697p+0
16774=0x1.929e7b3722ba3p-5
16793=-0x1.68764a9854ad1p-3
16795=0x1.61126d1dc78fp-3
16814=0x1.a1d0f5d39970fp-3
16816=0x1.3836dad33bb5dp+0
16848=0x1.02448dc3b32c4p+2
16859=0x1.4cc6007e798a5p+0
16862=0x1.af6417dbd930ap+2
16929=0x1.bbd8ff0642957p+0
16932=-0x1.a412155f6cc4ep-4
16939=0x1.376765fd589ebp-3
16958=0x1.b6d17cb3f1fb3p-4
16985=0x1.57242fc5287dfp-3
16992=0x1.0471cf35f7846p+0
17010=0x1.a4dcee2ccc93bp+2
17091=0x1.760465e82a18bp+1
17093=-0x1.3a2e5e61c2fa2p-2
17095=0x1.3413b3878b83fp+0
17120=0x1.6ff33e9559abbp+0
17172=0x1.05f691c91dc8ap+3
17253=0x1.5a681a0ca3608p+1
17334=-0x1.4163550d3038bp-1
17361=0x1.98c74456b6606p+0
17369=0x1.f2cee812bca7bp+1
17397=0x1.39255775754c3p+2
17442=0x1.bed7617448177p+0
17496=-0x1.bb0a313e7329p-2
17497=0x1.fda25dbe2e0b5p+2
17513=0x1.750084e15f419p+2
17576=0x1.746613e122e49p+0
17579=0x1.efc211c0614f6p-12
17587=0x1.ec0724d2a0ee3p-3
17658=-0x1.83369e4816437p-3
17666=0x1.450f0b4cb45dfp+2
17739=0x1.0fc51b47b46bcp+1
17741=-0x1.e2e7d5f3bf2bp-3
17743=0x1.4be8fe1c93593p+0
17747=0x1.c66bade94d289p-1
17806=0x1.01b251b50e31ap-1
17822=0x1.5433030693e52p-3
17923=0x1.2a8f6a8a06f03p+3
17982=0x1.f5b38ded9113ap+1
17984=-0x1.126d99eb978a1p-2
18011=0x1.f3fcd629595ffp-2
18063=0x1.04a2570561b04p+2
18064=-0x1.7653f9bc6e4b8p-6
18065=0x1.927ac22d6e7f5p+0
18066=0x1.39c943af3469ap+1
18067=0x1.ba515a694e48fp+0
18068=0x1.4efd0578653c1p-1
18070=-0x1.67c5372529607p-3
18073=0x1.59c497fffbe02p+0
18077=0x1.0056c879187cfp+0
18080=-0x1.6ff693bf66d74p-1
18081=0x1.f58bdd06cbec6p-5
18083=-0x1.28e1b7dc7484bp+0
18089=0x1.47447ca64ce83p-2
18092=0x1.15c0afc573c7fp+1
18093=-0x1.6d175cd74f75p-2
18097=0x1.765088c1c3bdp-1
18098=0x1.e143ac53aa7a1p-1
18107=0x1.00a257a0f1fe7p-1
18109=-0x1.6dc1a44dbecc6p-3
18121=0x1.a02146772075bp-2
18122=0x1.860dfdf59db08p-1
18124=0x1.60a03068b5ce8p+0
18125=0x1.55c2ca85c86c1p+1
18126=0x1.0e8f30fc02394p+1
18127=0x1.0ee0c8de6db2dp+1
18129=0x1.3931398be3717p-1
18144=0x1.f6787f68ff3a4p+2
18225=0x1.a26d0c9a88f82p+1
18228=0x1.caf7cf7384d98p-2
18229=-0x1.f9289e3fcb382p-8
18235=0x1.1ce152c4be94p+0
18239=-0x1.ce09c9e1f9ap-6
18253=0x1.e11cffa03f75bp-4
18254=0x1.cbd47ea71bbe1p-4
18263=0x1.8fef92e34faf3p-4
18268=0x1.5c1fdc1661b31p-2
18275=0x1.269a89f1df2eep-2
18281=-0x1.4eb3bc4dd34d8p-2
18306=-0x1.6e232ad47e67p-6
18308=0x1.60daa64718d2p+2
18310=0x1.ad6db94b4e24cp+2
18334=0x1.77b6e5b0235cfp+1
18387=0x1.1524d3c9f6a6ap+1
18390=0x1.b1a04dbb7a9c1p-3
18391=0x1.91ea966e164e2p-1
18394=0x1.5a32d957ec5a7p-4
18405=0x1.f78c3ebf10ad2p-2
18417=-0x1.93e920a7f3e6ep-5
18468=-0x1.8b27eacc5eba4p-2
18470=0x1.9bc990ae593bbp+2
18472=0x1.a88ea93b24775p+2
18496=0x1.ffc44135ecaf1p+1
18497=0x1.b50c2f31489c5p+1
18511=0x1.ecdd6db1c91b3p+1
18549=0x1.c309fafb0696bp+1
18550=-0x1.a5f30e66768cap-3
18551=0x1.5a7d660e7e7c2p-1
18552=0x1.f901539bcb174p+0
18553=0x1.a36868e294fd2p-1
18560=0x1.baa15789cbdcbp-3
18562=0x1.33a6cc1270f4dp-2
18566=0x1.0f5f207e8eaa1p-1
18569=0x1.9b9ed6d0ccf7p+0
18573=-0x1.939ee19c956e6p-5
18575=0x1.5251620f3afddp-3
18577=0x1.f82dcbeb76cdap-7
18584=0x1.02b5568df4b1bp-1
18588=0x1.c4cacfeecff8ap-2
18595=-0x1.c31aa57b0d8dbp-8
18598=0x1.a7ec939ec4579p-3
18605=0x1.7d36a7084051ep-3
18622=0x1.ffa76ee1fda5fp-1
18630=-0x1.5c9b49fbc9118p-4
18638=0x1.1fbe8cafd7e75p+3
18711=0x1.29d571d86ba8dp+1
18713=-0x1.89ac1e308b33cp-5
18715=0x1.2cc9765276621p-2
18716=0x1.29f72932be7fep+0
18719=0x1.3e405dea914d2p-3
18721=0x1.0164cba3908c7p-7
18722=-0x1.73c5bf834c357p-3
18725=0x1.a5909fe6bbd94p-4
18739=0x1.a81bcf5c22b3ap-1
18756=-0x1.eead5140352a5p-2
18792=-0x1.003beb5f41afp-1
18794=0x1.8bab3f4462debp+2
18796=0x1.4f1448cc1d071p+2
18873=0x1.1865f3d9de5d8p+0
18875=-0x1.5873f9975ccdfp+0
18876=0x1.b30dcde4543fp+1
18877=0x1.be90d6fc0f823p-1
18901=0x1.89511d356bd8cp-1
18954=-0x1.b6e517e46ecbcp+0
18956=0x1.85a43a8b12b43p+2
18958=0x1.34be2c4395454p+2
18982=0x1.5d4830c56e70ap+1
18983=0x1.16d961a1e3611p+2
19035=0x1.46cc388f31a8ap-3
19039=0x1.12d1b20a80e34p+0
19069=0x1.95a87f317641p+0
19116=0x1.f933163e72fdcp+1
19118=-0x1.ffa21ef0cb948p-3
19122=0x1.59684c60b9b33p-1
19126=0x1.8dccdfafea993p-1
19142=-0x1.f0ffd3a7ce5afp-1
19144=0x1.34c0f57be76a2p-3
19145=0x1.a493da7897b16p+0
19149=-0x1.60981cd9be91fp+0
19150=0x1.7e2518070a4abp-2
19151=0x1.83215ecc18219p-3
19160=0x1.6751f79e70207p-2
19182=0x1.43d5d14b3f5d5p-1
19197=0x1.0ad81a2656348p+3
19278=0x1.29dfbe9a76765p+2
19280=0x1.a921522a61d6p-7
19282=0x1.cdc1b1ccdb48dp-2
19288=0x1.6975060324506p+0
19289=0x1.e050386828be4p-3
19290=0x1.cfbf539c110fcp-4
19292=-0x1.76e460b5bd814p-5
19307=-0x1.82dd1ebf56028p-5
19313=0x1.13e20282e83a4p-1
19359=0x1.f94e629f8f46ap+2
19440=0x1.af26e3759d70ep+1
19442=0x1.861cce1362116p-2
19450=0x1.4aa985ba9f646p+0
19451=-0x1.83d1ecf212d2bp-2
19452=0x1.c2a403f6a237ep-1
19477=0x1.581fcea44547dp+1
19521=0x1.11efc4f2ed4d6p+3
19602=0x1.f363bb598d9f5p+1
19603=0x1.54b87c5f0f308p-5
19604=0x1.adf7c18e65aebp-1
19606=0x1.166613b25ee43p+0
19607=0x1.296401b0a4142p+0
19613=-0x1.ce5a9dd59a4fp-2
19615=0x1.0821121f475aap-2
19617=0x1.2c51e4c0d0b25p+0
19622=0x1.b9eee835e5e3dp+0
19630=0x1.d706f3a39359cp-5
19631=0x1.6e22377c48fep-1
19638=0x1.ac1f0ad4c738cp-3
19651=0x1.2bfa4693d4ddcp+0
19683=-0x1.380676161d804p-1
19685=0x1.95a1908878cbep+2
19687=0x1.7b92580186a12p+2
19711=0x1.336d304783365p+0
19764=0x1.9434d4efc5dbcp+1
19765=-0x1.52e7a1d7b569bp-1
19766=-0x1.4e76e6cc56d0ep-2
19767=0x1.8cb05bbf9dcfcp-11
19768=-0x1.355bd690a817ep-3
19769=0x1.6439613b15f16p+0
19781=0x1.784e987ddd45dp-1
19792=0x1.76f42ff24b2e3p+0
19807=0x1.48adf2a1fec71p+0
19809=0x1.767a9e47e77edp-6
19841=0x1.659c002229365p+0
19845=-0x1.a3c85b3d58c14p-1
19853=0x1.b1a60e2103d9dp+2
20007=0x1.ab829411783dep+2
20088=-0x1.6d484733ef901p+0
20090=0x1.520172f728bf1p+2
20092=0x1.4b291db5b5da4p+2
20116=0x1.63c249b8e60c1p+1
20117=0x1.4aa901b70ca58p+2
20169=0x1.4da59c3fceefbp+1
20171=0x1.8555b8587a826p-3
20173=-0x1.af1683a767864p-1
20197=0x1.1a08cd44444e2p+1
20198=-0x1.09c06a27fa999p-5
20250=0x1.d64c616866a12p-2
20254=0x1.1cf76d7a16f08p-2
20270=-0x1.31b3e444c2084p-1
20300=0x1.ab67b33b4499dp-2
20308=0x1.242be150dc71ep+0
20331=-0x1.4219de28b397ap+0
20333=0x1.6573bea51d30bp+2
20335=0x1.4c0d53dc3d6c8p+2
20359=0x1.1d44b2a46f66ap+0
20412=-0x1.0859bfc43abd6p+0
20415=0x1.6e2a308ad90aep+0
20422=0x1.4dcb8a559bae1p+2
20468=0x1.933c9931ebd56p+0
20493=0x1.0539cd5ef74dep+2
20495=0x1.73306dec16885p-1
20496=0x1.8218a251be05ap+0
20497=-0x1.4bf84d4ecad67p-3
20498=0x1.a054018ae51cbp-5
20503=0x1.49ce2836831dep-2
20545=-0x1.74a770573155cp-2
20576=-0x1.377e4a8e3a0eep-9
20578=0x1.4490dcb8c5d26p-2
20655=0x1.1750d24455b0fp+2
20657=0x1.90afd7fe5e4fep-1
20658=0x1.505bc983e16cap+1
20659=0x1.ae0486186fdccp-2
20683=-0x1.5693e7a46fa58p-3
20684=0x1.0d3980a5e5d39p+0
20689=-0x1.93d7d4d843a1p-9
20690=0x1.8bfa1bbd19894p+0
20700=0x1.18cdac67fb445p-5
20701=-0x1.a485a1fe93fc2p-3
20704=0x1.18c7ccbdbf1d7p+0
20709=0x1.21458fe529085p+0
20711=0x1.a7e6709df633bp-1
20736=-0x1.20238bb3f0ffdp+0
20739=0x1.7d175fe946b01p+2
20817=0x1.fb0f6cbde2cdfp+2
20898=0x1.3afba504dbc21p-1
20936=0x1.750a4bde93d2cp-2
20979=0x1.8f73ef4fe8e6ap-4
21060=0x1.2004ce8ebd59ep+2
21062=0x1.3df52b02f6246p+0
21064=0x1.7828427535b1dp+0
21089=-0x1.52e2a796f1b98p-8
21095=0x1.45df72ba081ebp+0
21096=0x1.c331213711498p-3
21108=0x1.8f18650bb5a66p-3
21111=0x1.96d4aa54ae36dp-3
21143=-0x1.88b6db75007f8p-3
21145=0x1.bee390299520cp-3
21222=0x1.f61dd452964a6p+2
21303=0x1.d2956daedf1b7p+0
21305=0x1.ed390c8027fcep-2
21307=0x1.32f28ab3ee008p-2
21313=0x1.36b2153f46301p+1
21317=0x1.45dca648267e8p+0
21331=-0x1.2322386f274f2p-8
21332=0x1.3742d2c3f7969p-1
21338=0x1.45e8cf26503e2p+0
21384=0x1.990dd504b0e7ep-1
21386=0x1.e31c518f1871fp-3
21395=-0x1.17052c2735f72p+0
21398=0x1.e2a8ae7c8f389p-1
21418=0x1.ada6d35c17d1bp+0
21465=0x1.3c6eed8a37dc6p+1
21467=0x1.6856e123673dp-1
21468=0x1.c90ec3af581fbp-1
21469=0x1.266e7d53c76b9p-1
21476=-0x1.c9d2fb0597664p-2
21489=-0x1.6d8537fb38d42p+0
21516=0x1.47db35cc0cbe9p+0
21541=0x1.471ff091fd08bp+0
21546=0x1.00f802a8d5c92p+3
21627=0x1.ab383be1bcb3cp+1
21629=0x1.0305eb964221bp-4
21630=0x1.761ced53b763dp+0
21631=0x1.0ab5a35cadd75p+0
21635=0x1.2e090184abbc3p+1
21637=0x1.80be6bf9bdfd5p-6
21662=-0x1.e019b7df7c0c6p-6
21668=0x1.5887a082a6f5fp-3
21678=0x1.4498998dea29cp+0
21715=0x1.3deefb53bbbb9p+3
21789=0x1.4fc2f88258a53p+1
21793=0x1.8d9b4186edef4p-1
21832=0x1.6bc3bc5dd2b51p+0
21870=0x1.72e1aeba83577p+2
21951=0x1.dd39231826a4ap+1
22032=0x1.99042fb6b3db9p+1
22113=0x1.77b7e7e4c4212p+0
22115=0x1.3e9b84ca3c45p+0
22117=-0x1.31e368c6c676ap-2
22194=0x1.a6696a992e3bfp+2
22275=0x1.d39041808e2dp+1
22286=-0x1.7a66913e311b2p-3
22289=0x1.257fdfb4268c8p-3
22303=0x1.3d9efcab38e4dp+0
22356=-0x1.108772008bb5p+0
22387=0x1.e48c721b07cf6p+2
22518=-0x1.5760bee7af01ep+0
22520=0x1.89e5b6d26d5fcp+2
22522=0x1.84ec9eb86fae6p+2
22546=0x1.d13938e836c34p-1
22547=0x1.881fc7505316cp+1
22599=0x1.d40b55593b364p-2
22601=0x1.b035e5a7947e5p-2
22602=-0x1.44d3d62e6ad0fp-6
22603=0x1.2334c61f81e8ap-5
22609=0x1.50ec162aa26cap+0
22613=0x1.44f23cade1c18p-1
22627=0x1.4163f68f95bc5p-4
22631=0x1.9a7f8983b943ep-1
22633=0x1.91e102e1ecc55p-4
22649=0x1.ce76cfa14c431p-2
22665=-0x1.5d189dba357efp-4
22680=-0x1.34036b3f4e366p+0
22688=0x1.d1ed0d18e175p+2
22845=0x1.4dd437e3a6b7cp+2
22852=0x1.2994abf89529dp+2
22890=0x1.a7a9d36ec2adap+1
22898=0x1.686d6f4e84374p+0
22925=0x1.03264889786d4p-2
22927=0x1.0b4865e33215p-3
22970=0x1.67ff52b3461cp-3
23004=-0x1.7324e231bb05dp+0
23036=0x1.e769717cf3677p+2
23088=0x1.12684cf8b5e97p+0
23166=0x1.b8430f73fb372p+2
23247=0x1.3d06d288b384ap-3
23249=0x1.e51bb620221ap+0
23251=-0x1.41551877d3f67p-2
23256=0x1.ee2ee85a90551p-1
23273=-0x1.0654ceae382dep-1
23291=0x1.eab75491a4161p-1
23302=0x1.8ea88ed0d573bp+0
23328=0x1.f50dfdab8afebp+2
23409=0x1.076df71db95a9p+2
23410=0x1.082f6bfd4d0fep-1
23411=0x1.0ae2afa6a6e11p-1
23412=0x1.0e6a6cde57121p-1
23413=0x1.0f59d45f087ccp-1
23416=0x1.5de7ef1565d94p-1
23426=-0x1.c479fdd8fdce6p-4
23429=0x1.da9e874afc6a3p+0
23437=0x1.078aa7be20d2bp-2
23438=0x1.4357c8e5c8404p+0
23444=0x1.7a77be53f6e03p+0
23470=0x1.2ea50c5a8c4dbp+0
23490=0x1.2b4d62dcf94fcp+1
23523=0x1.21d22fc86bae4p+3
23571=0x1.e6bfe0855a9bep+1
23573=0x1.afa11b7a67b08p-4
23574=0x1.672cfcb2d2888p-6
23575=-0x1.8de99d35e6c6dp-1
23599=0x1.c466a673ac1f8p-1
23606=0x1.27f676fc49745p-1
23617=0x1.6f478ec5bbd34p-4
23652=-0x1.4b72d256916dfp+0
23658=0x1.3ad36088e3419p+2
23678=0x1.655540e59086ep+2
23733=0x1.ceb4729618c4bp-1
23735=-0x1.446e77cf1254p-8
23737=0x1.8f5ed2bca40eep-1
23814=-0x1.535aae5265adbp+0
23816=0x1.1bbd8c56d6b42p+2
23818=0x1.708f8114be44dp+2
23842=0x1.20f0862f03a82p+0
23897=0x1.f51dceff08f6cp-2
23903=0x1.433f5f5128a13p-1
23951=0x1.70edcf1867ed8p-3
23976=-0x1.05cb2bd20465ap+0
23978=0x1.6ee703436a022p+2
23980=0x1.b884968f7defp+2
24004=0x1.275bf3fdd86cfp-1
24057=0x1.9392bfefedb6dp+1
24059=0x1.dd9d1ed502ff9p-4
24061=0x1.859a6b6e5898fp-1
24064=0x1.0a1f82f8de134p-5
24069=-0x1.6377e08d09619p-8
24105=0x1.09f97b50f38c1p-2
24108=0x1.702c0f9d1df7cp+0
24138=0x1.533f07500209bp+1
24300=0x1.dcf639c8147bcp+2
24381=0x1.7bcfd1cb871dfp-4
24383=0x1.c97491dfffa0cp-3
24385=0x1.331d37aa06ffp-1
24406=0x1.7d5217cd4bcc4p+0
24416=0x1.7d719dabb3ca4p+0
24462=-0x1.75f8d472bee91p-1
24496=0x1.45f79e6a85182p+2
24511=0x1.3de8c1f170dd2p+2
24547=0x1.9321bea5aeef1p-4
24624=-0x1.0261bb3a31dadp+0
24659=0x1.bd3b16b04990ap+2
24705=0x1.bdc934dcf100ap+0
24716=-0x1.924f8b39b8812p+0
24719=0x1.91d82b7d9191fp+0
24737=-0x1.3bfe0ac120d93p-1
24740=0x1.72233f21b317dp-3
24761=0x1.9ada94366da26p+0
24786=-0x1.3c347ed28769dp+0
24789=0x1.699c821f1b3a1p+0
24817=0x1.c310e54418148p+1
24834=0x1.bf30f943c5871p+0
24867=0x1.76536a4c11255p-1
24948=0x1.a146a77fd244cp+2
25029=0x1.b5ac3786df595p+0
25031=-0x1.eac8c7461eef8p-4
25033=0x1.36d08da2d3d03p-1
25055=0x1.2eaeed16e44a6p-2
25063=0x1.5c1a735514b2ep-2
25064=-0x1.016b5bfa2cc0bp-8
25070=0x1.287a8b9da9ccp-2
25145=0x1.dc6e5b7fe67e6p+1
25191=0x1.408d95b6495c3p-1
25272=0x1.774fa170708fdp+2
25353=0x1.218153f62c9a6p+0
25357=0x1.04e0d33a3a9cfp-2
25434=-0x1.3c8d137eee56bp+0
25436=0x1.8d299310e5e49p+2
25438=0x1.7ce5f35c184b3p+2
25462=0x1.b608686259bdfp+1
25463=0x1.2befeaf9f0cc4p+0
25515=0x1.38b004203bff4p-1
25543=0x1.73eaca87726dfp-2
25564=0x1.d85761c94081ep-1
25566=0x1.c484832e1d1bp-1
25596=0x1.394dbeb72eb51p+2
25677=0x1.9a890a56f0d9dp-1
25758=0x1.dd3bbb481f154p+2
25839=-0x1.af03ca6281965p-1
25875=0x1.1cb614b71b00ep+3
25920=0x1.566dcd552ce96p+2
25922=0x1.4d19e1713aa77p-1
25924=0x1.97242c875323bp-3
26001=0x1.53f9266009f71p+2
26029=0x1.7e33c155b2877p-1
26033=-0x1.99ead47fada4ap-5
26082=-0x1.8b71e1582235p-3
26095=0x1.444c1931cff6bp+3
26163=0x1.725616e147a03p+0
26164=0x1.349d937347eeep-4
26165=0x1.5e54713a413f1p-1
26166=0x1.b923950b24ca3p-1
26167=0x1.d34320b356f1bp-2
26171=0x1.1023b3123cf76p-1
26172=0x1.b9ae324cf66c8p-1
26198=0x1.8d8b8e4ef6348p-1
26244=0x1.9ad76d5ce9556p+1
26325=0x1.e96f23c9e20eep-3
26406=0x1.ce33219755075p+2
26487=0x1.e952878454aa4p+1
26489=0x1.b4094309831eap-1
26499=0x1.42e7b842d0958p-2
26568=0x1.0949920ee11fep+1
26651=0x1.915c6563fb487p+2
26653=0x1.81523d48a0dap+2
26732=0x1.d61a199a1e9a6p-3
26858=0x1.7fa0ad43ea5p-3
26892=0x1.f530b52753acp+2
26973=0x1.831a465cdd32ep+1
26975=0x1.3b13f14965441p-3
26976=0x1.3d2fa9da3b1d7p+1
26977=0x1.1ce8f175f9ca7p-1
26983=0x1.467c3da62244cp+0
26986=0x1.3e7a1b2becf9fp-2
26990=0x1.6e94dbd08ffebp-4
27002=-0x1.2cce3c5ce4c21p-2
27019=-0x1.a6d1ff0fe07efp-6
27023=0x1.a149703cd9cc5p-1
27024=0x1.6980b74b3c15bp+1
27054=-0x1.a25c51394e91ap-1
27086=0x1.e4401f55e2a3ep+2
27137=0x1.aca14ed4cc771p-5
27139=-0x1.06d86cd60fc1dp-6
27172=0x1.c61ab13cff9e5p-3
27253=0x1.ca5feee99492ap+0
27378=-0x1.1a0f5e62d5f6dp+0
27380=0x1.a6eeabfea57c5p+2
27382=0x1.5c6c1e14b653cp+2
27406=0x1.ba4e144d47992p+1
27407=0x1.7fb3f90a42c16p+1
27459=0x1.302147524e795p+2
27540=0x1.926d22af63c93p+1
27541=-0x1.95b17e9e4c65fp-2
27542=0x1.a2bb9e6e587e2p-5
27557=0x1.30ead509b98f7p-1
27621=0x1.d8ffaae4f70bdp+2
27702=-0x1.851f0155595ffp+0
27740=0x1.6d1a94be26e53p+2
27745=0x1.5bbd6a30bea3dp+2
27783=0x1.4a142acc60779p+1
27785=-0x1.704633b0a3f3cp-8
27787=0x1.38aca71f3366p+0
27789=0x1.930dd1d1293acp-1
27794=0x1.d0d8b3eb22bc2p-4
27797=-0x1.0fc8bde19a305p-3
27800=0x1.61e56c7f403b3p-5
27811=0x1.595ada0bbc8cp-3
27817=0x1.53c2c571eca07p+0
27821=0x1.6638545758522p-2
27834=0x1.a0b377397c65ap-1
27864=-0x1.cfb029dfd49e6p-2
27867=0x1.0cbe938790e6cp+2
27874=0x1.31cd464addce9p+2
27947=0x1.e2c52c4cc6b8p-1
27948=0x1.2c4f4d14c85dfp-1
27993=0x1.a8cf147a55b28p+0
28107=-0x1.705db172c1494p-2
28113=0x1.8565cd33c9195p+0
28133=0x1.d0156ab810dddp+2
28188=0x1.ad3f7269a1bd1p+0
28190=0x1.f9b51eb4e4e18p-4
28192=-0x1.edf046b7a0b67p-5
28194=0x1.54f762be842f2p-1
28214=-0x1.c487b29dc89b1p-2
28216=0x1.9fc5841056fd7p+0
28269=-0x1.3c0d605b423aep-1
28271=0x1.730ba7c8786bbp+2
28273=0x1.73deda509f5ep+2
28297=0x1.3c1ade42942c8p+0
28350=0x1.7cca0c80c54dbp+0
28352=0x1.09a531c7f9cbbp-4
28354=-0x1.80d22d3a289b2p-5
28365=0x1.d5ce49d25caf9p-2
28378=0x1.6dedaf74739dfp+0
28431=-0x1.f12e55705f38fp-1
28433=0x1.8abda2e3a2e59p+2
28435=0x1.76ad6e7c0ae98p+2
28460=0x1.1c3c7510f68f8p+2
28512=0x1.753dcbb05bdbdp+1
28515=0x1.bd89a8360961dp+1
28516=0x1.a5e384f1ce81p-1
28541=0x1.30e3cfbcec89dp-4
28593=0x1.101ecf77a247ap+3
28674=0x1.1a5d7f5d09fcap+2
28676=0x1.67120d5dc345bp-1
28677=0x1.a2f88ca87cc0cp+0
28678=0x1.d815140afb076p-2
28680=-0x1.90def2d34324dp-4
28684=0x1.1977fe7c7724p+0
28691=0x1.3fb91cf757d3ep-4
28697=0x1.dbe0b1a6742b3p-3
28700=0x1.43aae2e6eb4c2p-1
28703=0x1.d5cfa6136c929p-2
28709=0x1.d30f524e63f08p-4
28718=0x1.a0feed4d2dd5ap-2
28720=0x1.ab177a48bf213p-1
28721=0x1.61f442eb23eb2p-2
28725=0x1.66f33626d00a4p+0
28726=-0x1.f1af5ab841f3p-2
28733=0x1.71e6503b274c3p+0
28755=-0x1.b9ff75453f3eap-2
28791=0x1.da0103c25e7ap+2
28838=0x1.4f4db4f14373fp-2
28840=-0x1.554daeb964d82p-4
28917=-0x1.1ea229a1d95fp+1
28951=0x1.8041ac8ba5969p+2
28956=0x1.69906bc13f0fep+2
28966=0x1.669eec6af6553p+0
28998=0x1.b47053ef05703p-1
29000=0x1.79b20ccaeba92p-3
29009=-0x1.049494bc1dae7p-3
29012=0x1.f95c0efb703c2p-4
29079=0x1.c7d12d7db18adp+1
29241=-0x1.e50d0e00ebac4p-1
29244=0x1.5cb8fb95ea23ap+2
29251=0x1.c08315a7a88f8p+1
29310=0x1.8a0d87508b14bp+0
29322=-0x1.9c6ac9a3a59abp+0
29328=0x1.6bfaea7b1f3b6p+2
29348=0x1.967617a8b526ep+2
29432=0x1.36d9b24294113p-1
29484=-0x1.d5e3d5d618d2ap-2
29485=0x1.ee6db4d7cc6aap+2
29501=0x1.595b8f7c7c943p+2
29565=0x1.0e5c0bc3e152ap+2
29567=0x1.07615a7e8837cp-4
29569=0x1.d73e0b292c3c2p-1
29599=0x1.c7490eaa4c2e7p-2
29646=-0x1.fb9aa0f4b3c44p-2
29686=0x1.21da79cc35a74p+3
29727=0x1.3804ffc0e4188p+1
29730=0x1.aa345fb5de529p+0
29731=0x1.c0439e1cc7cfbp-2
29808=-0x1.399e4efd5c917p+1
29843=0x1.5830fe05d7878p+2
29849=0x1.3dfc54d4f227dp+2
29891=-0x1.24498d5752f0bp-6
29893=0x1.28c7e9245b299p-2
29970=-0x1.4003fcefa9fb7p-2
29977=0x1.d2fe06fd230edp+2
29982=0x1.591386de7b41bp+2
30054=0x1.ff059a3fdb188p-3
30057=0x1.54b36a10cf734p-1
30077=-0x1.c3ff5e8e7a2d7p-2
30080=0x1.8e16e1232ec5fp-1
30132=0x1.14929030c6e69p+2
30215=-0x1.03f9c28bf53b5p-1
30217=0x1.e4c600e1612c9p-1
30294=-0x1.50017524e59b2p+0
30296=0x1.7a221315e43bcp+2
30298=0x1.ac027a9f01ca1p+2
30322=0x1.0dfd1e60566a5p+0
30375=0x1.6d1c9d4aefdbfp-4
30377=0x1.15c1ef7b0f095p+0
30410=0x1.b6b1ce32c1f74p-3
30456=0x1.04c9200252137p+3
30537=0x1.3401f2476df41p+1
30539=0x1.873ae53815538p-1
30541=0x1.a46f7351f3e54p-1
30548=0x1.be9d1cdb8fbafp-2
30565=0x1.798889dd4ff96p-5
30566=-0x1.c48b5b18779a2p-3
30569=0x1.4faf1ad65aeacp+1
30572=0x1.ce858ce6bdf69p-1
30573=0x1.1538f8621119ep+0
30576=0x1.23a23800c70ddp+0
30589=0x1.d93f11e6e81b9p-4
30604=0x1.23811ab057eep+0
30618=-0x1.db52fa1d7fc8ap-1
30621=0x1.d6213e26e5ab5p+1
30628=0x1.a4cd2a911f8eap+0
30703=0x1.7581106404c64p-4
30780=0x1.55c8095c996f4p+2
30789=0x1.560a674a6c6p+2
30861=0x1.b154344287475p+1
30863=0x1.10b46e73895d4p-2
30870=0x1.f31f4ac172ed2p-1
30872=0x1.bbe54afd2ce46p-1
30875=-0x1.9eba34e7456efp-2
30896=0x1.f7dc6dff457b9p-3
30905=0x1.74969c110a45cp-4
30908=-0x1.fa9ef0c484acfp-8
30920=0x1.52c4a4bddb5ffp+0
30942=-0x1.f5326a92fddcp-1
30944=0x1.8e0c3bdfcfe2ep+2
30946=0x1.8e0505d5144e8p+2
30970=0x1.748a9d695bdf9p+1
31023=0x1.e128b9e2abe1bp+1
31025=0x1.2ac5063aea3e3p+0
31033=0x1.7483384ce86f2p+0
31058=0x1.c903859c22684p-3
31104=0x1.0eb7f62fce2c8p-4
31266=-0x1.c80c40c5b2d0ep+0
31268=0x1.267a44b671cc1p+2
31270=0x1.56611f721ac69p+2
31294=0x1.5cc6e2f0a231bp+1
31295=0x1.e28dec92ebfc5p+1
31347=0x1.dfad44aad037bp+0
31349=0x1.7d21bc3003e8fp-4
31350=0x1.0620f227b26a5p-3
31351=0x1.f5b55856aa293p-4
31352=0x1.461dda557517p-3
31377=0x1.2f0810c347c3ep-10
31436=0x1.31f6e4f36f4b6p+2
31509=0x1.61991d094dd6p-2
31671=-0x1.fa31cd32debc2p-1
31706=0x1.b9a1c1de5c026p+2
31756=0x1.8d1a321556a3ap-4
31854=0x1.1a2a0fdd52698p+3
31914=-0x1.32f09968076dfp+0
31917=0x1.3a068d367a671p+2
31924=0x1.31eb22b8df533p+2
32076=-0x1.14a8650d25c95p+0
32083=0x1.e7b2ef1a39c6ep+2
32088=0x1.58e454b2b002bp+2
32140=0x1.7552a6e8064bcp+0
32157=0x1.85d58481f3e47p+1
32160=-0x1.4727cfc1090afp-8
32161=0x1.4145c4249a897p-1
32165=0x1.b192276c383efp-1
32167=0x1.402a839a788bcp-3
32175=-0x1.70f87593b2946p-2
32186=0x1.02e3b832750e1p-1
32187=0x1.fd0253837af17p-3
32198=0x1.4766c9b301283p+1
32238=-0x1.0cf18c381bbc3p-3
32280=0x1.5205ad5934ccep+2
32419=0x1.3e3479ae3cdaap+3
32562=0x1.a2b64bd38cb8p+2
32643=0x1.9117893c7925bp+0
32647=0x1.cd200795985f6p-1
32681=-0x1.00943e2dae6c8p-7
32686=0x1.9596b8cd2205bp-2
32710=0x1.87ab9ead2458ep+0
32724=0x1.7c25f901ddcdfp+2
32805=0x1.2c47898d136c6p+1
32809=-0x1.424afe5eb0631p-5
32813=0x1.905f4f9b90b8ep+0
32815=0x1.58eb13bf18213p-2
32816=-0x1.173ff063f4504p-2
32833=0x1.5641c22b8af64p+0
32886=-0x1.506e2933162cap+0
32888=0x1.a152425cd1cedp+2
32890=0x1.91176a23cf82fp+2
32915=0x1.2786dfd4fa1c9p+0
32967=0x1.608e7761a3c8ep+1
32969=0x1.c09c5f464927cp-2
32971=-0x1.334984253c2b6p-1
32974=-0x1.a6a39a588beafp-1
32979=0x1.656536cdbc25p+0
32981=0x1.e7684111f1c54p-1
32985=-0x1.1973a0dde1a37p-2
32996=0x1.9e86ff5d80c4p-3
33023=0x1.859c28582884p+0
33032=0x1.75db821eed1e8p+0
33048=-0x1.0d59294fed439p+0
33086=0x1.ac05e19859e18p+0
33091=0x1.58ee9c1022f92p+2
33210=-0x1.e0e1c240f094dp-1
33254=0x1.89d7475b055dap+2
33375=0x1.a7c79e2e4a61ep+0
33455=-0x1.e7b445789501fp-10
33457=0x1.4405bb58bc8b5p-2
33534=0x1.1cfb32d19128cp+2
33535=-0x1.6a97af9b034c8p-1
33538=0x1.1911b33e2aed7p-1
33563=0x1.32b95c2c989adp-1
33582=-0x1.1df6b92ab14f9p-4
33588=0x1.602258094c915p+0
33596=0x1.71ba32355a00dp+0
33615=0x1.606453d4c4e6p-6
33620=0x1.74ff0b027c276p+2
33660=0x1.deeddbb318881p+2
33686=0x1.67c6680479bb5p+0
33696=0x1.1c2a8ac44072p+2
33707=-0x1.859607d93c88ap+0
33722=0x1.d50c3d587a379p-2
33793=0x1.4f8946d4b07bbp+3
33862=0x1.7da69f69a3268p-3
33890=0x1.9a1ed40453d2dp+0
33919=0x1.9a1ea9e2a87ccp+0
33941=0x1.9c49028560bdap-2
33942=0x1.0eb9d123eb4bap-1
33943=0x1.75ab56d40e09cp-3
34020=0x1.0bf04512db99dp+3
34101=-0x1.c8cccee63b595p+0
34103=0x1.812c4d1246539p+2
34105=0x1.09e5c40dff0cp+2
34182=0x1.005092ab60e8ep+1
34186=0x1.31197136216aap-1
34267=0x1.b32f94f707e6ep+0
34425=0x1.ce5e5e498aee9p+2
34506=0x1.d82dd5a1fdd63p-2
34508=-0x1.1d6403b1223ep+1
34510=0x1.4386860545364p-1
34535=0x1.97d94140f3018p-2
34587=-0x1.c2d8434e6014fp-1
34622=0x1.bd7458fae676cp+2
34668=0x1.256693c339ab5p-2
34752=0x1.a151283b3c394p+0
34911=0x1.434b8547caeebp+2
34992=0x1.c1bb7441810f7p+1
34994=-0x1.b0e6309d969f2p-3
34996=0x1.885254e2b197fp-3
35073=0x1.517cf6600a13dp+2
35154=0x1.6cc652163fb7ep+0
35156=-0x1.55ba7789303bep-1
35158=0x1.5fc691b7efbeep-2
35159=0x1.b362b8fb3d0dbp-2
35169=0x1.e11f76f101412p-2
35235=-0x1.c0a54b356a616p+0
35238=0x1.1765437f983c9p+0
35266=0x1.7d25af43480cbp+0
35289=0x1.d5b4c51c78847p+1
35291=0x1.4aeacf4ad6fcdp+2
35316=0x1.477ca92fec5fp+0
35318=0x1.f9fa3a4b74fe7p-6
35323=0x1.6f491aaee4537p-4
35397=0x1.1ced24c849bb6p-4
35399=0x1.a10af67746121p-2
35400=-0x1.9becec33e40dbp-10
35401=-0x1.7a385849f37e9p-8
35407=0x1.ab2c600f3dda1p-3
35408=0x1.4aa3682303734p-5
35411=-0x1.b0d883d216b32p-6
35425=0x1.5ee7c2c87185ep-1
35480=0x1.655dfaaf66c19p+2
35482=0x1.4946946e03f3ep+2
35559=0x1.efe5f2e6e1d7dp+0
35560=-0x1.90bc8a6be0e76p+0
35561=0x1.20bf119ee2d66p-10
35563=0x1.c5b5bb87c69d8p-3
35621=0x1.a69517fe9ab0ap+0
35640=0x1.761c3c2b0b0c6p+2
35725=0x1.c8f0de9c30d1ap-1
35802=0x1.88307f080de74p+2
35883=0x1.48b8ac46498a4p+1
35884=-0x1.279399a52d58bp+0
35887=0x1.77d81f4e0ea98p-1
35900=0x1.711b00c36606dp+0
35964=-0x1.44723bc67d18ep-1
35999=0x1.c84d08b5f8e6p+2
36005=0x1.84e8262750836p+0
36048=0x1.afaa950333aa4p-2
36049=0x1.52e70773198f1p-5
36126=0x1.f7b234dd33b06p+2
36207=0x1.96efec17a083bp+1
36288=0x1.201cb9d1f2b8cp+2
36291=0x1.4f1c497caa217p+1
36292=0x1.1f4ca6daad62p-1
36294=0x1.dd753cd3b44bep-4
36305=0x1.efef1f70f3e8dp-4
36317=0x1.dcc8dcc082b66p-4
36323=0x1.307ca75ab7fdbp-6
36450=-0x1.333695e395c87p+0
36488=0x1.81c467015616bp+2
36493=0x1.64f113306d0a5p+2
36536=0x1.53b908e798e4dp-4
36612=0x1.47c2c51428128p+1
36658=0x1.823c5b341e584p+2
36728=-0x1.2c2b3695e0ad1p-9
36734=0x1.7ab489170991dp-2
36774=0x1.673f7d1eda618p-3
36790=0x1.8b38a82009abdp+2
36936=-0x1.45bdadab6458dp+0
36960=0x1.df8c29b5e0cd1p+2
37009=0x1.7fb599ea3985ap+0
37012=0x1.e53d61086124dp+1
37017=0x1.baeff242a258ap-4
37098=0x1.f559d1d31543cp+1
37179=-0x1.026576d24fbbp+1
37226=0x1.737990b89224fp+2
37238=0x1.575b21678c83fp+2
37240=0x1.85095999883fp+0
37262=-0x1.056942ed4c6e4p-8
37264=0x1.402b7a6eadb7fp-2
37341=-0x1.7d4db7262c027p+0
37343=0x1.5a04a54134c1fp+2
37345=0x1.18dea216e764ep+2
37424=0x1.0f4327cb5a038p+0
37503=-0x1.5ced01a143825p-1
37506=0x1.86ea481a98477p+2
37507=-0x1.a99c8cc71e944p-3
37513=0x1.52d80cb4e077bp+2
37551=0x1.954695c84299cp+2
37584=0x1.931abd04e8d97p+0
37628=0x1.e6e6e855135bap-2
37665=-0x1.06121e26f3bc2p+1
37667=-0x1.5eba5fde38c98p-6
37669=-0x1.d8f747fd7d58cp-5
37699=0x1.6d7af3e8d7a45p+2
37704=0x1.77709630ab9ddp+2
37714=0x1.7095412a9f1d1p+2
37746=0x1.0faa9b7775014p+2
37778=-0x1.ba7820e9e55a2p-3
37827=-0x1.c65b457abe816p-1
37835=0x1.e802fb6de0ac4p+2
37908=0x1.4c5da0518e2bp+2
37989=0x1.3f4fd6221bcbap-1
38070=0x1.3b9df08b60d7fp+0
38072=-0x1.8a4cf99a4f34bp-8
38074=0x1.2de055c067fccp-2
38151=0x1.c67bea4a50365p+2
38232=0x1.b329e6832a9e1p+1
38243=0x1.1b67c6cc45919p+2
38246=0x1.2b8a4172c8937p+2
38313=0x1.a2c8b7660c73fp+1
38341=0x1.af692f6ca9e1ep-1
38394=0x1.77fd9191b6e23p+1
38396=-0x1.ae837d6523237p-4
38398=0x1.4924535a76cc4p-3
38422=0x1.e4b313ca3e067p+0
38475=-0x1.21297aac50015p+1
38477=0x1.1ff5c42b50119p+2
38479=0x1.366d9f8e1cafdp+2
38503=0x1.23c68d8227675p+2
38504=0x1.165ceceaacf5ap+2
38558=-0x1.006abd39ed23bp-10
38560=0x1.298b0a8fa6d6ap-3
38637=-0x1.427297ffc29a9p-1
38681=0x1.4faf46d1c3c9ep+2
38799=0x1.215f3136c4f3ep+2
38882=0x1.55476060c3a71p-2
38884=-0x1.7b363431ea63fp+0
38909=0x1.761e1aa7a993dp-1
38961=-0x1.7d688637e8f55p-1
38964=0x1.866304cbdfep+0
38971=0x1.191c153755eb5p+2
39044=0x1.3d94c8e22200cp-8
39123=-0x1.487b89f7ca672p+0
39125=0x1.8567a3e5b112bp+2
39127=0x1.8e32f3702d799p+2
39151=0x1.24ef4643d4238p+0
39204=0x1.dd1f1bdc5b53ep+0
39206=0x1.80c944f1533c5p-2
39207=0x1.7123513f6d6acp+0
39239=0x1.e2cd1a79b57b7p-3
39256=0x1.71ab94e74e3e8p+0
39285=0x1.04858792184e1p+2
39366=0x1.068f7718b5e93p+3
39528=0x1.fd36a17dce02ap+1
39609=0x1.8b80adbb7d473p-2
39611=0x1.06e208dfd2ab6p+0
39690=-0x1.d937baa036a9ap-1
39695=0x1.35d3832d21a27p+3
39771=0x1.2c7fb216b5de2p+0
39773=0x1.2be2fb7bdde75p+0
39775=0x1.0bfa1f7673abap+0
39777=0x1.358c1a0aafa64p-2
39797=-0x1.c236f7f5eb393p-3
39803=-0x1.c24b1778b6603p-2
39808=0x1.80855a5b11e6p-4
39840=0x1.58bd492ff5b53p+0
39852=0x1.c5c8be61c68d4p-3
39854=0x1.17e9f3c4c0db1p-4
39855=0x1.b331a75f6d03dp-6
39856=-0x1.a4d137670feccp-9
39880=0x1.4bd3459a10b48p-1
39881=-0x1.7ff736c5ede24p-6
39933=0x1.ec2ad97cffef3p+2
40014=0x1.98f8b75832ee1p+1
40016=-0x1.6f06c1db4a417p-6
40019=0x1.402eaa4941d6fp-5
40024=0x1.73e108a914e47p-12
40025=-0x1.abc14b74011bfp-3
40042=0x1.1fb3cea35a1a2p-1
40043=0x1.d68f44c0ebf28p-7
40057=0x1.721b7429820d2p-2
40095=-0x1.f518c677c131bp-1
40111=0x1.de96b91b97547p+2
40257=0x1.4de2840c55103p+2
40338=0x1.6acd549c2994ep+1
40342=-0x1.502adebadcf7ep+0
40366=0x1.8365cb7dc14a5p+0
40419=-0x1.cf6e418ba624cp+0
40425=0x1.4e4ac91f43eedp+2
40429=0x1.f93bfce3fbbcbp+0
40445=0x1.ca91af181f12cp+2
40472=0x1.d2e61d9f2d6fp+1
40474=0x1.4b2c703d1c5b3p+0
40500=0x1.ee48331965647p+0
40502=0x1.c7b18138f0b16p-1
40503=-0x1.0f1a0c710a306p-10
40504=-0x1.d3cf3e9cbfc18p-3
40510=0x1.61dadc7b51698p-3
40511=0x1.482622320af1bp-2
40514=-0x1.f83db6b541efdp-2
40529=0x1.82012ba4ff9e8p+0
40538=-0x1.016131bb4455cp-7
40543=0x1.7a9374e90068p-2
40581=-0x1.1290bcc9b9c75p+0
40582=0x1.c9d8b55e82e75p+2
40662=0x1.1ffe7e722edd3p+1
40675=0x1.5e0caec4c70adp+2
40708=0x1.7e6179f89633ep+2
40789=0x1.c58393f9a9df3p-3
40824=0x1.c934aecc04ae4p+1
40826=0x1.4daed89ea6ef5p+0
40827=0x1.30d5ff2e56fc5p+0
40905=0x1.4ce0be6d25f76p+2
40992=0x1.5fa110c197a6ep-1
41012=-0x1.b576596d48cd4p-2
41015=0x1.681f58aebac4fp-2
41037=0x1.a23ff7f8232cfp-3
41067=-0x1.49fa138517bb2p-1
41083=0x1.1c1baf5438d7ep+3
41148=0x1.be2236ed8874p+1
41151=0x1.574942c9e55cfp-5
41152=0x1.29fbb5b3dd3d4p-2
41173=-0x1.aa5a37b6ad3adp-12
41229=-0x1.3dd0dbfc14365p+0
41240=0x1.9b6bf4e8a452cp+2
41243=0x1.bb604a6080145p+2
41303=0x1.4701e081b44cep+0
41312=0x1.a07512d324aafp-3
41314=-0x1.e5171e31c1c53p-7
41321=-0x1.757770d00813p-3
41324=0x1.39ba89692b146p-4
41325=0x1.e83c773450d41p-1
41339=0x1.0dece764e7ae3p-5
41344=0x1.8aa360194f27p+0
41391=-0x1.4e40739bce157p-1
41435=0x1.e3f8106dc8d0ap+2
41472=0x1.a40d8691b1457p+2
41556=0x1.b452fa6bf406p+0
41638=0x1.159f4ef89a13ep-1
41642=0x1.3ca12b448a614p+0
41715=0x1.db26822a4addcp+1
41717=0x1.651a81b3ca169p-3
41725=0x1.8fb1af0c14a39p+0
41726=-0x1.64255870fb62ep-3
41729=0x1.5614ebf7a4b4ep-4
41733=-0x1.808697859b5dfp-3
41745=0x1.3930629e4675fp-1
41747=-0x1.375714b470e3bp-1
41766=0x1.8faff7541936dp+0
41796=0x1.4b3b5f527e13bp+1
41797=-0x1.578c7c41cf3c4p+0
41798=0x1.58293bf74d6bap-1
41800=0x1.14397f8326bd7p+0
41803=0x1.896b8a0522a54p-2
41804=0x1.6727e87d99a4ap-2
41813=0x1.1f8815ee4952cp+0
41845=0x1.3b44b25c6b17fp+0
41877=0x1.41dd829ebe357p+2
41960=-0x1.3f86cb0e2072ep+0
41962=0x1.a6a904e0ce06bp-1
42039=0x1.8d58222dff6d4p+2
42120=0x1.06459f1b7b7ebp+1
42122=0x1.8105d48d13034p+0
42124=-0x1.5ad46e2f4af7ep-1
42201=-0x1.aeddd6a0b1238p+0
42206=0x1.736cad54728eap+2
42222=0x1.82463d36d8fc7p+1
42236=0x1.6526346972287p+2
42242=0x1.85c928c697e21p+1
42282=0x1.37f66234ffa8bp+2
42284=-0x1.faf22182ef676p-3
42286=0x1.cc19c72f63e9p+0
42327=-0x1.0ac2058ba3f66p-1
42363=-0x1.ad1b867dc37fap-4
42371=0x1.71cb10b805949p+2
42452=0x1.3bd30a5dbe59p+3
42606=0x1.c2cbb046e4b48p+2
42687=0x1.a614eff4d9ac8p+0
42689=0x1.dddbd075e3238p-1
42691=-0x1.d2a3796516642p-6
42693=0x1.e9c8387ac6d98p-1
42713=-0x1.1cf0bc896914ap+0
42748=0x1.a0b230dbfa44ep+0
42768=0x1.fbf10499df15bp+0
42770=-0x1.3517c5f274fp+1
42772=0x1.5dd058f8050f7p-7
42779=-0x1.891c1c76c396ep+0
42782=0x1.635c42b4adc8ap-2
42788=0x1.3293bb6948b65p+0
42797=0x1.216da0e67e386p-1
42849=-0x1.22647de50b5c6p-1
42851=0x1.612ceb190ed86p+2
42853=0x1.54bcd5a8773bep+2
42877=0x1.526e1e0efe798p+0
42932=0x1.8bae6b50d4a16p+0
42934=-0x1.6d1342a7434ddp-1
42965=0x1.266da5304f71ep-2
42975=-0x1.0a82bc7427e5dp-1
43034=0x1.35cdf2a2ec79cp+3
43092=0x1.0b06a706c4159p+0
43094=-0x1.3efd828bf37ap-5
43095=0x1.730d4a0e9238ep-3
43099=0x1.4774d58081d39p-4
43120=0x1.7e9b3634f88f7p-1
43121=0x1.ccef8b7c6da02p-4
43173=0x1.80828d6a94f69p+2
43254=0x1.1bc539c9ee273p+1
43256=0x1.2d8ef65183f18p-5
43335=-0x1.854f4b07fb811p+0
43370=0x1.8fd42f5da2cf7p+2
43376=0x1.0570e52165aafp+2
43416=0x1.34abbd1bbca3fp+1
43499=0x1.5d43ed714dce7p-8
43578=0x1.61ea9f871b397p+2
43661=-0x1.50a4e4abfa1fcp-1
43663=0x1.7956c473ad731p+0
43704=-0x1.08787d40a37cbp-1
43730=0x1.c0b561d56d0b2p+0
43740=0x1.1962080239adep+1
43741=-0x1.07c4bf2b29eeap-1
43742=-0x1.0de2e631ae9bbp-5
43744=0x1.d33efa33dd93ep-1
43750=0x1.902dfe325359fp-5
43757=0x1.1f2679cd0b58p-1
43766=0x1.32a15303f753cp-9
43774=0x1.959c314a506e4p-1
43821=0x1.34065df80afd7p+2
43904=-0x1.90ed7db4d83fbp-3
43906=0x1.b202ac76fb9f3p-3
43983=0x1.dcfde0b8df2dcp+0
44148=0x1.b8b7bdcdfe485p+0
44307=-0x1.7c7cc6fc57e8fp-1
44309=0x1.0761a2717d57ap+2
44311=0x1.6607770c280b1p+2
44335=0x1.1712bf24b832fp+0
44336=0x1.4a05c21cf868ap+2
44388=0x1.0d200b22e2ea5p+2
44469=0x1.549e47ed1ff75p+1
44470=0x1.80c1475cee68dp+0
44471=0x1.51b472af0b041p-12
44472=0x1.6579d11063836p-2
44479=-0x1.9e4178bdcdd62p-6
44550=-0x1.7945da92f973p-1
44558=0x1.9d921fe76b2efp+2
44631=0x1.92c6154990b65p+0
44635=0x1.143cd2d1000bap-4
44639=0x1.4651d9e9331cap-3
44793=0x1.19f1278344b8ap+2
